4575 32
1126 0.20812505 -0.27218613 -0.50769514 -0.389441 0.27858853 0.5958109 -0.2388422 -0.31312644 0.19390921 0.008842899 0.5025582 -0.2224748 0.35421836 0.006648235 0.014177612 -0.10554336 0.047616668 0.4092607 -0.086901866 -0.3746894 0.03936874 -0.03970132 0.2853833 -0.12772292 -0.32302082 0.63731277 0.077732675 0.10729599 0.02823091 0.1770374 0.22195737 0.27303436
1306 -0.09072217 0.03512443 -0.30914918 -0.13521558 0.44570306 0.63479865 0.30089986 -0.43070993 0.22153427 0.050174754 0.25658646 -0.20777902 0.3666948 0.10162427 0.16865496 -0.0023292836 -0.24203669 0.20950606 -0.24858545 -0.2555085 -0.53835374 -0.13085845 0.053528067 -0.14443295 0.19093794 0.61239696 -0.32137078 -0.1209675 0.0065498734 0.22057576 0.025202794 0.029112855
1072 0.081397936 -0.26299116 -0.19451348 -0.30830643 0.40405604 0.71142197 -0.21315289 -0.5757775 0.19245026 0.28701594 0.05892312 -0.32834965 0.3063309 -0.06301585 0.22954082 -0.17033362 -0.16232246 0.46311665 0.0021310332 -0.36322936 0.15031427 -0.35527512 -0.014787198 0.013958843 -0.2744318 0.4623876 0.10784212 -0.087029554 0.1869463 0.31883353 -0.040038545 0.08642911
1075 0.022670416 -0.11749083 -0.3166818 -0.3466235 0.5273016 0.35286474 0.09407636 -0.65647864 -0.24364857 0.35581854 0.8153102 0.17721057 -0.29218024 -0.5625771 0.46351683 0.15076083 -0.17345813 0.16519174 -0.068916395 0.02740186 -0.052545752 0.12845792 0.031716418 0.18126446 -0.687324 0.0056189774 0.14969015 -0.19003664 0.093744926 0.12799181 0.48453307 0.30417264
1045 0.19012018 -0.120560326 -0.68047404 -0.30781275 0.11268507 0.61742073 0.12430039 -0.6212864 -0.22765714 -0.09295469 0.15783803 -0.47168708 0.10330928 0.08810434 0.1350435 -0.13069005 -0.24612205 0.29773337 -0.464601 -0.28288886 -0.4233349 -0.14410453 0.14422575 -0.07863004 0.21072882 0.45964697 -0.0754215 0.2273583 -0.12777416 0.39373404 -0.11119006 0.16180244
1070 -0.28342783 -0.45451576 -0.53772616 -0.09505906 0.28646126 0.45119178 0.27062327 -0.9097917 0.1177929 0.0021273466 0.2221958 -0.19979253 0.07173016 0.27994445 -0.19111536 -0.2764323 -0.12848231 0.4267594 -0.4841038 0.33988413 0.17163152 0.10652311 -0.21988076 0.019539496 -0.1603922 0.36548075 -0.06727222 -0.026159113 -0.028967516 0.18872204 0.10489358 -0.11649905
1350 -0.09830384 -0.21488345 -0.5390457 -0.3067005 0.24964952 0.54562235 0.32504928 -0.5302737 0.1336946 0.04062925 0.09831158 -0.30303502 0.12833609 0.04534837 -0.32442117 -0.37474525 -0.23738863 0.33777615 -0.39462766 0.13131125 -0.0020391932 0.017949611 0.01785042 0.024246216 -0.35007933 0.42208794 -0.025889633 0.10388173 -0.14739904 0.050144557 0.27302453 -0.28672332
1052 0.028823368 -0.3629568 -0.59498113 -0.22334689 0.27976117 0.77943754 0.08686954 -0.15325926 0.19624057 0.3292447 0.20551261 -0.2072186 -0.021983374 0.110335894 -0.14997238 -0.1388959 0.06424337 0.3807284 -0.13963677 -0.3490034 -0.056325097 0.022624522 0.0035682837 -0.24056321 -0.4373167 0.45406747 0.07082764 -0.13458203 -0.06459719 0.37182394 -0.03914992 0.31427738
1085 0.089601815 -0.16939102 -0.32710817 -0.30862567 0.3412888 0.24862598 0.22881511 -0.6639356 0.042280376 -0.02689571 0.73802614 -0.18310267 -0.5783208 -0.09930155 0.3339383 -0.3749692 -0.5451867 -0.0027450218 0.04258117 -0.19187616 -0.3469975 -0.08901443 0.35780683 -0.26686817 -0.6378194 -0.037147403 -0.2748815 0.33012724 0.3121014 -0.149384 -0.024347747 0.34442157
1324 0.42723706 -0.44033387 -0.10024387 -0.3242622 0.27038008 0.8161087 0.113371186 -0.5789756 0.3568235 0.1106896 0.20621713 -0.19471332 0.3078792 -0.14753291 -0.08532099 0.08296448 -0.2091635 0.62335235 0.42048672 -0.30502874 0.0825829 -0.3264398 -0.06401066 -0.021163112 -0.24529754 0.46790624 -0.05965259 0.19895369 0.21500888 0.49320248 0.016795458 0.28784737
1312 0.63479865 0.34500197 -0.14426795 -0.54296446 0.11194004 0.02802205 -0.10663031 -0.48583773 0.5054894 0.46038255 0.7409729 -0.2940682 -0.2883768 -0.06791705 0.2652424 -0.12387869 -0.10344371 0.39149892 0.26981306 -0.2836817 -0.08237444 0.26404986 -0.060149506 -0.16675608 -0.3082695 0.7276202 -0.15163365 0.30463824 -0.4252813 0.83155173 0.11307251 -0.046853688
1051 0.13567556 -0.4359196 -0.5692199 -0.50634104 0.3366461 0.44961533 -0.15843521 -0.18912953 0.058333002 0.13793965 0.34622112 -0.1656795 0.21515937 0.1760048 -0.09560312 -0.19749898 -0.25108555 0.51722544 -0.18347202 -0.49733058 0.4548085 -0.23515868 -0.027360674 0.070268705 -0.23172958 0.84299994 0.101692714 -0.13226691 -0.03743654 0.2229717 0.1589266 0.5173271
1047 0.022127576 -0.21559682 -0.4258696 0.08931323 0.36873403 0.22063735 0.36442938 -0.8549463 -0.06499971 -0.09780933 0.1784288 -0.06291183 0.30409768 0.15245588 0.24686979 -0.20333262 -0.060651775 0.28125575 -0.600831 -0.2644004 -0.46830246 -0.23607416 -0.20429796 -0.40392703 -0.07245804 0.20582794 -0.06180594 -0.014193898 -0.46344247 0.69922864 0.11172959 0.1019003
1099 0.011316188 -0.49508324 -0.7166894 -0.6080117 -0.00018254029 0.4853788 0.09246172 -0.27429473 0.015130783 0.4730402 0.25870597 0.04468975 -0.089769825 -0.09259322 -0.30908784 -0.10568369 0.4859155 0.3371603 -0.2757539 -0.2620397 -0.2526393 -0.23513371 0.032038603 0.20914747 -0.46892163 0.6952007 0.039298777 -0.0122674275 0.08187327 0.24354276 -0.13218547 -0.33206636
1718 -0.22948392 -0.08109089 -0.21428996 -0.17251852 0.29160234 -0.07215374 0.066369034 -0.24033895 0.22978532 0.33557656 0.45400226 -0.008457242 0.08796744 -0.13333511 0.3704142 -0.29544443 -0.20377217 0.3159386 -0.5329042 0.39485246 -0.167262 0.08374656 -0.41001597 0.23047563 -0.5756885 0.61734766 -0.1764479 0.7018062 -0.18645762 0.21728177 -0.49044827 0.065847196
1044 0.033368252 -0.040696807 -0.34176016 -0.54027236 0.28330058 0.30050993 0.42246786 -0.25213784 0.04358785 -0.18816127 0.18106179 -0.35230237 -0.11312489 0.41050696 0.20044446 -0.765295 -0.20937002 0.30674183 -0.49529496 0.38657156 -0.426495 0.23914126 -0.13792591 -0.043121435 -0.31150386 0.3665358 -0.37030935 0.20817937 -0.444881 0.21561857 0.037841093 0.037995856
1050 0.017197499 -0.52073526 -0.29530135 -0.41349652 0.43594062 0.36859617 0.09698492 -0.2839678 -0.020297857 -0.13015205 0.2812226 -0.5772493 0.21061625 -0.32154423 0.056839794 -0.026293484 -0.18404454 0.16843829 0.09644787 -0.35871223 -0.14893009 -0.06950301 0.1844594 0.24252433 -0.48029447 0.63800573 -0.17537662 0.34581852 0.09571625 0.19820032 -0.47778383 0.13229802
1307 -0.02544392 0.032727446 -0.4366653 -0.021079559 0.3577431 0.36531886 0.46572387 -0.36767364 -0.13390775 0.21021353 -0.08163822 -0.29447472 0.2373086 0.2381352 0.44259366 -0.40005445 -0.295192 0.4155014 -0.5248394 -0.1786186 -0.45690614 -0.41194236 0.059107024 -0.44473168 -0.19325346 0.30650553 -0.18203856 -0.2650295 -0.49871632 0.40912572 0.2370166 -0.065446526
1309 0.28306028 -0.4508495 -0.37735522 -0.52707887 0.49319652 0.59381205 -0.4286738 -0.3311138 0.450836 0.06319571 0.14781763 -0.1454405 0.38260514 0.16337092 -0.25633228 0.027704151 -0.18422851 0.45764598 -0.11661727 -0.13895595 0.14352903 -0.09953405 0.20206974 -0.14688969 -0.4016245 0.7047478 0.052604835 -0.06367408 0.012908899 -0.012905661 0.40366623 0.67643535
1150 0.021760644 -0.23357113 -0.045982443 0.28720987 0.51926035 0.3264463 0.08755757 -0.44215927 0.07503594 0.003572791 0.39089155 0.24137631 0.5047072 -0.49051392 0.30232832 0.07316304 -0.12576708 0.31562677 -0.029165745 0.019688651 -0.07400002 0.09601474 -0.32131445 0.060372498 -0.70544916 0.5429166 -0.15523341 0.47946936 -0.56556964 0.17565602 0.28651157 -0.27136952
1071 -0.25248072 -0.13588639 -0.23395856 -0.48977405 0.11624584 0.40571877 0.4847519 -0.4021444 -0.2109962 0.051302616 0.14253867 -0.43031952 0.33517408 -0.6985067 0.30931875 0.024340322 0.040620312 0.26220122 0.082094565 -0.38695794 0.18878736 -0.31802216 -0.6060478 0.46024027 -0.59660643 0.43516594 -0.3703917 -0.1872091 0.022985747 0.5644541 -0.1048577 0.32024512
1180 0.22796601 -0.46754435 -0.20661622 -0.6799904 0.19415472 0.47195947 0.17569947 0.2642104 0.1476821 0.27949324 0.0008622926 -0.08389567 0.1861632 -0.31829098 0.0555804 0.2484825 -0.101345256 0.40161273 -0.18808816 0.29459614 -0.16517775 0.22493428 -0.018263413 -0.44403416 -1.1439304 0.5817054 0.29188764 -0.05884919 -0.1923556 -0.02250855 0.5133563 -0.0060065887
1179 0.1928837 -0.41682592 -0.11334767 -0.20042883 0.22749405 0.5395244 -0.08255992 -0.47632003 -0.65392405 0.31709415 0.00594313 0.060203128 0.0629507 -0.44770807 0.54947716 -0.5372252 -0.12569623 0.25010243 -0.20410779 -0.0739619 -0.29137263 0.4695839 -0.07906857 0.25592822 -0.66997474 0.33668587 -0.19036242 0.1523031 -0.18226157 -0.05792578 -0.1407473 -0.29974556
1247 -0.2344142 0.1340567 -0.20535828 -0.37765914 0.41320714 0.9777188 0.3350408 -0.16376476 -0.016313625 0.048925847 -0.054168254 0.22698422 0.40749913 0.16450946 0.11612767 -0.4195981 -0.58415073 0.40550423 -0.29153097 -0.42156944 -0.51362455 -0.37700796 -0.28622574 -0.38267088 0.35556808 0.5868816 -0.23670743 -0.1466617 -0.16840337 0.032650817 -0.092756 -0.06855327
1090 0.17592247 -0.22829513 -0.47508535 -0.36831468 0.08417377 0.45017558 -0.18790664 -0.00892193 -0.4612622 0.023882253 0.28283376 -0.21777968 0.016241655 -0.558346 0.38386017 -0.2345401 -0.35953173 0.27051443 -0.27023223 0.6458166 -0.19808948 0.2249923 -0.30716863 -0.08169029 -0.45478514 0.7395324 -0.29881293 0.55472386 -0.15758328 -0.09447657 -0.20092015 0.18563211
1242 0.42804155 -0.24150759 -0.53104866 -0.66373867 0.44296274 0.45669383 -0.28238162 -0.22010225 0.21166779 -0.084863104 0.42051688 0.037281454 0.57426554 0.09297818 -0.19239032 0.27093244 -0.32094392 0.68099606 -0.1759025 -0.5804998 0.19909485 -0.39571735 0.15483256 -0.0036429379 -0.14311387 0.76177776 -0.19158942 -0.10852701 -0.0790164 -0.06711792 0.2270209 0.6324869
1109 -0.14163296 -0.017658513 -0.44078538 -0.44300222 0.13041535 0.019557394 -0.18533106 -0.3897248 0.14419441 -0.15038003 0.36352906 0.24594834 -0.65223354 -0.1586917 0.66100246 -0.29324058 -0.77285254 0.42339513 -0.09401311 -0.5361515 -0.60504085 -0.32179308 0.016265027 -0.17444167 -0.5811097 0.12127726 -0.50405556 0.16210671 0.20410752 -0.037194733 0.076269254 0.46999264
1079 -0.29423234 -0.0959762 -0.12813954 -0.42987758 0.18850671 -0.119322166 -0.024821911 -0.63912994 0.013498387 -0.2859613 0.09509399 -0.070833445 0.12614076 -0.38947588 -0.27223313 0.73258513 -0.60013777 0.71474373 -0.50000256 -0.48714396 -0.39302388 0.43133935 -0.32756513 0.21288292 -0.60698754 0.41739815 -0.3978381 -0.053461578 0.21241489 0.3937454 -0.58042216 -0.09935017
1119 0.25738043 -0.31897667 -0.49971873 -0.13800386 0.5258787 0.47360823 0.5172623 -0.5901277 0.0886731 0.05776227 0.44461685 0.48012656 -0.5364461 -0.122396 0.0052302475 -0.6027776 -0.21909615 0.4949336 0.36020565 0.06349207 -0.17382246 0.16278708 -0.102517 -0.31892788 -0.39543507 0.1416871 -0.56066567 -0.039165776 0.013369732 0.20321064 -0.3913898 0.6795512
1347 -0.12242524 0.23769253 -0.38222653 0.16303787 0.21974953 0.051482506 0.023133695 -0.4552841 0.4367918 0.5227624 0.7393993 0.16049454 -0.72372556 -0.2942725 -0.015632108 0.15842 -0.24370484 0.27729347 -0.29155433 0.053095464 -0.33542234 -0.38523397 0.21401758 -0.20035294 -0.7118397 0.38962543 -0.29640734 0.034681704 0.26721317 0.11698031 0.6771264 -0.011154816
1058 0.057424 0.12509991 -0.4118481 -0.269074 0.24366508 0.798243 -0.15955919 -0.71661216 0.088308886 -0.29023033 0.14379485 -0.18609196 -0.039135985 0.3519522 -0.116633415 -0.8370923 -0.26782706 0.4987295 -0.34824362 0.31997466 0.14205495 -0.4439983 -0.24596196 -0.32477576 -0.19359939 0.39990652 -0.06198067 0.24323848 -0.11281101 0.12076553 0.16232973 -0.4952895
1661 -0.17730097 -0.4396128 -0.5290552 -0.13766913 -0.86255383 0.6134655 0.35928193 -0.50162125 0.22043481 0.531938 0.26884663 0.13632526 -0.26639062 -0.28885 -0.4370256 -0.44184622 -0.10469819 0.027303973 0.005834116 -0.13265812 -0.5945927 -0.27124897 0.09749343 0.24219891 -0.4227913 0.55017394 0.036091767 0.2249552 -0.48144865 0.15710258 0.49749 0.31492653
1171 -0.21204728 0.05362535 0.56574166 -0.4123167 0.3244956 0.48398823 -0.24652593 -0.6321623 0.28280836 -0.005392836 0.495204 -0.52613413 0.104143254 -0.17625572 0.27156934 0.12998301 0.046880342 0.17015992 -0.169018 -0.122083545 -0.366788 -0.12176427 -0.64743394 -0.044031944 -0.57727146 0.4092934 -0.24192445 0.36962765 0.062183388 0.0689285 -0.6261312 -0.12658489
1196 0.21535188 -0.3134728 -0.6536113 -0.28121904 -0.4878908 0.4482629 0.1303466 -0.46049905 0.078496814 0.47042638 0.4066154 0.14004786 -0.09908971 -0.19869265 0.16590302 -0.44011965 -0.19971384 0.33798388 0.03598362 -0.5054772 -0.23068607 0.69816095 -0.19788425 0.08511718 -0.6469915 0.54765284 0.40719685 -0.335658 -0.3289224 0.9663771 0.10002142 0.1570287
1049 0.012597457 -0.37045443 -0.48604858 -0.17285582 0.05031982 0.38021737 0.47638887 -0.5820599 0.0015589683 -0.027470637 0.11093707 -0.4081725 0.27445668 0.47898555 0.502971 -0.5671476 0.12238102 0.5007829 -0.4860449 0.078857675 -0.49155778 -0.1458141 0.10702288 -0.44209942 -0.077101685 0.47024497 -0.1316248 0.026095035 -0.2169205 0.40700796 -0.020038899 0.07359263
1103 0.13791399 -0.61139685 -0.47121277 -0.3446432 -0.06010864 0.3815513 -0.13280687 -0.7164106 0.027228259 0.004288832 0.5992103 -0.11931762 0.15882471 -0.2185002 0.6218467 -0.021127723 -0.18742922 0.14738573 0.15718037 -0.06662036 -0.115461506 0.44186696 0.03745086 0.09255756 -0.24280955 0.2608604 -0.53383976 0.6316194 -0.22671193 -0.093670405 0.011858037 -0.61802626
1248 -0.35894033 -0.2805138 -0.66399693 -0.11931786 -0.028747633 -0.03406744 0.24254386 -0.9032922 0.43717286 0.043497223 0.4355341 0.11180846 -0.20788576 -0.21169934 0.41155362 0.0058247447 -0.13592812 0.40549615 -0.2309783 -0.31883878 -0.40846485 0.08656295 0.11441234 0.09027755 -0.37155005 0.17789958 -0.70927906 0.2774208 0.55285794 0.20603983 0.28747457 0.3704591
1093 0.45624992 -0.42403778 -0.29011327 -0.55538505 0.28636464 0.6738018 0.09565871 -0.89144933 -0.3509522 0.07639841 0.5812826 0.13140643 -0.07908228 -0.489325 0.63781595 -0.17805336 -0.4332282 0.18759647 -0.27558908 -0.30026004 0.026915671 -0.24112527 0.032764416 -0.38828728 -0.27864546 -0.37694246 0.14021094 -0.25330853 0.09783679 -0.14802802 -0.3383628 0.5941926
1192 -0.026316173 0.101839 -0.5051057 -0.20848225 0.4130869 0.62667596 0.13795039 -0.93266845 0.13599633 -0.09579485 0.52619255 0.019916447 -0.38828045 -0.6575617 0.41291642 -0.084635325 -0.24112831 0.40266332 0.016956074 -0.28071624 -0.04265755 -0.14454655 -0.22556601 -0.31560272 -0.5616228 -0.43595326 -0.531719 -0.45054314 0.21056545 0.16572388 0.032178007 0.3360943
1064 0.0015667413 0.029929869 -0.282904 -0.56065285 0.23519158 0.13124411 0.30232355 -0.053664055 0.16542852 0.02934081 0.27183166 -0.094152026 -0.17857435 0.08108639 0.40253833 -0.7267902 -0.21905999 0.38776302 -0.47899583 0.65851223 -0.49200612 -0.1146784 -0.017349785 0.26282164 -0.15679923 0.5401472 -0.39262742 -0.03670571 -0.49835908 0.255635 0.21992493 -0.010380962
1404 -0.6399559 0.2632053 0.45466185 -0.3130022 0.44553277 0.0143920565 -0.017486019 -0.7806184 0.13014354 0.023668272 0.21628708 -0.18729293 0.20162244 -0.5509328 0.14626867 -0.17231435 -0.0330363 0.31308535 -0.37594017 -0.26644373 -0.22576539 -0.25335395 -0.6863376 0.3696692 -0.6040237 0.82139724 -0.15655307 0.0606898 0.04448473 0.18542433 -0.54062575 0.25137603
1087 0.30422416 -0.056708172 -0.023657307 -0.27928835 0.15386434 0.68053406 -0.19759612 -0.8416298 0.16924095 0.044375237 0.2453434 -0.60473704 0.22107525 -0.01205524 -0.21762191 -0.26737532 -0.30829722 0.10225113 0.008512584 -0.24340555 0.124298476 -0.09699987 0.30530354 -0.3174232 -0.038660716 0.37869814 -0.39925176 -0.33607998 0.073858716 0.21060525 -0.31047356 -0.5371707
1705 0.121854275 0.03360862 0.7513555 -0.19454567 0.22654858 0.5465721 0.06224837 -0.2385725 0.40336227 -0.637465 0.5966687 0.31007499 0.16785848 -0.11880855 0.05141853 -0.41060117 0.35403478 0.35663104 -0.38150036 -0.3436965 -0.46367452 0.49995014 0.08146421 0.24477275 -0.72261447 0.21090078 -0.24523349 0.14936952 -0.45285234 0.41294098 -0.1294044 -0.0077988007
1256 -0.21329862 -0.24856968 0.05761386 -0.59732443 0.5021299 0.30981055 0.27282688 -0.22392097 -0.18361674 0.053440724 0.20785114 -0.22755907 0.34165406 0.11518357 0.12762156 -0.26087618 -0.1913983 0.046107713 0.29887438 -0.570977 -0.22232752 0.12197302 0.25119466 -0.57785857 -0.7761417 0.38508388 0.34885088 0.030108083 -0.50790703 0.7653243 0.57329965 -0.6243285
1174 0.07554547 0.22675458 0.0065373085 -0.67005825 0.59386677 0.51863056 -0.44863364 -0.47480774 0.54907256 -0.1912933 0.3625295 0.04594955 -0.31715915 -0.18107036 -0.2403668 -0.25916722 -0.46670723 -0.15842773 -0.29283613 0.14296436 -0.17850904 0.32743093 0.34926915 0.5558591 0.26798636 0.8120448 -0.3584912 -0.36732915 -0.2132712 -0.033270884 0.06569837 -0.37898615
1432 0.23247749 -0.25408766 -0.58345425 0.19746608 -0.022470148 0.33022812 -0.31146774 -0.31298497 -0.33105215 0.08681398 0.8149969 0.24416862 -0.37595052 -0.4778312 0.5653164 0.17707084 0.27463752 0.016296677 -0.30937478 0.013173878 -0.3166473 0.1680296 -0.04209338 -0.32877564 -0.4292279 0.90261364 -0.36026937 0.68408793 -0.05239316 -0.02337856 0.17647345 -0.18059409
1046 -0.40666655 -0.4894102 -0.77933484 -0.35172847 0.40493977 0.33052462 0.048943903 -0.8561553 0.119403735 0.12495326 0.37561706 -0.07855097 -0.18454137 0.40530726 0.1282272 0.032626923 -0.13814715 0.27766046 -0.4911928 0.6597217 0.35342965 -0.33782658 -0.46838808 0.08117801 -0.008411936 0.609588 -0.1363547 -0.35003734 0.0694859 -0.049473494 0.2138871 -0.4712313
1525 0.36698338 -0.24755488 -0.091327794 -0.2763552 0.4308011 0.46666688 0.35996488 -0.5126736 0.10464633 -0.047428373 0.29663786 -0.13470127 0.28666347 0.10819962 -0.8147217 0.10235515 -0.026105473 0.76780564 -0.24918099 -0.19040939 0.43418205 -0.322335 0.027487574 -0.3652562 -0.31525952 0.3524978 -0.37387756 0.43225434 -0.0011353723 0.12697771 -0.31054643 0.27815703
1273 -0.30799443 -0.18678884 -0.104839295 -0.3654062 0.068752855 -0.20293646 -0.21687222 -0.5697797 -0.1324463 -0.4964566 -0.17045088 0.01453166 -0.39637756 -0.8134917 0.28936657 -0.046119865 -0.40778252 0.7336543 0.025831861 0.26072568 -0.013801714 -0.36988476 -0.14414491 -0.054429032 -0.34429562 0.64898425 -0.5699895 0.10358765 -0.12886174 0.5102372 0.33394998 -0.1327822
1789 -0.055523418 -0.36848137 -0.18121757 0.4228275 0.22125916 0.6644443 0.045663815 -0.39065892 -0.12803514 0.1184141 0.16208404 0.07198016 0.3328626 -0.6626795 0.5121326 0.13598366 -0.20122096 0.37408864 -0.5734504 0.0871921 -0.3003483 0.3203125 0.26788172 0.44977725 -0.46610436 0.17871411 0.10304631 0.5194198 -0.9280125 0.042946305 -0.14687379 0.15903535
1082 0.65650946 -0.39142272 0.12952091 -0.2173347 0.29098803 0.67531335 -0.12844878 -0.45841926 0.11297172 -0.15720442 0.43584892 -0.15529716 -0.023982594 0.07386532 0.43160728 0.5185853 -0.92308104 -0.04597796 0.009815652 -0.26132038 -0.1994203 -0.65463567 0.14335404 -0.17325836 -0.94644475 -0.16810031 0.32322288 -0.47061893 -0.20545112 0.06741711 0.5033537 0.3749112
1105 -0.05851404 -0.52074426 -0.20553483 -0.10252488 -0.20072488 -0.01879774 0.011118734 -1.1638279 -0.19144621 0.72471386 0.75374675 0.27525157 -0.653141 -0.26568773 0.83589894 0.18158342 -0.6932669 0.5763943 -0.18064383 -0.40440306 0.056522615 0.31882164 -0.004795261 -0.04563805 -0.19928253 0.05100551 -0.062493037 -0.03586136 0.025138093 -0.051436957 -0.18898365 0.45034972
1313 0.4337717 0.08366823 -0.055800896 -0.27053893 0.25652862 0.2209018 0.1410626 -0.5989628 -0.291093 -0.34670198 0.5418972 -0.46429324 0.20385203 0.008335769 0.30101848 -0.44920614 -0.33472037 0.57264453 -0.44791597 0.29344976 0.022565927 0.15490423 0.41390905 0.13996324 -0.47470024 0.34930778 -0.065882884 -0.11666938 -0.47209853 0.08742717 0.53521866 -0.4355846
1357 -0.13741349 -0.34975922 0.22500695 -0.36519653 0.14513965 0.79406995 0.17978947 -0.37307188 -0.20797999 -0.3031782 -0.20053263 -0.25765964 -0.2758879 -0.017078442 -0.34358713 -0.68248254 0.070541285 0.39298987 0.39939597 -0.07969701 -0.41164094 -0.14814115 0.12289753 -0.5477419 -0.111743875 0.55357647 -0.47872978 -0.46425226 -0.22279929 0.65664625 0.011413486 0.21247822
1603 0.20278905 -0.5072184 -0.078186214 -0.6223392 0.3976272 0.8698369 0.0579265 0.06912262 -0.13493134 0.4596913 -0.032470416 -0.018166693 0.022363093 0.38891962 0.13892682 -0.38552228 -0.37578315 0.8155142 0.10099868 0.020526845 0.040194217 0.5079188 0.15294074 -0.17734422 -0.4108929 0.088785835 -0.08863334 -0.022750393 -0.08231117 0.5014071 -0.20279509 -0.00311835
1144 -0.19547932 0.00090012525 -0.1035859 0.019381063 0.016489033 0.44096163 0.08527787 -0.20330092 0.08487005 -0.10827303 0.2826282 -0.53476435 -0.17857264 -0.60950893 -0.3197275 0.13161676 -0.13560922 0.5342916 -0.21267176 -0.22974424 -0.1362367 -0.27169147 0.11691514 -0.018608507 -0.67276347 0.8110395 -0.124418505 0.31931716 0.12689784 0.043132853 -0.41509438 -0.15826887
1043 -0.12427905 -0.23355058 -0.23303972 -0.53198385 0.29685712 0.7291201 0.45080644 -0.1459201 -0.32849222 0.0128295235 -0.18721734 0.09381451 0.075530246 0.29173017 0.16430748 -0.38610268 -0.44576117 0.29596564 -0.54355115 0.29232144 -0.55270195 -0.046802312 -0.38763914 -0.35579005 0.3931892 0.551031 -0.4422542 -0.07196851 -0.20259129 0.12679715 0.037555568 0.15923655
1260 0.13152458 -0.14836392 -0.2953737 -0.31521967 0.4298537 0.9550185 -0.061109964 -0.4438668 -0.016145937 0.05003763 0.18105635 -0.28337395 -0.18251923 -0.2990912 -0.08319516 -0.106385365 0.12933236 0.32783556 -0.067228206 -0.26330796 -0.3245541 0.10197356 0.49924397 0.06061225 -0.26633492 0.3908302 -0.097673446 -0.22615865 0.05461298 0.2115268 -0.584438 -0.8931556
1236 0.15526223 -0.29223418 -0.3151029 -0.10454018 0.6821254 0.042729624 -0.18367657 -0.72178715 0.12958005 -0.104988836 1.0183208 0.37014654 -0.61695534 -0.19818558 0.25543153 0.26611647 -0.6331006 0.49771687 0.27004004 -0.3267573 -0.13013597 -0.455964 0.3985871 -0.33296484 -0.3445837 0.16146217 -0.35029912 0.40978602 0.0942817 -0.11061126 0.25691482 0.33035883
1749 0.10396438 0.078668945 -0.064851664 -0.8033689 0.1942651 0.03822562 -0.44086745 -0.3179173 -0.098110355 0.47122154 0.7159233 0.12135747 -0.27802616 -0.045516055 -0.19685993 -0.20292959 0.14715244 -0.4096245 -0.40826076 0.45166945 0.084351085 -0.46731216 -0.5408307 0.17940651 -0.4382229 0.7648091 0.2549132 0.7794538 -0.6863368 0.34010914 0.008520921 0.32399154
4168 -0.047738183 0.12527068 -0.06278602 -0.64807475 0.0983684 0.15461761 0.21094148 -0.6607202 0.22707853 0.2296348 0.7621019 0.48929384 -0.6091386 -0.7106245 0.07281865 -0.24248949 -0.29671136 0.31839877 -0.18035994 -0.15000084 -0.30705634 -0.09979157 -0.10067626 0.011497781 -0.50480884 0.5155337 0.04708149 -0.21423972 0.13525103 -0.43558744 0.23247057 0.00036902924
1391 -0.61055505 -0.02808856 0.47386786 -0.28011796 0.34436354 0.18944836 -0.26686877 -0.68489397 -0.32556558 0.051799472 0.09364211 -0.45608985 -0.4090086 -0.74015355 0.47321963 -0.12495656 0.3207798 0.039732236 -0.13426691 -0.23053363 -0.09998701 -0.27757445 -0.49751896 0.5151799 -0.51855373 1.0396626 -0.37459525 0.060525637 -0.19246875 -0.005624286 0.2655826 0.059595637
1076 0.050104223 -0.24262682 -0.08789739 -0.5367796 0.13167226 0.91942257 -0.44254377 -0.1039098 -0.13271601 0.02320859 0.15834813 0.40739352 0.2866927 0.0891224 0.20515506 -0.8973856 0.0428635 0.5494691 -0.2858754 0.5011902 -0.08216065 0.10594959 -0.25990433 -0.25080985 -0.3637092 0.62677133 0.15938827 0.2689466 0.6597257 0.64958805 0.017414147 -0.025706979
1348 -0.20980024 0.042002957 -0.17670411 -0.5505518 -0.01665637 0.33328778 -0.5255326 -0.44204172 -0.023028184 0.5931107 0.16551678 0.3907856 -0.13754645 -0.14800495 0.078470774 0.3806279 0.777409 0.4104975 -0.27875912 -0.696507 -0.49518815 0.0042954064 -0.35603824 -0.08856654 -0.24709873 0.7993374 -0.13441403 0.017363438 0.2824779 1.2254363 0.6550706 0.012924069
1449 0.1157887 0.14844999 0.03424161 -0.61967206 0.21941583 0.13208115 0.5580296 -0.30157468 0.14261489 -0.09779604 0.063193515 -0.4212817 0.24101429 0.22308424 -0.25703692 -0.13436498 -0.33401632 0.31689578 -0.65166074 -0.33882162 -0.5715581 -0.5456845 0.42837968 -0.13223138 0.119861074 0.35526893 -0.53283185 0.23550497 -0.3798954 0.2214767 0.13373335 0.14891143
1346 -0.3605171 -0.18683559 -0.11254071 -0.7908999 0.11549233 -0.13306335 -0.0040434673 -0.61200804 -0.2158166 -0.54076827 -0.5363016 -0.03104228 -0.37240428 -0.9663931 0.46755043 0.0879955 -0.16751933 0.6351041 -0.0059647183 0.42202657 -0.36004177 -0.26428202 -0.04275979 0.24054854 -0.44925594 0.58994883 -0.49913737 -0.09237432 0.20615391 0.78582627 0.35859 0.060838167
1241 0.44497457 0.015242493 0.2359828 -0.3540835 0.33192244 0.38574424 -0.3642278 -0.5839605 0.4221023 -0.56169456 -0.0431438 0.5565434 -0.11744066 -0.8966572 0.04211889 0.01985686 0.045793463 0.7103515 -0.6628689 0.23137626 -0.46717572 -0.14051893 -0.22716269 0.15561277 -0.5347436 0.14795037 -0.04640323 0.11955165 -0.35967386 0.5564529 -0.33222657 0.14026183
1124 0.3031489 -0.2975543 -0.17851119 -0.18388815 0.4625836 0.30257326 -0.05296275 -0.6284306 -0.32718426 0.07413407 0.17410882 0.20156507 0.47859177 0.13421254 -0.5158476 -0.5745744 -0.5389194 0.29606044 0.07117686 -0.30092916 -0.36103243 -0.014739191 0.3509575 -0.03884966 -0.386769 0.117335804 -0.22144659 0.15152356 -0.13537672 0.77988636 -0.32089937 -0.027243074
1461 0.1901479 -0.32261547 -0.13597588 0.5437584 -0.48695713 0.35905388 -0.36284277 -0.9174179 -0.2605686 0.15811671 0.63305247 -0.04531977 -0.062136807 -0.6226253 0.23404832 0.029143866 -0.14426503 0.34756282 -0.31953442 0.036726873 0.12873283 -0.17936017 0.06822038 0.12908648 -0.43544832 0.14547618 -0.3400296 0.4478444 -0.5733332 0.1814066 -0.083187796 -0.30936426
1121 0.045653656 0.2757561 0.04708538 -0.47898388 0.3729687 0.28203735 0.22423603 -0.58766276 -0.0027732246 -0.07222587 0.8127978 0.2874703 -0.8808012 -0.60103863 0.4587373 0.19638142 -0.43834105 0.4112417 -0.31968004 -0.0599957 -0.0997923 -0.0076074824 -0.73155457 -0.2626306 -0.49164146 0.24406515 -0.1067624 -0.1285849 -0.013645903 -0.09699383 0.26475278 0.3618423
1161 -0.25723964 -0.021962699 -0.23399511 -0.31908357 0.1307296 0.7814931 0.8887977 -0.6407616 0.34221885 0.92464405 -0.20504645 -0.24405456 0.02061256 0.017176716 -0.24205656 -0.6103421 -0.38539335 0.21597211 -0.091224544 0.65754795 -0.058783617 -0.073081024 0.14269897 0.019583633 -0.29776257 0.3483887 0.32732344 0.20904924 -0.331583 0.28085533 0.06938563 -0.612375
1212 -0.17444694 -0.17972894 -0.042475678 0.20345026 -0.1776184 0.23381571 -0.2699716 -0.37579545 -0.72393465 0.047445446 0.36636427 -0.13782953 0.09640879 -0.3819293 0.48476952 -0.10456992 0.040639203 0.15500182 -0.29246107 0.21410549 -0.23084806 0.23680441 -0.3381758 -0.30048427 -0.8149167 0.59348273 -0.5512985 0.6100103 -0.25994134 0.04250167 0.110400334 -0.3716075
1438 -0.14795941 0.02097492 -0.062930405 -0.001335897 0.14719036 1.01562 0.2632312 0.065063134 -0.35960698 -0.3439957 0.3631997 -0.60085434 0.06053872 -0.3795404 -0.03694353 0.36128548 0.34451002 0.4194444 -0.29769528 -0.048532736 -0.18222849 -0.67703223 -0.18608725 0.3534303 -0.8706205 0.5620923 -0.2702525 0.32716563 0.45437878 0.37644383 -0.1536963 -0.15934826
1443 -0.25182962 0.095550396 -0.780887 -0.26379734 0.64105743 0.46973816 0.13012235 -0.44876134 -0.124708846 0.55180633 -0.09409998 -0.23422344 -0.09005035 0.49763495 0.05564607 -0.25223872 -0.5632255 0.54572064 -0.47357097 -0.24055439 -0.7618269 0.03401532 0.21145068 0.18958157 -0.03477405 0.5376812 -0.10588811 0.09219543 -0.1251509 0.33959353 -0.34673747 -0.33965656
1711 -0.014966737 0.047983963 -0.19517082 -0.12039935 0.32271296 0.16005822 -0.08400117 -0.90933555 0.101147585 0.07190689 0.93078595 0.45175976 -0.40837458 -0.21610658 0.75123256 -0.057733536 -0.3267397 0.23852122 -0.24932158 0.2350134 -0.6215856 -0.05284364 -0.051300135 -0.19037782 -0.4901707 -0.04618991 -0.38990757 0.21899804 0.24190092 -0.10965983 0.6170479 0.30615494
1281 -0.82098466 -0.24293047 0.51050746 -0.87398773 0.16552849 0.6067122 -0.31764108 -0.56138545 -0.2689401 -0.1213175 0.05361355 -0.098384336 -0.19600812 -0.12083126 -0.45828003 -0.17446683 -0.21884297 0.46632293 -0.0035811712 -0.2835226 -0.09660181 0.45970884 -0.3365359 0.51290953 -0.12095543 0.5076547 -0.27609044 0.105193995 -0.37631464 0.056500837 0.4720614 0.33660462
1197 -0.17148876 0.22266807 -0.59810203 -0.24143896 0.37789807 -0.047619693 0.08392951 -1.0589395 0.3101086 0.40471154 0.85848266 -0.28701743 -0.59844637 -0.45686907 0.46942267 0.15397912 -0.42748496 0.37886238 0.2250189 0.09236288 -0.17151389 -0.08263647 0.32079357 -0.20004717 -0.3413329 -0.03712547 -0.26616424 0.11593031 0.050010305 0.45303893 0.1742627 0.33683917
1223 0.6447091 -0.08580849 -0.31432533 -0.8089785 -0.13141327 0.939686 -0.0005927149 -0.23013256 0.13855681 0.0069662966 0.683163 -0.31302476 0.22570778 0.19487186 0.47524637 0.9564428 0.03646345 0.8262457 -0.15538576 0.2586826 -0.38070706 -0.29494482 -0.04871431 -0.37497017 -0.40564832 -0.13880782 -0.045386985 0.033147182 -0.44301257 0.121640146 0.38040072 0.0026394608
1327 0.107299134 -0.28217238 -0.32668883 -0.25236768 0.21915242 0.71615595 -0.59724706 -0.2394433 0.2987798 -0.027706444 0.25864238 0.25622666 0.66475105 0.09042553 0.40170923 0.026957437 0.09726272 0.671304 -0.47745064 -0.49839067 0.06988003 0.1793877 -0.2859765 -0.045860637 -0.6339393 0.17365444 -0.17250103 -0.2666897 -0.2345584 0.13415046 0.33729276 0.475258
1187 0.104894854 0.34313154 0.14913744 -0.6588761 0.4360165 0.64630663 0.48450848 -0.42903128 -0.22701189 0.0068108193 0.49501413 -0.004084299 -0.35900256 -0.4189443 0.16574056 -0.09883945 -0.15657766 0.5899005 -0.4922255 -0.3080121 0.40905946 -0.83873683 -0.15912592 0.12001908 -0.2633422 -0.19710635 -0.38486433 0.3319536 0.14596109 -0.22841258 0.29220223 0.18856758
2021 -0.038045447 -0.35081652 -0.05873551 -0.2300673 0.32669798 0.3370021 0.24865918 -0.2949648 0.16787612 -0.3743016 0.53440523 0.2764138 -0.049782194 -0.07677282 -0.053570144 -0.34288302 -0.20125072 0.5452006 -0.17814842 0.060817815 0.058872588 0.28060898 0.16547765 0.44293496 -0.33151138 0.46057948 0.014376352 0.4619261 -0.7735632 0.24676633 0.38430566 -0.49840125
1269 -0.27232724 -0.07147582 -0.51879776 -0.41006592 0.09912718 -0.24846055 -0.53873914 -0.3137231 -0.24813828 -0.20120807 -0.052585743 0.113032594 -0.37173873 -0.9575249 -0.06633451 -0.1499816 -0.24735403 0.21622479 -0.2177784 -0.05732078 -0.34438774 -0.009757137 -0.16264594 0.16711858 -1.2257769 0.54537994 -0.63305515 0.23893443 -0.13559958 0.16611466 -0.258232 -0.30701047
1060 0.072313204 0.19894207 -0.7255342 -0.58190084 0.14100479 0.4260096 -0.3908577 -0.47140953 0.39988154 0.25969827 0.1896997 0.15570605 0.6591556 -0.1005668 -0.2453096 -0.4093817 -0.379115 0.89704585 -0.18421933 -0.3758188 0.29490104 0.22219054 0.2458543 0.15977556 -0.1350859 0.50668645 -0.48327413 0.095589474 -0.44771677 -0.27647007 0.10837579 0.54596305
1428 -0.19041835 0.102640234 -0.56354046 -0.046061575 0.52142817 0.3574908 -0.36120573 -0.26743436 0.2830728 0.3816855 0.9628083 0.34136027 -0.6004006 -0.5132752 0.2579659 0.23795405 0.29371366 0.34213316 -0.32428715 0.32652625 -0.44135487 -0.3036488 0.3048651 -0.06982134 -0.8763309 0.20818189 0.13806269 0.124645494 0.24401832 0.30030486 0.30540016 0.05034683
1840 -0.07619491 -0.01563767 -0.520952 -0.1470713 0.6508489 0.7498747 0.24631204 -0.3717713 0.1570086 0.072985515 0.7864364 0.16805635 -0.72756386 -0.54618233 -0.120137185 -0.13233307 -0.01852341 0.28325948 -0.13942541 -0.19603768 0.20178102 -0.2005374 0.5494332 -0.06471666 -0.60681045 0.22846954 -0.10130702 -0.08317164 0.35265326 -0.385584 0.38792065 0.5681187
1388 -0.27978462 0.15959202 0.24509558 -0.4550267 -0.15127209 0.36557466 -0.026557866 -0.72863466 0.24299614 0.056359287 0.92060554 0.70111513 0.08573135 -0.5170854 0.030808862 -0.4039624 0.44393745 0.14575824 -0.08457785 -0.07388521 -0.24944893 -0.12427637 -0.58134866 -0.16390009 -0.3439543 0.50084865 -0.3060519 0.5377636 -0.06516092 0.040607847 -0.5469162 -0.4692619
1116 0.07810855 -0.45760518 0.29778478 -0.15838169 -0.9548757 0.54153347 0.4666584 -0.30513263 -0.2683526 0.24760428 0.15207931 -0.105618216 -0.37730557 -0.38743472 0.38710335 -0.42166838 -0.8528917 0.21131462 -0.17537516 0.03764053 0.3523715 0.14478612 -0.62590635 0.2807451 -0.20201777 0.6302637 -0.26987293 0.4381929 -0.18973058 0.30798638 -0.5515208 -0.05485907
1252 0.2833611 -0.41925374 -0.021450168 -0.4587563 0.27316964 0.07134152 -0.2571666 -0.46160105 0.3425679 -0.31387958 0.10995714 0.1308294 -0.23743874 -0.939929 0.0044284924 0.20548981 -0.23661706 0.5466472 -0.36101827 0.32462746 -0.13777669 0.026057906 0.08877936 0.2087138 -0.7713479 0.18013783 -0.16803102 0.27910426 -0.45483795 0.10048808 -0.3589393 -0.36444074
1980 -0.1834627 -0.14046021 -0.37738466 -0.6542454 0.43599373 0.6712249 0.03276404 -0.9657233 0.48634458 0.17534003 -0.37866503 0.2851279 -0.1706487 -0.8958998 0.37971786 0.123015136 0.09461709 -0.8907659 -0.4376705 -0.934866 0.33565444 0.53048706 0.20338464 -0.7593336 -0.59289074 0.5896043 0.13515246 0.90767574 -0.40422237 0.18233639 -0.4313138 -0.08540613
1655 0.07957612 -0.5770328 -0.20847665 -0.42985794 0.14157258 0.38926357 -0.28952372 -0.25446764 -0.051390447 -0.5881504 -0.2341198 0.36859268 -0.45186237 -0.5345392 0.0017217083 0.07303804 -0.54637647 0.4775528 -0.5312158 0.5836741 -0.2064295 0.27925897 -0.46814936 0.27503014 -0.843438 0.01590747 -0.38263875 0.20689635 -0.4444217 0.4135983 -0.29123682 -0.4075275
1156 -0.3843445 -0.01806402 0.14283316 -0.8571976 -0.0615449 0.5406416 0.021359187 -0.30287033 0.35782328 -0.05390704 0.4191969 -0.44683424 0.22397433 -0.107789196 -0.09603922 0.006757103 -0.035942204 0.9044536 -0.23302527 -0.5285345 0.5268331 -0.6248004 -0.16311482 0.048697952 -0.6971415 0.49293336 0.3831578 -0.23707594 0.18598281 0.110997766 -0.039349563 0.5228221
1318 0.28404528 0.12895624 -0.26374543 -0.3620869 0.012005282 0.43424886 -0.29008803 -0.18694541 0.48133332 0.058545075 0.843875 -0.52465904 -0.030809693 0.09039376 -0.03911126 0.02331894 -0.56256616 0.49966386 0.28716916 -0.25635746 -0.6517183 0.25324917 0.53498524 -0.17128356 -0.6753826 0.26725706 -0.024952846 -0.023467992 -0.51505196 0.33879945 -0.37501675 0.08743369
2083 -0.19842908 -0.15621969 -0.07948871 -0.48822275 -0.68332094 0.33406466 -0.09702973 -0.5467636 -0.4119803 -0.505115 0.2911478 -0.034174092 -0.40741855 -0.37661266 -0.19568214 -0.31853667 0.016085451 0.88440526 -0.37346286 -0.13494827 -0.22578229 0.050923765 0.46325243 -0.8011276 -0.2500229 0.5391835 0.1282722 -0.2651669 -0.7835379 -0.09176165 0.15068723 -0.3586327
1393 0.21039052 0.17498367 -0.6003426 -0.25174382 0.32026878 0.87391484 0.13904639 0.027370315 0.15856011 0.40815195 0.13432719 -0.401896 -0.3991996 -0.3186145 0.42497617 0.13768992 0.22283953 0.14883533 -0.2655255 0.41916913 -0.27208203 0.28975937 0.21416692 0.20004001 -0.2737349 0.5302987 -0.57535356 -0.10789859 0.14001198 0.37151092 0.3627693 -0.4760053
1137 -0.2502518 -0.30028388 -0.1943135 0.43624672 -0.5196246 0.16333292 0.06501326 -0.3151149 -0.15069334 -0.14750098 0.00855279 -0.35238543 0.02208959 -0.40336668 0.5172783 -0.080053784 -0.14965321 0.3834006 -0.08104863 0.22097073 -0.52674204 -0.17856085 -0.18427682 -0.42982015 -0.9118393 0.7201365 -0.5648373 0.64448506 -0.39877155 0.14513227 -0.07981453 -0.22145678
1468 0.10920327 -0.28487447 0.19845094 -0.13073863 -0.09107655 0.47504887 -0.16270334 -0.24225014 -0.9626808 -0.07821709 0.44808942 -0.01883863 -0.5548513 -0.24964945 0.042223014 0.21644154 -0.22828361 0.23142572 -0.83425206 0.07794779 -0.1886985 0.30980146 0.09824851 0.21140367 -0.18624242 0.9482081 0.1516882 0.56525207 0.025639633 0.09947056 0.5095626 -0.043499712
1188 0.12581672 -0.707443 0.6439553 -0.29655024 0.35643998 0.7911693 0.072887674 -0.47564524 -0.54169184 -0.3023155 0.10678336 -0.25880766 -0.42535603 -0.37061164 0.5110405 -0.008988425 -0.060420595 0.36713132 -0.13427724 -0.49741092 -0.26699585 -0.06200676 0.18877678 0.6478902 -0.28663722 0.7176981 0.37073892 0.3083266 0.03579404 0.20096812 -0.088655144 0.27511707
1455 -0.10876927 -0.18819937 0.17368333 0.5579452 -0.45996857 0.28326494 -0.2783637 -0.52315503 -0.037856705 -0.307097 0.4029197 -0.27888688 -0.09127315 -0.64073014 0.37687385 -0.19786198 0.08839106 0.39037627 -0.39145333 0.3997662 -0.28875548 0.0941767 0.051548924 -0.33531442 -0.8281554 0.8204273 -0.46360582 0.33360004 -0.41280368 -0.21602127 -0.012634225 -0.24536002
1651 0.177706 -0.07568492 -0.4324496 -0.37070522 0.26037222 0.5899671 -0.8959625 -0.18557772 0.20056985 0.16069476 0.5150523 0.05848388 0.62149394 0.08368257 0.1988213 0.32393587 -0.022181008 0.87260914 -0.5573248 -0.035838284 0.2882921 0.11098151 0.26270553 -0.21186136 -0.4895897 0.38996792 0.024361603 -0.057728365 -0.25032654 -0.042857 0.5311827 0.50132877
1081 -0.12698409 -0.6635229 -0.12109211 -0.63659394 -0.08966739 0.54972124 0.15793799 -0.10450191 0.10065718 -0.45539853 0.3055057 0.18865956 -0.30752012 -0.32855412 0.19869152 0.42543593 -0.18636797 1.0138979 -0.013031383 0.14542875 -0.23114331 -0.26753703 0.14135067 0.3310928 0.0061180154 -0.0042521716 -0.32092804 0.82490724 -0.50381804 0.5049087 -0.41508096 -0.16783349
1095 -0.043213043 -0.3783853 -0.112889476 0.37683454 -0.09811383 0.61650604 0.27135962 -0.5029151 8.288283e-05 -0.36610702 1.0120558 1.041764 0.12325656 -0.124728896 0.49588925 0.32295996 -0.64079285 0.53059834 -0.71272993 -0.11471179 0.1767902 0.67626697 -0.3734926 -0.39919016 0.17004688 0.6127828 0.13456999 0.14601462 0.036901526 0.15890576 -0.46903488 -0.31512868
1237 -0.13621615 0.41100138 -0.3675325 -0.18344784 -0.39184543 1.0204805 0.95351666 -0.2778818 0.8059412 0.014733974 0.75061953 0.65712965 -0.46644813 -0.5932363 -0.22713889 -0.19277784 -0.68473345 0.3084229 -0.21732363 -0.25126895 0.15648824 -0.028524902 -0.25137082 -0.17321889 -0.5320646 -0.0043596635 0.3223435 -0.034977302 -0.20731689 0.12591037 0.27187935 0.3703113
1170 0.10843413 0.06097404 0.09213249 -0.44853437 0.54148036 0.73848844 -0.10939634 -0.73474187 0.17133711 0.56589806 0.5755363 -0.21294944 -1.1664985 -0.0041772854 0.5596169 0.2370643 -0.18175277 0.3886734 0.0031794815 0.5892735 -0.32827106 0.16860017 -0.33317563 -0.22548841 -0.43612006 0.07389193 -0.14033313 -0.23710366 -0.008706005 -0.08361486 0.39761022 0.57873565
1389 0.3002735 -0.2496443 -0.28485757 -0.20403539 -0.24176675 0.9297431 0.13353701 -0.29649982 0.1714683 0.027664298 0.45254105 -0.24307196 -0.38241494 -0.2555093 -0.5998301 0.5178235 0.20036715 -0.06222 -0.20383607 -0.07470265 -0.67793757 -0.5013029 -0.04125933 0.5399288 -0.5476789 0.03105958 -0.4116159 0.36546668 -0.61276096 0.24820971 -0.10815385 0.049830295
1781 0.15442133 -0.6416027 0.062153704 -0.31418654 0.4263284 0.49811986 0.4702295 -0.5736136 -0.39779285 -0.23337571 0.800495 0.45062482 -0.31315887 0.23533988 -0.012359472 -0.20022906 -0.42550918 0.277274 0.029429909 0.0057498245 -0.043931615 -0.778421 0.16942102 -0.29999527 -0.23507057 -0.18208054 -0.25790185 -0.37604508 0.31768346 0.16644673 0.07910769 0.4816075
1194 0.5762399 -0.101883344 0.04117097 0.015488471 0.23711386 0.82367 -0.32923067 -0.38078487 -0.03727069 -0.5182023 0.2861618 0.13549429 -0.25038826 -0.54611325 0.07779142 0.001921389 0.2636384 -0.035850797 -0.10387173 -0.43025503 -0.18935819 -0.1377771 -0.56295097 0.18342368 -0.74336386 0.50824845 -0.669174 -0.10493137 -1.0165112 -0.21886712 0.45615083 -0.03545882
1073 0.106692396 0.41245896 -0.15372413 -0.7625297 -0.111075334 0.49202427 0.16676451 -0.66906494 -0.12393896 0.10358015 0.31150845 -0.45702454 0.6557179 0.0055678585 -0.01431475 0.1571197 -0.12808649 0.57870924 -0.733748 -0.23968938 0.04506282 -0.33477217 -0.52472883 -0.17650206 -0.55937344 0.21473168 -0.18628874 -0.22950874 0.5652561 0.13673647 0.18025714 -0.091987506
1143 -0.19295517 -0.4927378 -0.025909748 -0.09350311 -0.0608702 0.35044444 0.035049304 -0.4138943 -0.14766093 -0.3025243 1.0931675 -0.21827756 -0.082489684 -0.20046426 0.20465846 -0.19622892 -0.52293503 -0.30013555 -0.10317963 -0.2041215 0.13042083 0.21226223 -0.29734683 0.056739982 -0.6574377 0.7048957 -0.005779457 -0.038844164 -0.23727384 -0.40897137 -0.41269833 -0.50497204
1129 -0.25277966 -0.5184864 -0.3628776 -0.26369557 0.17456546 0.49850136 0.11270306 -0.50590414 -0.038420502 0.194482 0.5893209 -0.2783716 0.017104434 0.5527488 0.2427372 0.3855065 -0.1961772 1.0893242 0.029160418 -0.30568603 -0.40955594 0.32191807 -0.28234985 -0.017731104 -0.33331683 0.1691589 -0.54984504 0.23541784 0.2672443 0.26391673 -0.5173814 0.30653113
1282 -0.084233485 -0.10583274 -0.0026082357 0.3224582 -0.68338686 0.46772745 0.419345 -0.37530768 -0.34290063 -0.46487898 0.166584 -0.082591504 0.10683674 -0.8281054 0.19616836 -0.12221427 0.062409576 0.52972555 -0.48762268 -0.085348964 0.0069298637 -0.560573 -0.09794025 -0.4541232 -0.81064236 0.2784695 -0.34160438 0.4660963 -0.5456045 0.023901623 0.23372933 -0.344843
1437 0.029925073 -0.15995708 -0.3865241 -0.045869485 0.84711516 0.35149163 0.67930335 -0.46827987 -0.59345704 0.6724037 0.3251909 0.6068564 -0.98324674 0.22649051 0.0026194127 -0.3534376 0.028523915 0.81125456 -0.24899758 -0.25602445 -0.51448494 -0.03268102 0.28291693 -0.3147265 -0.7954304 0.13801205 -0.32898268 0.19351697 0.4934861 -0.028463159 -0.09186455 0.2978486
1433 -0.49284238 -0.34695166 -0.4203992 -0.6359357 0.21963969 0.60186887 0.23039757 -0.5477845 -0.46051753 -0.36897352 0.045917574 -0.2795707 0.15392704 -0.4377787 0.039662234 -0.41814107 0.5777146 -0.02840222 -0.13985631 0.24030712 -0.17339967 0.062225536 0.26367453 -0.468804 0.26849243 0.5052042 -0.47350052 -0.56834185 -0.3426484 0.4907195 0.124716 -0.08436089
1128 -0.08776973 -0.4391944 0.45129967 -0.3527838 -0.17145035 0.74375385 -0.12813225 -0.669168 0.19643235 -0.95260847 0.6456074 0.16529821 0.39948848 0.36572194 0.025046192 -0.22070816 -0.081704915 0.44914913 -0.37647653 0.045045834 0.13080733 0.124057904 0.16988279 0.43412378 -0.32670504 -0.12081897 -0.34456646 -0.3415811 0.24568759 0.6842843 -0.16172531 -0.69558036
1280 -0.25690055 -0.6809315 -0.20151444 -0.70538753 -0.019709533 0.7753077 -0.19835241 -0.37522906 0.110103294 -0.19695875 0.14318922 0.012039395 -0.27959678 -0.08711749 0.35454533 0.49735302 -0.44379508 0.6395582 0.11830999 0.23305993 -0.18594675 -0.5678937 -0.4368081 0.6438883 -0.4870033 -0.07867645 0.089358404 0.52955866 -0.14196785 0.48936406 0.36170182 -0.13203265
1074 -0.46113858 -0.36634347 -0.036148127 -0.19764167 0.89027464 0.41959077 0.21991083 -0.2425217 -0.28124002 -0.329023 0.43192545 0.25687772 -0.5781875 0.37774175 -0.071688294 -0.2736396 -0.25509247 0.6988661 0.20028172 -0.59831727 0.060103785 0.15136226 0.13484474 -0.30932638 -0.37850118 0.39218232 0.16772637 0.38417947 -0.72616285 0.5973791 0.36758956 -0.49856693
2241 0.48567423 -0.4539811 0.07952708 -0.49811995 0.16181904 0.3558385 -0.1565177 -0.31059998 0.3340156 0.0075553735 0.1807624 0.06763446 0.2653728 -0.36532512 0.07917907 0.1852839 0.063477755 0.63368064 -0.5140036 0.30918428 -0.1954706 0.5002008 0.33383638 -0.37776497 -0.9081493 0.4163417 0.62772065 -0.20422728 0.013417631 0.47225598 0.17327626 0.2625564
1642 0.11585908 -0.26392812 0.043752033 -0.21029896 -0.14585719 -4.4125423e-05 -0.6203227 -0.7704121 0.15266933 -0.48426807 -0.074944325 0.53684974 -0.22765584 -0.93894374 -0.045238975 -0.29103985 -0.43812433 0.34120572 -0.4261758 0.44615746 -0.27797207 0.18526188 -0.10445551 -0.13103756 -0.90537935 0.41869828 -0.072507426 0.6122658 0.11080731 0.42073783 -0.07811607 -0.11994588
1598 0.08728111 -0.29839388 0.032505825 -0.017555507 -0.59514034 0.47663704 -0.5223359 -0.97350717 0.64796716 0.067684434 0.5947087 0.093804866 -0.063592024 0.33896822 -0.59371907 -0.110049285 0.19069442 -0.21863703 -0.3332586 0.10916155 -0.26161534 0.44502935 -0.1486868 -0.5710489 -0.57259816 0.45475695 -0.15157953 0.17796203 0.22370929 0.37863883 0.20469926 0.91486955
1337 0.3377323 0.10247599 -0.1381286 0.3564423 0.06477424 0.3812428 0.18570046 -0.39536843 0.1624583 0.049483176 0.88899565 -0.0036727916 -0.5297039 -0.0029123074 -0.32231408 -0.39112163 -0.22024983 0.24537623 0.1574918 0.025280977 -0.060594536 -0.5227554 -0.08389132 -0.60348994 -0.4030217 0.6441404 -0.106482476 -0.5139722 -0.28761646 0.77838504 -0.21856107 0.4556617
1088 -0.2968314 0.10394223 -0.32020384 -0.2374234 0.21821566 0.70457375 0.37982607 -0.5213315 -0.7959928 0.11135676 0.5352365 0.21946561 0.43405443 -0.32730865 -0.47637293 -0.04094151 -0.07852389 0.44193354 -0.33515367 0.5395779 0.10021966 0.22713962 -0.2603708 -0.11742138 0.33455664 0.5803456 -0.2864688 0.5942513 -0.064249955 0.4809179 0.48493424 0.16472831
1083 -0.43331584 0.46670517 -0.009435361 -0.5080516 0.30475333 -0.0763572 -0.17413153 -0.22855355 0.0017187437 0.15191574 0.24395667 -0.2324886 -0.32568473 -0.44770187 0.31361896 0.2409841 -0.16390419 0.24981564 -0.5896999 -0.17553039 -0.45372146 -0.4510579 -0.6891942 0.611486 -0.9224296 0.82255495 -0.26176986 0.0025397653 0.35690072 0.44366857 -0.21610728 0.04451773
1238 -0.27480665 -0.21084997 0.00011755255 0.025186213 0.11101483 0.6215136 0.06713875 -0.52101713 0.15462182 0.58195263 -0.33626148 -0.06437159 -0.04137942 0.28545392 -0.27659056 -0.21077569 -0.77166027 0.48449996 -0.22224571 0.47469026 -0.17240836 -0.772297 -0.09274114 0.24857132 -0.16037606 0.67046624 -0.1876686 -0.33998674 -0.16330037 -0.05267331 0.2626636 -0.4744649
1125 -0.26802546 -0.15795428 0.09640039 -0.53894335 0.36804095 -0.010633149 -0.096522935 -0.24508159 -0.041402854 -0.4629169 0.14503476 0.3036297 0.22206363 -0.5467512 -0.11462047 0.49181 -0.7190857 0.6783691 -0.5672647 0.3399208 -0.19187969 0.49762133 -0.36934116 0.020422833 -0.8054884 0.51170945 -0.00546569 -0.66390425 0.16671069 0.4708131 -0.28955492 -0.09902591
1077 0.23723124 -0.078699924 -0.12225385 -0.20232992 -0.0045507266 0.5264416 0.14003418 -0.63137406 -0.09859189 0.6752643 0.12752463 0.3877765 -0.4343333 -0.15553384 0.47683385 0.2016919 -0.4245204 0.47829437 -0.07266513 0.11213322 -0.43663126 0.12174837 -0.25635412 -0.5440013 -0.70897186 -0.2783083 -0.6771792 0.7308544 0.577796 0.037327904 0.55415905 0.44815433
1761 0.35520837 -0.20312656 0.8341475 0.35850278 0.06200858 0.53762853 0.1962521 -0.55346423 -0.6371346 -0.43374062 0.30731368 -0.09193868 -0.8382172 0.3257097 0.10677475 -0.051622372 -0.27016544 0.5082907 -0.68969554 0.056200214 -0.42891052 0.42816976 0.060894214 0.4349172 -0.39576158 0.98779523 -0.27931523 0.2579291 0.38549173 0.33563367 0.24646002 -0.05363072
1220 -0.10315525 -0.46935317 0.18222488 0.08968053 -0.115234844 0.5874554 -0.26824164 -0.3111181 -0.59926206 -0.026416462 0.16764857 -0.18796131 -0.7891779 -0.014836782 0.35052797 -0.044438414 -0.094390675 0.33231106 -0.7239451 0.17604552 -0.16624793 0.27852893 0.41626254 -0.02035467 -0.31261232 1.0632668 0.057849117 0.42748538 0.612318 0.029147554 0.42609233 -0.34747937
1151 0.68074197 -0.18306665 -0.2730191 -0.21108474 0.4796392 0.71563876 -0.44336176 -0.33062336 0.0032133341 0.13364919 0.025586423 0.29671234 -0.18568826 -0.07526429 -0.24756527 -0.1653684 -0.2330023 -0.2606286 -0.26376548 -0.02997185 -0.59612626 -0.3936664 0.29121312 -0.15333135 0.034100972 0.5863705 -0.20237608 -0.15814976 -0.22826867 0.5054423 -0.04427958 -0.7673345
1139 -0.13391572 0.39295223 -0.06924472 -0.21162376 0.34203362 0.9529073 0.44748485 -0.42426196 -0.5215173 0.108941674 0.45504525 0.27628893 0.12386692 -0.26473728 -0.19896571 -0.22482887 -0.20155989 0.3554355 -0.2594872 0.71254253 0.012521665 0.1494268 -0.49359396 0.059895907 0.48661742 0.6591111 -0.25731614 0.5274626 -0.1454324 0.5905836 0.414096 0.3375038
1155 0.103779 -0.4368877 0.11953802 0.00272749 -0.70839137 0.36533213 0.14803337 -0.5361093 -0.5063441 -0.003665359 0.8455699 -0.22378668 0.044330284 -0.34319025 0.062053666 -0.33750227 -0.32522544 -0.010712154 -0.29758832 0.08683544 0.121146195 0.27370945 -0.7604452 -0.107964605 -0.58279604 0.74052274 -0.30905768 -0.22316799 -0.14404866 -0.026692525 -0.40720874 -0.016314514
2068 0.30916938 -0.026683483 -0.3272138 -0.77697486 0.44982952 0.38183877 -0.13759676 -0.38848624 -0.24358332 0.0033220346 0.58602315 -0.25360712 0.22795686 -0.25310943 -0.3227404 0.15876606 0.4876128 0.7092132 0.2818846 -0.43044454 -0.1826285 -0.09685377 0.53742325 -0.71728605 -0.23591186 0.43033668 -0.47159094 0.44728902 -0.1349075 0.2397792 0.057241052 0.060871158
1425 -0.03350177 0.16934304 -0.83762586 -0.40713283 -0.05451846 0.954629 0.14438368 0.3575976 0.30086476 -0.49543962 0.36195022 0.17456631 -0.998497 -0.43285298 0.4387488 -0.21681899 0.45485795 0.22803368 -0.5456627 -0.45047778 0.24477391 -0.08302845 0.04003611 0.44832018 -0.44254074 0.67523015 -0.32189006 -0.1311982 0.32134116 0.8384639 -0.055999234 -0.61718374
1240 0.51784515 -0.25344726 -0.052349746 -0.07214735 0.3591537 0.4880998 -0.03233219 -0.7218618 0.03394057 -0.052248593 -0.20087749 0.044157512 0.18011345 0.01215925 -0.6724486 -0.09920591 -0.45185405 0.14020345 -0.13802633 -0.41564643 -0.4448591 -0.4767857 0.22711827 0.13457187 -0.19475923 0.18105868 -0.4304003 -0.00199612 -0.22239338 0.8677957 0.02662291 -0.20726988
1061 -0.13690063 -0.03016364 -0.11257005 -0.08482959 0.7907398 0.27388632 0.24799249 -0.4188962 -0.34940422 -0.16725333 0.5739858 -0.07575289 0.48996782 0.070405364 0.18773274 -0.20651819 -0.7047668 0.30692336 -0.14296672 0.18432805 0.225491 -0.2949484 0.20876938 -0.07010917 -0.29336846 0.10093253 0.028133396 0.055958495 -0.4477361 0.45733413 0.28401947 -0.4013345
1487 -0.21633601 -0.79462546 0.095434286 -0.22515553 -0.3636883 0.42588997 -0.26790196 -0.6136234 -0.4010197 -0.15388452 0.6470935 0.19611411 0.4546334 -0.16738147 0.3063479 -0.69776833 -0.017149054 -0.067225926 -0.0076636076 -0.04517082 0.04244549 -0.4187824 -0.20558365 0.73350275 -0.43108976 0.3025006 -0.44059086 0.17426951 -0.26580727 0.13062887 -0.43967736 -0.366548
1067 -0.7661092 -0.14552794 0.54195213 -0.1769699 -0.053672843 0.70079195 0.42048568 -0.25669736 -0.14003102 -0.6338636 0.31264776 0.19564253 -0.3795106 -0.18237469 -0.19350307 -0.09690214 -0.14011283 0.48229235 -0.3386877 -0.014946536 -0.7188793 0.21859089 -0.010440407 -0.32247895 0.33396643 0.7444531 -0.30315882 -0.59395266 -0.18026903 0.37787357 -0.19762719 0.063811004
1158 -0.45298418 -0.4758914 -0.25008377 -0.27608567 -0.17473176 -0.08096096 0.07941203 -0.4850096 0.16299896 0.38722587 0.98731476 0.30350786 -0.4237397 0.097241476 0.5516731 -0.15218237 0.6792006 0.23334423 -0.6708216 -0.1390393 -0.069619164 -0.12620352 -0.17650892 0.13455541 -0.5382969 0.055791896 -0.49961096 0.34863287 -0.5142729 -0.07177491 -0.39393952 -0.2845072
642 -0.72284585 -0.052829504 0.5512417 -0.077363454 0.042919714 0.09674625 0.51934206 0.10030913 -0.15395343 -0.041274283 -0.2930483 0.25850865 0.19210806 -0.115326084 0.43431133 0.32645017 -0.4584317 -0.40964097 -0.38012213 0.12444109 -0.055901725 -0.17754844 0.7398819 -0.37169626 -0.20904374 0.4601024 -0.5173766 0.15843402 -0.0065060086 -0.058020584 -0.33575708 0.15553603
1069 0.72576827 -0.43834612 0.116981894 -0.8078857 0.6342632 0.726196 0.12890694 -0.5449338 -0.16532546 -0.2008059 0.44220918 0.25861028 0.1892695 -0.25386736 -0.0040966948 0.15123083 -0.49930474 -0.098996386 0.09253366 -0.2440285 -0.25032082 -0.29495436 0.49069047 -0.40505147 0.14409491 -0.048827186 0.10721678 -0.2755111 0.27250913 0.8187462 -0.5886805 -0.101521954
1368 0.2081335 -0.03218806 0.45828387 0.4970496 -0.2933934 0.60737085 0.011674468 -0.2204904 0.18576571 -0.24673665 0.28412434 -0.023224287 0.08254114 -0.6248164 0.72761834 -0.31001434 -0.08659185 0.19815008 -0.47081745 0.23332688 -0.07112835 0.1701543 -0.25592732 -0.25740057 -0.79429305 0.34032354 -0.1592633 0.31428167 -0.2553572 0.61301315 -0.30882597 -0.16445713
1576 0.3744138 -0.4869933 0.52289486 -0.28783205 -0.13951135 0.49744955 0.33179516 0.17397542 0.4657789 -0.059218362 -0.28948668 -0.21986611 -0.050984986 0.006809027 0.27268413 -0.15624624 -0.60128516 0.46097812 -0.24422292 0.46034837 0.5726747 0.32107314 -0.115408204 -0.37947792 -0.72226447 1.0874743 0.39023617 -0.21099469 -0.0531783 0.56469023 0.54043674 0.0068294248
1390 0.07894979 0.0545968 -0.33678865 -0.5765093 -0.26704836 0.15791136 -0.7528278 -0.6313228 0.22373955 0.29263476 0.61451876 -0.20724508 0.37336713 -0.11478651 -0.09168759 0.28741133 -0.37998587 -0.03757256 0.4432815 -0.3492999 -0.64452004 0.48233452 -0.06495016 -0.56061625 -0.94036144 0.37704927 -0.30763742 -0.4180813 -0.120694175 0.38066173 0.4631153 0.1062086
2011 0.42587838 0.2123028 -0.70120674 -0.4223482 0.12737891 0.12003464 0.25559247 -0.64670575 -0.08462041 -0.2164691 1.1883683 0.2876359 -0.11712732 -0.17447937 0.22778864 0.04096576 -0.54012614 0.65661436 -0.43538147 0.08918793 -0.07892891 0.23955299 0.017728467 0.10159088 -1.0018871 -0.20853245 -0.368302 0.21086465 0.11070867 -0.34850547 0.38122913 0.0663584
1111 0.4786298 0.061502114 -0.27646783 -0.2615947 0.08366852 0.5392432 0.018966433 -0.34531885 0.447883 -0.3187041 0.22438851 -0.38493353 0.0076073636 -0.114679396 0.48309922 0.03519565 0.050663564 0.09104398 -0.24350467 -0.09257871 0.13169973 -0.008629273 0.08611967 0.22979537 -0.04311607 0.18959273 -1.1299975 -0.34992525 0.21227764 0.8077718 0.0634546 -0.10466507
1279 -0.040597364 -0.5686502 0.20515744 0.09119987 -0.05321959 0.12756349 -0.15276347 -0.6905201 -0.19403198 0.59207803 0.28567934 0.19133799 -0.5179565 -0.91471255 0.45486748 0.119179964 -0.2556182 0.14985262 -0.40675744 -0.16141751 -0.03866248 0.45920575 0.057942256 0.3754913 -0.3735592 0.8408372 0.32565242 0.22494504 -0.1872472 0.18218075 -0.4694018 0.047636546
2262 0.13157502 -0.38941923 0.040990647 -0.44418687 0.04139219 0.02736375 0.40400228 -0.5257338 0.2672425 0.6994006 0.052435186 0.5289669 -0.29118028 -0.1543593 0.66068673 -0.34684357 0.26798096 0.701512 -0.59031147 0.19005589 -0.023859048 -0.30065474 -0.22743218 0.5070266 -0.41653156 0.16371696 -0.22640662 0.3324954 -0.6015684 0.024536937 0.06316897 -0.15667051
1762 0.14901261 -0.607432 0.4328532 -0.4302648 -0.16216627 0.08102041 0.6014857 -0.4365927 -0.2906218 0.67429954 0.4240236 0.16014737 -0.018429087 -0.4493184 0.25968716 0.41843584 0.57662743 -0.04717535 -0.037082043 -0.5000049 -0.26190954 -0.583825 -0.3354359 0.36857775 -0.8164697 0.33882028 -0.2817739 -0.20824601 -0.44992432 0.3513963 0.03583301 -0.18945913
1397 0.4340118 -0.29402515 0.3240603 -0.17752753 -0.11889373 0.25667852 0.28021878 -0.89752513 0.005612752 0.23290622 0.5615933 -0.60494316 0.21623462 0.19936423 0.42683643 0.09313031 -0.33308712 0.5489517 0.070458256 0.44561762 -0.4126461 0.7687443 0.20409153 -0.200825 -1.0919 0.27493653 0.25448576 0.053156864 -0.4689352 0.0068963356 0.38502064 0.5391643
1080 -0.07654923 -0.84875816 -0.15807736 -0.71981806 0.27624768 0.95946425 -0.1890673 -0.2873051 -0.21270531 -0.47006264 0.034512263 0.32505003 -0.059068352 0.024780927 -0.06812339 0.74719894 -0.2323434 0.8975303 -0.111297734 0.13353688 -0.193381 -0.37002486 -0.06636785 0.33146882 -0.34252757 -0.5208568 -0.36972314 0.54660505 -0.34636426 0.31063825 0.016433537 -0.21276806
1394 -0.18932517 -0.114729345 -0.28542387 0.0149345985 -0.07344119 0.29068178 0.28352818 -0.5291851 -0.16994141 0.21433364 0.84803385 0.28468287 0.02214683 -0.57368106 0.12026347 -0.14207698 -0.37517533 0.28962308 0.061388392 0.018755244 -0.079500504 -0.072605245 0.4831315 -0.44432622 -0.7177195 0.20831934 -0.46809462 -0.32920924 0.6205246 -0.34918013 0.47644123 0.31591782
1136 -0.40213352 -0.388535 0.21893373 -0.6452017 0.24424754 0.53461385 -0.14842972 -0.6906679 0.31084818 0.30427513 0.5911909 -0.2864826 -0.21500689 0.012226312 0.11643838 0.2145059 0.12969351 0.44389516 -0.09628207 0.5802651 0.2631821 -0.66010505 -0.21803163 0.1996552 0.091050714 0.38577712 0.25294492 -0.07494445 -0.43622172 0.24936424 -0.13473102 -0.42280117
1142 0.10903876 0.53584194 -0.42913637 0.032557614 -0.2578817 0.46742308 0.5346765 -0.6136234 0.24521367 0.3525883 0.6000756 0.14827 -0.4948176 -0.8881496 0.5235985 0.17367703 -0.41666996 0.35955626 2.0625186e-05 -0.09568119 -0.042498115 0.050902158 0.18664871 -0.37078634 -0.51540166 -0.12498126 -0.84513676 0.2983863 -0.046134915 -0.13111892 0.49087277 0.37562588
1747 -0.3057159 -0.38654983 -0.2782303 -1.0115188 -0.18742138 0.2753094 0.47041756 -0.8258525 -0.018988864 0.7256744 0.91813785 0.4943796 -0.26268905 -0.16226183 0.6939701 -0.022153005 0.049041837 0.24708228 -0.21264349 0.558527 -0.50538474 0.5006134 0.4988809 0.18676403 -0.21639949 0.012107325 -0.24455203 -0.0039385115 0.17255032 -0.69320816 0.5134138 0.0712045
1056 -0.3902829 0.040738363 -0.41184986 -0.09702423 0.015063866 0.13966429 0.1369573 -0.6718329 -0.04554444 0.107787915 0.6220867 -0.36663598 0.35396904 0.66400015 0.28994074 -0.10349642 -0.46703157 0.13456784 -0.503653 -0.43780568 -0.7898985 -0.08794656 0.3091592 -0.107447214 0.095712975 0.36286798 -0.2897783 -0.31243783 -0.39017287 0.40821916 0.28535175 -0.18286829
1094 0.12973553 -0.41372254 -0.60870814 0.047009107 0.001752933 0.51497227 0.13431199 -0.22444624 0.090007 -0.16653821 0.16398387 -0.24958034 0.24379101 -0.3209334 -0.12979147 0.08777718 -0.6703768 -0.17954507 -0.24920397 -0.28885123 -0.02759922 -0.6012008 -0.4320539 0.4367826 -1.0896249 0.5278734 -0.07696005 -0.7377064 -0.33336693 -0.015256531 0.25292948 -0.03367615
1101 -0.7170189 -0.3303108 0.01876266 -0.6078995 0.1035729 0.48053083 0.2632193 -0.6569068 -0.43995818 -0.16287118 0.004213766 -0.19050403 0.017812451 -0.48670232 0.011991106 -0.42830127 0.111568905 0.42578533 0.3004171 -0.014676856 -0.27611685 -0.15716411 0.47368985 -0.44919488 0.33205882 0.5430384 -0.3841046 -0.40722582 -0.17847079 0.45766494 0.04568972 -0.2872038
1054 0.13352145 -0.015983518 -0.12632738 -0.69078904 -0.1167018 0.7313101 -0.12044506 -0.5854587 -0.37363157 -0.21249253 0.2571203 0.4441657 0.41298705 -0.3861378 0.0136911515 0.77083844 -1.3180133 0.3682144 -0.690299 0.24605246 -0.38523215 0.2725433 -0.3600224 0.37056306 -0.03910316 -0.13183911 0.34664404 0.2290034 -0.21982406 0.61332625 -0.16636746 -0.36888617
1308 -0.19486877 0.07347278 -0.052025102 -0.17514928 0.7381011 0.18725467 -0.014420112 -0.26701885 -0.3362101 -0.12391043 0.27336177 -0.5258882 0.5603424 0.4373847 0.2405498 -0.11367815 -0.079263404 0.12728947 -0.3281043 0.17238687 -0.6914904 -0.69025934 0.34855184 -0.5217845 -0.1733638 0.66921896 -0.27528507 -0.18878235 -0.3699696 0.50493395 0.31487662 0.0012492567
1263 -0.065499194 -0.6766892 -0.19094218 -0.26766166 0.14636649 0.06213821 -0.58501947 -0.4179054 -0.2571514 -0.4354948 -0.29617152 0.52501124 -0.26200962 -0.43128484 -0.20637557 0.0011073401 -0.5093659 0.6151786 -0.46782145 0.40517244 -0.05615875 0.18740825 -0.2837585 0.1196759 -0.7328958 0.23605147 -0.46068195 0.14764866 -0.17190632 0.60189104 -0.07339815 -0.31428352
1257 -0.51422274 -0.28878713 0.09656343 -0.17857654 1.027684 0.42438135 -0.17254487 -0.18800327 -0.18473482 0.054209445 0.1514806 0.025987742 -0.14031824 0.2392481 -0.11278646 0.022616433 -0.44195336 0.25770983 0.16821754 -0.19898249 -0.018020744 0.085352 0.22372466 -0.5055955 -0.5949508 0.04086009 0.015914103 -0.12020691 -0.62789375 0.6874816 0.27990907 -0.43036
1612 -0.08801623 -0.47335154 0.023694806 -0.62386036 0.023148708 0.33677664 -0.1135211 -0.5117525 -0.09727532 0.5422542 0.6742335 0.0177226 -0.47750512 0.21864526 -0.56880724 0.5919246 0.24275486 0.17956312 -0.17819898 -0.13689916 -0.6132207 0.29663315 -0.5279811 -0.24316028 -0.4096476 0.5021554 -0.17190962 -0.52061504 -1.0842664 -0.07938751 0.24941863 0.77270633
1132 -0.49458316 -0.0011238006 0.20985985 -0.515285 0.39945853 0.07957481 -0.41103345 -0.18837374 0.0595186 -0.41634494 0.10431852 0.72907877 0.53701746 -0.4077351 0.1385794 -0.21700099 -0.30812407 0.33877063 -0.9209026 0.16417225 0.07860321 0.44248942 -0.41726148 0.12265756 -1.036162 0.03277865 -0.2198617 -0.12634861 0.20987229 0.46685007 -0.40609685 -0.18022239
1400 0.47938505 -0.14736168 -0.040798925 -0.024574388 0.41214645 0.74469215 0.1763153 -0.9162062 -0.26651317 -0.13408303 0.90105635 0.2669744 -0.6864276 -0.23266703 -0.1889836 0.027061554 -0.28439462 0.52900666 -0.17129596 -0.11645482 -0.056730278 -0.45432597 -0.08701086 -0.33487785 -0.6068476 -0.13370413 -0.009969837 -0.52215207 -0.63859284 -0.5612545 0.25868106 0.45497304
1459 -0.27512982 0.47013226 -0.13662457 -0.43483916 -0.17684503 0.49555886 0.20695207 -0.4824798 -0.122301824 0.37449855 1.1164757 0.1417936 0.038054336 -0.6610246 0.1484644 0.18133262 -0.74728507 0.332953 0.07564554 -0.13090692 0.04919538 -0.21016385 -0.16784325 -0.42627063 -0.34206772 0.2302083 0.02185546 0.09441048 -0.12723555 -0.36951113 0.51586944 0.49811965
1115 0.06925079 0.41789147 -0.060258016 -0.95970047 -0.332874 0.7164823 0.06252581 -0.14983436 -0.58349705 0.041801512 1.1708854 0.18651044 -0.94628423 -0.46613845 -0.19908236 -0.16719279 -0.85875577 -0.24657081 0.048931636 -0.115615025 -0.021535752 0.6158597 0.0094134025 -0.3629066 -0.7365532 -0.32221356 -0.18516695 -0.11477233 -0.49947757 -0.086281285 0.10340221 0.7415723
1827 0.825378 -0.31157553 -0.6801244 0.19204067 -0.118350476 0.31920928 0.31024924 -0.4575039 -0.39405444 0.24094157 0.6448112 0.18614444 -0.005132115 -0.8750501 0.5459686 -0.07149718 -0.07445826 -0.13584124 -0.112398826 -0.014192028 0.08743553 0.22299908 -0.09249445 -0.08996833 -0.49552345 1.1432313 -0.10684869 0.2596631 -0.56448746 -0.19836552 0.28568938 -0.06702078
1458 -0.23117818 0.38525027 -0.10227608 -0.18803586 0.11166544 0.6034091 0.445166 -0.6608033 -0.4995553 0.21448386 0.53237915 0.55097353 0.13399185 -0.28865805 -0.23666963 -0.0682702 -0.20080078 0.10239929 -0.42824394 0.3983876 0.15699564 0.23466471 -0.6853412 -0.03872525 0.64409643 0.8473849 -0.2787185 0.6084571 -0.3950663 0.52470523 0.68027866 0.3030184
1053 0.10922932 -0.024473896 -0.23714958 -0.85261405 0.096567184 0.68283445 0.22011328 -0.47569048 -0.9530355 0.3464772 0.40336084 0.31319693 0.2507042 0.03216132 -0.2817072 0.5664524 -0.20638807 0.35761994 -0.8445301 0.04655902 -0.57357776 0.29906118 -0.32370687 -0.4070994 -0.25252748 0.13203156 0.105579145 -0.44658002 0.5192195 0.32921895 -0.13855486 -0.55672616
1201 0.47927544 -0.5336871 -0.4076863 -0.90468097 -0.114708774 0.31895712 0.07699674 0.081696875 0.10871102 0.005003171 0.24425249 -0.23026189 -0.42781398 0.13160609 -0.7806997 0.16795366 -0.30798897 -0.08577662 -0.41920727 0.20573926 0.2165725 0.17521219 -0.26839417 -0.3531749 -0.8148391 0.1396519 -0.102088295 -0.15866008 -0.5444678 0.5657095 0.24911958 0.4584043
1636 0.62903756 -0.5663486 -0.17502856 -1.1171525 0.047387574 0.7454843 0.07957066 0.08797641 0.5400571 -0.14796792 0.4004354 -0.45329314 0.22848119 -0.20203339 -0.19083403 0.5035222 -0.14528382 0.32442352 -0.06655036 0.24208093 -0.18323047 0.22586632 0.461762 -0.23490468 -0.84036034 0.44314113 0.30123606 -0.37988394 -0.071433805 -0.026558943 -0.0292171 0.6054525
1146 0.49075055 0.095948555 -0.36985677 -0.8384247 -0.39370897 0.7017739 -0.99609333 -0.4633343 -3.4921868e-05 0.46167484 0.29409963 0.50528026 -0.19664377 -0.10228491 0.4985975 -0.054678585 0.0024332623 0.6427804 -0.33403066 -0.3359525 -0.25952342 -0.000738305 -0.3353329 -0.88992566 -0.033472914 0.022880128 -0.15300046 0.23509493 -0.34472245 0.3353893 -0.47052062 0.18935104
1231 0.4925017 -0.11594589 -0.39005572 -0.666474 -0.006892916 0.3316564 0.13467117 -0.17299962 0.22732446 0.81851166 -0.018916124 -0.31123406 0.09434254 0.014286858 -0.14639683 0.16247429 -0.028068665 0.28606197 -0.38056153 0.55788225 -0.5749859 -0.10985306 -0.14414337 -0.06171318 -1.0204788 -0.06522514 -0.5336755 0.25407267 -0.1915062 -0.016932942 0.25142783 0.15961003
1807 0.10191147 0.092715956 -0.16046183 -0.2154926 0.322825 0.26063043 0.17643578 -0.8527773 0.5944058 0.54357016 0.60583836 0.5486103 -0.7191259 0.19890684 0.27110034 -0.15936776 -0.6677343 -0.48027113 -0.19652976 -0.08364093 -0.6445076 0.07906765 -0.36790967 -0.7691738 -1.0139279 0.026968205 -0.19996649 0.4697038 0.6387942 -0.076700844 0.35522908 -0.22775117
1870 0.26490876 0.016813265 0.21932237 0.15259153 0.4084643 -0.022787718 0.12675446 -0.5539135 -0.24598175 0.18253271 0.05142431 -0.259978 0.03762947 0.50666445 0.23016387 -0.26454878 -0.8040538 0.06030151 -0.5124134 0.011414326 -0.85128784 -0.27359012 0.37025642 -0.44202396 -0.13390362 0.5869832 -0.22184606 -0.40497988 -0.5169249 0.48674828 0.31137028 0.27926555
1628 -0.014071077 -1.017919 -0.2360146 0.120334424 0.3456832 0.13683303 -0.35888025 -1.0847217 -0.13008387 -0.2926709 -0.13354523 0.7362871 -0.65294343 -0.3493194 -0.44036424 0.11600408 -0.044794526 0.20251772 -0.39883643 0.52893716 0.086728506 0.20083018 -0.35689476 0.26482493 -0.76413983 0.25206226 -0.28618997 -0.10915355 -0.067745715 0.5806532 -0.042005222 -0.2543697
1626 -0.29130405 -0.7461705 0.22752835 -0.06076436 0.25150788 0.41844025 -0.2121914 -0.7346779 0.08123113 0.1472666 0.5838587 0.06913436 -0.12862165 0.17967892 0.7952156 0.18604608 -0.12495129 -0.1278669 0.34215662 0.42448097 -0.19530617 -0.116780676 -0.6027139 -0.11037404 -0.6037269 0.3489305 -0.20348474 0.38043645 -0.009684269 0.18722194 0.059799723 -0.7766063
1195 0.21881136 0.10554698 -0.025722567 -0.32817683 -0.24424426 0.8515055 0.40657583 -0.8149312 0.08101623 0.36722973 0.4901804 -0.45338213 0.58641326 0.08760629 -0.31642452 -0.09348649 -0.021675715 0.47010738 0.13436002 -0.9412152 0.35430104 -0.49680698 0.13042839 -0.15456738 -0.43723768 0.514857 -0.006471476 -0.36485568 0.27293348 0.15769935 -0.056108568 -0.65173703
1430 0.26406997 0.39755008 -0.26131043 -0.1314825 0.252456 0.86649936 0.24055395 -0.43769738 -0.07447561 0.28173792 0.7991208 -0.0050789574 -0.76572174 0.24070403 0.5181779 -0.32266524 -0.49781626 -0.094395794 -0.21828158 -0.11986464 -0.087855704 0.09863481 -0.023178086 -0.80240935 -0.8646926 -0.047387917 -0.10425027 -0.012911835 0.76102424 0.068577 0.44802636 -0.6036573
1311 -0.3901027 -0.42160958 0.14538744 -0.09462579 -0.061580133 0.5948458 0.3137103 0.18271431 -0.38617334 -0.48301807 0.21328507 -0.39340273 -0.10967787 -0.08412509 -0.11383624 -0.38669813 -0.35017714 0.5545585 0.32794803 0.34734735 -0.19924484 0.019233469 0.8588103 -0.68513495 -0.15027103 0.95142394 -0.33134866 -0.6302419 -0.19809178 0.44518167 -0.3096226 -0.12659253
1427 -0.26619142 0.08299528 -0.6390435 -0.47734272 0.58728886 0.9717826 0.102723174 0.030570254 0.010228752 0.35280702 0.6811232 -0.004239455 -0.13335371 0.11406211 -0.36392963 0.6022473 0.15503345 0.5313329 -0.38239527 -0.009604035 -0.53727 0.11982826 -0.35158375 0.24736407 -0.43358836 0.83724993 -0.013157578 -0.37259156 0.39048114 0.20148203 -0.48541623 -0.49486804
1250 -0.11558791 -0.14908183 0.047692724 -0.31936347 0.41407144 -0.09423079 0.040865798 -0.50533694 0.016995313 -0.039329417 0.024080358 0.6884473 0.074187 -0.4586127 -0.5151892 -0.11182262 0.08642571 0.53855485 -0.092405275 -0.025870373 -0.5578069 -0.5016166 -0.4559168 0.06598893 -1.2445537 0.54040915 -0.43916276 0.59870976 -0.4818115 -0.2048288 0.32714492 -0.2569824
1055 -0.007341416 -0.13093875 0.13769703 -0.36424965 0.3403096 0.29220557 0.384681 -0.2016654 0.03959113 0.2694563 -0.15614264 0.11807504 0.29573876 0.071460985 -0.24221335 -0.44144565 -0.16526711 0.116420664 -0.21805082 0.24689528 -0.6352132 -0.7665234 0.10745986 -0.92868847 -0.22164087 0.3990621 0.026085654 -0.43216336 -0.6604782 0.83236456 -0.27186596 0.0692183
1130 0.3304057 0.076756716 0.37636167 -0.0768496 0.35556504 0.37712285 -0.118590415 -0.5491586 -0.27905658 -0.13875185 0.4027479 -0.07852219 0.16198543 0.030755628 -0.25995538 -0.16247666 -0.5598939 0.048899043 -0.3283221 -0.40681174 -0.43411016 -0.13683695 0.5629317 -0.79234743 -0.083383724 0.3287281 0.030230545 -0.33407348 0.004219333 0.7112359 -0.44056883 -0.055984985
1133 0.05593143 -0.22036444 0.6814803 -0.7865422 -0.45122772 0.90713817 -0.16115198 -0.5089127 -0.14091924 0.5924917 0.36364782 0.120910496 0.04034203 0.25842088 0.18217966 -0.2124895 0.27765656 0.8030027 -0.31265727 0.07029123 0.030200329 0.2591247 -0.6765031 -0.55271196 -0.12507409 0.10480216 -0.041467734 0.21695696 0.28697225 0.6663536 -0.08015168 0.39983356
1351 -0.044541292 -0.3911616 -0.27823475 0.083241574 0.09634086 0.11022613 0.12274889 -1.2856987 0.6135323 0.08706395 0.753612 0.3231932 -0.23295134 0.35613424 -0.20680463 0.6097923 -0.05362158 0.18627179 -0.5843594 0.28157952 0.13577625 0.8728732 0.23933826 0.19196393 0.15121093 0.4954148 -0.51615995 -0.2646775 0.1891785 0.24835408 -0.03845869 -0.42607307
1114 0.049717322 -0.1393574 -0.6222809 -0.25846612 -0.047917467 1.0989634 -0.11716576 0.09928025 -0.24520141 -0.10903918 0.37483972 -0.04302995 -0.49383065 0.3270056 -0.55586994 -0.4407666 0.120468296 0.9232052 0.0077328575 -0.13297689 -0.08606167 0.017338062 -0.022383712 -0.29120603 -0.4093772 0.45308903 -0.4426308 0.41662735 -0.526477 0.0033539315 -0.12051071 -0.115699664
1224 0.038536675 -0.36501235 0.6810146 0.104616426 -0.21248077 0.54104596 0.014335358 -0.38224047 -0.78149605 -0.11962484 -0.14577162 -0.34928176 -0.28773725 -0.041665737 0.03180527 -0.22080952 -0.36924756 0.09883356 -0.78954136 -0.088977 -0.11056082 0.26185507 0.3645197 -0.21606396 -0.54347104 0.8077301 -0.039356887 0.66617733 0.11460304 -0.23486951 0.6348642 -0.20857488
1062 -0.29489452 -0.06767056 -0.36575213 0.08158542 -0.116895095 0.23832782 0.5568591 -0.6416643 0.0068173604 -0.23502631 0.34132257 -0.74282813 0.02133076 0.25762448 0.3211727 0.11151457 -0.4079806 0.10910562 -0.68270147 -0.13925542 -0.5744844 0.01334356 0.07402099 -0.21773772 0.18195772 0.6307317 -0.20688131 -0.2603749 -0.117684126 0.58597356 0.087776825 0.3529753
1819 -0.07262099 -0.5479129 0.24758051 0.058608755 -0.39818585 0.57101923 -0.24815103 -0.6011242 -0.284198 -0.114301376 1.1498548 0.2315053 0.4275017 -0.14541064 0.48616502 0.18952438 0.5358884 -0.029755307 -0.1521176 0.14103371 -0.010464948 0.18703584 -0.3983586 -0.6387363 -0.66522396 0.22435522 -0.1370035 0.4526038 0.31002903 0.57113254 -0.3391636 -0.21418323
1722 0.47570923 -0.48656473 0.24257068 0.5596631 -0.3697521 0.58230907 0.29774588 -0.3368439 -1.0436298 0.19781525 0.6015553 -0.4199781 -0.85090035 0.010462708 0.34429955 0.30906045 -0.045246948 0.22728318 -0.43038747 -0.06727021 0.5622508 -0.069824435 -0.36707225 -0.29256 -0.5228648 0.7038142 -0.13361304 0.59124655 -0.1112968 0.6075661 -0.11281081 0.06391795
1276 0.01478908 -0.89121544 -0.0382665 -0.40528738 0.022436082 -0.016098158 0.20657684 -0.3537827 -0.34338433 -0.38976204 0.7562885 -0.08096384 -0.1977823 -0.35529205 0.47577205 0.28242865 0.40063545 -0.038366996 -0.5231626 0.06074634 0.09222061 -0.1338526 -0.27301872 -0.36358106 -0.5197749 0.12952018 -0.39131856 0.51039594 -0.83706284 -0.07406843 -0.18625446 0.07834609
1251 0.38348353 -0.16671002 -0.6355172 -0.31878567 0.33646402 0.50809777 -0.7054357 -0.35168368 0.2521589 0.16986366 0.38429478 0.22420429 0.4529278 0.12165148 0.022555532 0.4331658 -0.34501544 0.7013622 -0.4010167 -0.3885948 0.4966589 -0.18299739 0.025886586 0.2466533 -0.009380855 0.7837068 -0.1996693 -0.03265639 -0.37951905 -0.047530144 0.53144044 0.61095685
1102 -0.3329027 -0.68496174 0.04949888 -0.36736587 0.13408206 0.7842493 -0.3896336 -0.19246027 -0.5464481 -0.04206374 -0.18834502 0.016068215 0.037088394 -0.12327748 -0.081708565 0.3284203 -0.07131456 0.25338545 -0.18209423 -0.053697266 -0.55349654 0.38669908 -0.31305817 0.41903383 -0.91622466 -0.34001642 -0.48543024 0.47173527 -0.47946975 0.4949344 -0.48557994 0.06524449
1666 0.09991692 -0.46183732 -0.4669901 -0.9131496 0.11430319 0.77268016 -0.08504026 -0.41750282 -0.37512848 0.4625094 0.78485453 -0.22327095 -0.15308766 -0.7076767 -0.01428502 0.14352353 0.11148414 0.4200674 0.16793838 -0.600207 0.17723662 -0.08071321 0.39743984 -0.19178623 -0.42415062 0.12677051 0.5798701 -0.15420188 -0.15413225 0.35000807 -0.82164913 0.059775144
1271 0.14666982 -0.21950142 -0.22259979 -0.066712886 -0.24452543 0.31739736 -0.5427394 -0.36567816 -0.34974232 -0.76333654 0.50474256 -0.43917146 -0.30058646 -0.24630897 -0.0777862 -0.12582709 -0.16760857 0.23907651 -0.13470665 0.08463993 0.30539063 -0.2579879 -0.1884825 0.4435025 -1.0843657 0.16560493 -1.0236473 0.5514225 0.14924115 0.41498712 0.052605543 -0.31470487
1895 0.10735433 -0.5358216 0.36238715 -0.24437751 -0.09261057 1.1188918 -0.2656866 -0.28534162 -0.14309552 -0.004817278 -0.19577304 0.42167163 -0.14463629 -0.7351729 0.40970698 -0.090367064 -0.064246565 -0.29515055 -0.18997072 0.028016672 -0.3684525 -0.378399 -0.059558652 0.23843123 -0.81261045 0.6106582 -0.07752589 -0.74736935 -0.14592978 -0.7426329 0.8447058 -0.011512444
1623 0.33700937 0.17606546 0.7103564 -0.6664989 -0.1272348 0.44938526 0.45202824 -0.25431138 0.4951423 0.09070998 1.0180428 0.66180134 0.30875432 -0.3013814 0.47823516 0.3051478 0.24497421 0.19513637 0.08271091 -0.44576597 -0.62926406 -0.15624276 -0.19812404 -0.21520032 -0.39299238 0.53266186 -0.27015612 0.77815455 -0.5838157 -0.37845877 0.083752096 -0.4471885
2718 0.29388127 0.2194443 -0.12477452 0.001865636 0.21228553 1.1611838 0.044950668 -0.5308451 -0.69587904 0.008113199 0.82558894 0.85326695 0.14275159 -0.4329818 -0.16390046 0.24483007 -0.26546207 0.11609022 -0.39901122 0.3137042 0.038066745 0.17316063 -0.21069638 0.007279377 0.6783992 0.9106343 0.10668202 0.35525182 -0.25188506 0.18801911 0.75031316 0.13247699
1649 0.23790242 -0.47692898 -0.13956715 -0.5395965 -0.5763296 1.0593961 -0.008051697 -0.837591 0.19527058 -0.20997542 0.4304336 -0.6856068 0.639367 0.5659435 -0.20133002 0.30291617 -0.4259861 0.4525732 0.07177696 -0.3406401 -0.21634917 -0.17813626 0.5002023 0.46177152 -1.0315775 -0.55620897 -0.21555515 0.25782424 0.2618405 0.022770196 -0.3083355 -0.062915795
1992 -0.048832472 -0.15929721 0.09979743 0.7738026 0.44334584 0.5017111 -0.26802567 -0.8624217 0.31530115 -0.12539272 0.33226734 0.5797107 0.12852861 -0.6020688 0.4544364 0.017722227 -0.06150371 0.17867488 -0.27731508 -0.19644004 -0.48777387 0.31872556 -0.31562218 0.31328285 -0.65094256 0.37767395 -0.2719444 0.22452283 -0.8515959 0.11365502 0.2084882 0.19724686
1138 0.2901006 0.013109076 0.10650955 -0.37764663 0.2010284 0.4047968 -0.9013618 -0.47095197 0.14536892 0.15594806 0.6580395 0.096233584 0.19295314 0.008510188 -0.2638887 0.2472698 0.08162514 0.4946109 -0.4098666 0.027872827 0.08490878 0.4139049 -0.031611543 -0.23832752 -0.62316334 0.4934886 -0.123352006 -0.44337285 -0.6787639 -0.26898783 0.50936097 0.62526333
1379 -0.46437314 -0.07228302 0.4530037 -0.19530831 0.026230024 0.78007615 -0.042380203 -0.07867613 -0.29174986 0.14563358 0.026888035 0.65918136 -0.02164645 -0.5131419 -0.008532452 0.27733397 -0.37899753 -0.16197518 -0.32221672 -0.08231289 -0.097794324 -0.58131915 -0.9473151 0.74390095 -0.355598 0.35639974 -0.48870817 0.12756771 -0.09802042 0.55705094 -0.10709035 -0.37378484
1254 -0.5443733 -0.26854113 0.21425642 -0.47365355 0.5558727 0.6764311 -0.369639 -0.09938798 -0.14524503 -0.30289185 0.20046982 0.15607932 0.06268326 0.5176068 -0.2313117 -0.18297887 -0.57797 0.55644625 0.38646233 -0.21166743 0.007655354 0.15968394 0.26864547 -0.4563622 -0.40089822 0.18279609 -0.16498174 0.6391609 -0.6550052 0.37186316 0.47568512 -0.77900094
1334 -0.06828708 0.35476172 -0.11498561 -0.33599475 -0.013927663 0.50429165 -0.24151745 -0.19232598 -0.013163308 0.33784217 0.10979073 -0.47492442 0.015792625 -0.31123516 0.49079806 0.09974898 -0.013836619 0.5170603 0.115564935 -0.05323814 -0.1685079 0.1932448 0.4546967 0.11379806 -0.15655151 0.39874685 -0.990556 0.14059383 0.08534389 0.50694305 0.5234071 -0.70031106
1086 0.045122545 -0.47975698 0.43845567 -0.19581549 0.15380426 0.787791 -0.47449687 -0.1777833 -0.6624487 -0.47296655 -0.06796383 0.17245513 -0.7213819 -0.2231967 0.121170506 0.42229885 -0.5212495 0.081123486 -0.8254184 -0.21260563 -0.5260089 0.11764639 0.44788957 0.28899938 -0.30020627 0.9293838 0.110501714 0.14005071 0.3515101 -0.24563307 0.5154953 -0.30603093
1385 0.18402487 -0.606782 -0.028469797 -0.43622455 -0.20722988 0.643448 -0.21673341 -0.39211154 0.4780122 0.6364914 0.20156948 0.17915511 -0.35966766 0.12084606 0.080000855 0.123088755 0.23410621 0.22398226 -0.12381445 0.19392465 -0.24085557 -1.0187756 -0.46913254 -0.81233513 -0.5768435 0.52353126 0.4798336 -0.035731066 -0.21729957 0.23776792 -0.056278087 -0.4715368
150 -0.43243584 -0.52815765 0.5667217 -0.48595563 -0.35868028 0.3841158 -0.22687249 0.38842508 -0.06786301 0.3056657 0.048531782 0.59800816 0.2563352 0.16193256 -0.16512181 -0.03760716 -0.31765845 -0.9478811 -0.64309037 -0.11943773 0.44988236 -0.3656271 0.6044059 -0.02859621 -0.13551004 0.226058 -1.1729592 -0.0732682 0.06224526 0.4839894 -0.41980466 0.42116162
2393 0.029611103 -0.25905547 0.03594256 0.31455404 0.45086843 0.43822667 -0.6304445 -0.4589613 0.2308372 0.31223673 0.3059336 -0.026718948 0.04364361 -0.35294038 0.7290974 0.087793864 0.056203794 -0.13757128 -0.23437583 0.16206202 -0.2192716 0.6215721 -0.1498688 0.386372 -0.40678364 0.6488857 -0.43777928 0.3491734 -0.965887 0.06824284 0.15808636 0.0123921465
1367 -0.20452657 0.039116807 -0.001284715 -0.33935145 -0.83912885 0.23024392 0.42468655 -0.2755863 0.12929955 -0.0087465085 0.86981964 0.66918534 0.71811 -0.06143581 -0.8729104 -0.3275064 -0.055365697 0.36242792 -0.4408705 0.75798434 -0.2720807 0.13240424 0.11726237 0.6161932 -0.53265035 0.72415936 -0.35183576 -0.036749948 0.38918224 0.792848 0.55744255 0.47814602
1200 -0.23077731 -0.26298183 0.094794005 0.18398836 -0.0706901 0.47196814 0.06592946 -0.4766318 -0.666193 0.3038923 0.8254602 0.6274663 0.39359102 -0.396102 0.6807112 -0.5688652 -0.19841678 0.52825904 0.1036962 0.41612023 0.2044747 0.5505179 -0.46692368 -0.24025188 -0.6841931 0.31306067 -0.3752514 0.416156 0.008097949 0.12052371 0.11306462 -0.02168484
161 -0.49585807 -0.09504526 0.10168517 -0.24012315 -0.35417745 -0.2672616 0.19057398 -0.10670303 0.4328793 0.29893842 0.2987693 0.029211055 0.34895915 0.74337006 0.19305846 0.15967153 -0.57902294 -0.63962215 -0.7903384 0.16242714 -0.19033916 -0.41348383 0.596258 -0.1811029 -0.048505437 0.52883714 -0.4835193 -0.37805983 -0.42250034 0.5927775 0.0053212275 -0.085155256
1418 -0.52160627 -0.51511514 -0.47648525 -0.6928246 -0.19871055 0.6587618 -0.40041152 -0.6181125 -0.16740851 -0.18890032 0.8658994 0.09010101 0.45039573 0.7486832 0.019348923 -0.93518084 0.48367974 0.045521006 -0.3530492 0.50554454 0.26123428 -0.2251884 -0.031767122 0.17066021 -0.9165607 -0.009111526 0.07509201 -0.3907023 0.30827788 0.39117682 0.3356737 0.3545797
1239 -0.059413034 -0.30681467 -0.49026304 -0.92226744 0.18677524 0.22564426 -0.06972028 -0.13047272 0.32736638 0.41429907 0.42897934 -0.60997313 -0.0721881 0.40300992 0.0820651 0.26670322 -0.9851714 0.33252493 0.10484225 -0.27169085 -0.3855786 0.41225106 -0.10541012 -0.021126224 -0.5228719 0.35858795 0.01958607 -0.1503809 -0.61898226 0.03229196 -0.61895585 0.36977738
1696 -0.6751788 -0.08037707 0.097709574 0.030671006 -0.15920211 0.413359 0.15839018 -0.62226367 0.23492873 0.12710518 0.6823756 -0.42474625 0.057942774 -0.49477234 -0.018791161 0.057621047 -0.060632333 -0.08997472 -0.1277786 -0.16131821 -0.3572255 -0.31919578 -0.4049568 0.04338036 -0.53865355 0.6611775 -0.5683698 0.12473884 -0.029928343 -0.40839174 -0.3548756 -0.6898933
1147 0.12832412 -1.1150832 0.7866558 0.081501655 0.16157588 0.42533597 -0.040532053 -0.7729276 -0.28368074 -0.32539433 -0.02560652 0.41507858 -0.21246403 0.4457823 0.12338721 -0.36908418 -0.19016185 0.026394153 -0.68969196 -0.06723043 -0.118047856 0.1369472 0.17127226 0.56414163 -0.65273273 0.6711927 -0.04450505 0.600681 0.27147743 -0.33173195 0.43764564 -0.10541331
1333 0.33176285 -0.5887465 0.18041527 0.6006698 0.4829409 0.31908563 0.5830385 -0.3086813 -0.23614971 -0.22731309 0.48296648 0.1959992 0.18930045 0.11754444 -0.071975745 -0.45198366 -0.36634317 -0.060191546 0.39676636 -0.01628216 -0.19825979 -0.493489 0.0064178985 -0.18807799 -0.39382306 1.0397435 -0.52749395 -0.55984163 -0.24432638 0.52117044 -0.61732596 0.3910791
1894 0.074185945 -0.84572995 -0.14038311 -0.09839635 -0.49165708 0.25832945 -0.3833087 -0.9983529 -0.50923616 -0.2302861 0.71953183 0.6059453 0.3517952 -0.32655025 0.20184775 -0.059478503 0.26962182 0.12177983 -0.43157285 -0.3636846 0.09081978 0.20476511 -0.35246453 -0.22421804 -0.25082472 0.72795075 -0.66826546 0.08142369 -0.0010800158 -0.5988031 -0.07082934 -0.11532237
1331 0.55594903 -0.60402936 -0.09838167 -0.71303815 0.14905123 0.8805586 -0.118768066 -0.6805475 0.40745172 -0.18391004 0.40118653 -0.20231655 0.6753154 -0.18260019 -0.09796309 0.5805444 -0.27627784 0.609736 0.26102847 0.23309174 0.27935478 -0.4851307 0.2992967 -0.14340349 -0.25605625 0.17989734 -0.22270006 -0.4763786 0.47087863 0.05652211 0.07415741 0.3214604
1415 -0.030179167 -0.4133442 -0.33382094 -0.70099664 -0.96812624 -0.22896612 0.44321117 -0.83167595 -0.31121105 0.56780213 0.2801811 0.16568458 -0.6452397 0.08906112 -0.15882942 -0.17603382 -0.97115237 0.327352 -0.28770214 -0.5600837 0.14249505 -0.42417568 -0.8921732 -0.14514408 -0.800703 0.67209685 0.21271412 0.05055045 0.4330307 0.43096 0.09951927 0.22516961
1207 0.26846257 -0.3363933 -0.792805 0.047536608 0.19889477 1.0508014 -0.26635373 0.39601237 -0.19390817 0.20591271 0.40382302 0.17726037 -0.3408259 -0.3017043 0.68926394 -0.43249848 0.35134354 -0.034384716 -0.03854131 0.36686805 -0.1893931 0.11330049 -0.05720596 -0.3383899 -0.6808046 0.98785746 -0.7075734 0.009967264 0.27649733 -0.18073788 -0.37098965 -0.73290527
1652 -0.0431966 -0.21691763 -0.40970564 0.1825434 0.2842148 0.9729085 -0.06628025 -0.10449934 -0.19804206 -0.041521702 0.48048753 -0.13403423 -0.5837147 0.2659658 0.02473347 0.075622626 0.29004923 0.35085472 -0.4024411 -0.5643684 0.2898405 0.16418566 -0.61830145 -0.040968705 -1.0992796 0.49871886 0.041022006 -0.3848569 -0.26074457 0.22918685 0.4052263 -0.20514299
1177 0.28147703 -0.11180003 0.009949433 -1.2674356 0.08158632 0.021317728 0.42041174 0.042241648 -0.015053162 0.3303405 -0.11789203 0.104089215 -0.24779138 -0.3970101 -0.27437982 0.02200246 -0.32532763 0.51723707 -0.58946276 0.6110089 -0.04430033 0.51435316 -0.16727465 -0.31292108 -0.9201961 0.49251953 -0.12582794 -0.030341594 -0.20113112 -0.29573417 0.39221382 -0.43912148
1553 0.7113127 0.039391242 0.08834132 -0.53434515 0.10041568 0.118205376 -0.21590647 -0.38102207 -0.5767406 0.31781253 0.74987066 0.3364064 -0.10781765 -0.24546094 0.07229693 -0.27527896 0.4136439 -0.035528984 -0.51903915 0.015071534 0.34946242 -0.45947036 -0.6152485 0.3248601 -0.42081568 0.7039116 -0.35879123 0.60542727 -0.30911517 0.2783347 -0.0912197 -0.0086817
345 0.53190935 -0.045277067 0.7798318 -0.1053243 0.895126 -0.10469949 0.6381337 -0.13510634 -0.7029337 0.6547779 -0.11807748 0.21933442 0.1298316 0.3859809 -0.4383644 0.33811143 0.1544495 0.28811577 -1.6351136 -0.111815564 -0.21613285 -0.24871184 0.63720644 -0.7862663 -0.102781385 0.61206037 -1.0721327 0.029821249 -1.0837193 0.42789644 -0.19530487 0.11526046
1167 -0.15514842 -0.113244005 0.0022280172 -0.5502019 0.015882935 0.15675019 0.06958069 -0.45573014 -0.34906444 0.246174 0.29540223 0.4684896 -0.6816325 -0.17034492 0.1650778 -0.49225748 -0.77130175 -0.11070781 -0.57004 0.2508146 -0.8375234 -0.19510975 -0.1259294 -0.355497 -1.1411088 -0.20380814 0.18555456 0.46398708 0.27492163 -0.12164642 0.14779986 -0.07888456
1120 0.29781443 -0.53195363 -0.52990216 -0.771995 0.008407062 0.68773216 -0.13496995 -0.2807818 -0.14122416 0.26600444 0.8789531 0.13902532 -0.53596365 -0.0012987691 0.7138604 -0.034603395 0.53551173 0.5412682 0.14183632 -0.24119829 -0.13767737 -0.020741228 -0.030331574 -0.14909129 -0.00860189 0.3612226 -0.56310993 -0.0018223042 -0.15680125 -0.17842667 -1.1522529 -0.2846367
434 -0.15494877 -0.227277 -0.01866405 -0.59324366 0.26238313 0.21727201 0.84698737 -0.5960509 -0.053360503 0.22322685 0.9677102 0.62181044 -0.9089455 -0.07295746 0.3758352 -0.17916016 0.12525064 0.3760817 -0.32650295 0.0039825686 0.074805155 -0.42626467 0.67552376 0.21431823 -0.87326396 -0.23992753 -0.06096258 -0.31153408 0.34802783 -0.36305955 0.1253847 0.303759
231 -0.2111509 0.31833577 0.19785097 0.08033256 0.25984287 0.45443788 0.033779025 -0.69655997 0.49947175 0.013651394 -0.30051437 -0.11819647 -0.10980578 0.41214523 -0.04773808 0.10498991 -0.23753649 -0.4657998 -0.45660475 0.2064271 0.3030807 -0.10397632 0.6555476 -0.33886757 0.095181376 0.053061493 -0.8617551 -0.00080559053 -0.1569933 0.50333184 -0.009804566 -0.04555136
1883 -0.062170427 -0.052432485 -0.30883053 -0.6464986 0.46574676 0.312089 -0.029288787 -0.28885368 0.066398606 -0.40433913 0.33540124 -0.36527023 -0.17107357 0.3095805 0.5025916 -0.6950394 -0.59340984 0.23696934 -0.45052382 0.5513626 -0.15553689 -0.46157086 0.15642627 0.045520607 0.28421846 0.6413471 0.016556147 -0.11300447 -0.431287 0.40479738 0.2952652 0.2691011
1485 0.09989466 -0.63141817 0.048147794 0.12691344 -0.03612567 0.39512983 0.16928898 -0.14631328 -0.4139985 0.06411355 -0.12350878 -0.085154295 -0.0797933 -0.094900705 0.2946 -0.30253378 -0.52221966 0.4594793 0.0045174602 -0.53083104 0.34701008 0.024661552 -0.20759763 -0.23892689 -0.54223496 0.51305395 -0.5488612 0.74946785 -0.6934996 -0.12636746 -0.121574 -0.35307443
1481 -0.0641002 -0.08066818 0.14965324 -0.21513508 0.38177073 -0.020505412 0.10673284 -0.49510846 -0.51986915 -0.014704473 0.09280779 -0.3386836 -0.17595918 0.19635491 0.2596112 -0.7171335 -0.12130165 0.5319966 -0.58403033 0.45350862 -0.03496945 -0.36296734 0.03804417 -0.64838874 0.090821646 0.5777745 -0.51279396 0.16886045 -0.62637824 0.03946589 -0.20147654 0.33707708
1355 0.47113925 0.37537345 0.022666475 -0.30587694 0.11106625 0.025063649 0.22869924 -0.7337187 0.009204176 -0.12702942 0.55853474 -0.55038726 0.12658304 0.035946663 0.4644422 -0.4560576 -0.30009747 0.62997234 -0.6042698 0.1887454 0.040140394 -0.23091026 0.2833116 0.21536133 -0.33406982 0.46917468 -0.10773745 -0.45050994 -0.45498297 0.22223888 0.2693353 -0.6001551
172 -0.84427464 -0.06856476 -0.02114314 -0.31884524 -0.17881832 0.22333924 0.17689805 -0.66485894 -0.20171832 -0.71191514 -0.30561942 -0.16229898 -0.5454342 -0.74173445 -0.1345639 0.050858106 -0.3080928 0.9366386 0.2138495 0.4625697 -0.17519712 0.22100991 0.5109391 -0.7140393 0.26843408 1.016032 -0.72548056 -0.66438067 -0.16146891 0.7380571 -0.065962 -0.32308337
1764 -0.49026674 0.15562958 -0.6023772 0.08226272 -0.00013037535 0.4626289 -0.30688587 -0.52787304 0.64751595 0.48064348 0.4660377 -0.14813253 0.45197853 -0.039329547 0.0012879925 0.054566633 -0.2379222 1.0195616 -0.13339035 0.054911345 0.56141144 0.29934418 0.08251812 0.03334237 -0.57619494 0.2469409 -0.366625 0.2517541 -0.56642294 -0.19951527 0.40523207 0.4146375
119 -0.27445033 -0.40098032 -0.5550088 -0.95349336 0.5532697 1.0492692 0.74855286 -0.73917633 0.86016536 -0.004809302 -0.049302418 0.13141552 0.012846561 -1.0660863 0.72761893 -0.028199889 0.2870387 -1.2878847 -0.5209058 -1.044115 0.3411918 0.77315396 0.5078507 -0.8953296 -0.8112097 0.42812565 0.04540933 0.56466377 0.0005261326 0.73409724 -0.4727046 0.48426402
725 -0.22422107 0.31901735 0.038955234 -0.044704948 0.46167308 0.44329175 0.12137198 -0.54574454 -0.19064459 -0.24900702 0.083642535 0.13935712 0.31729838 0.18515699 -0.2985074 -0.09360069 -0.039840665 0.08839143 0.07876306 0.20220044 0.12089914 -0.49058494 0.5604009 -0.0029466092 -0.31773517 0.60247236 -0.017849464 0.02617914 0.07826093 0.42117444 -0.3908856 0.0071397447
91 -0.2612399 -0.22375594 0.32971948 -0.06296948 -0.7170835 -0.21039094 -0.30701894 -0.24633412 0.45027807 0.1223322 0.40300953 0.34769687 -0.40902898 0.29553384 0.01908831 0.5135156 -0.6103072 -0.22436415 -0.10911245 0.4354429 0.45679298 -0.70013547 0.67437166 0.39072305 -0.066577934 0.6567806 -1.0161235 0.027972426 -0.21335177 0.18717593 0.104579434 -0.08411259
615 0.25615615 -0.49787092 0.79867196 -0.93358 -0.23316798 0.61946493 0.11019598 -0.3447226 -0.04265075 0.05506221 0.42557272 0.7718047 -0.5267667 0.2460663 0.7429195 0.27929413 0.48073497 0.47856253 -0.55182445 0.23629503 0.4216231 -0.7129588 -0.4957869 -0.3944409 0.06933786 0.20077021 -0.048181012 0.6303063 0.038969286 0.09336481 0.054285012 0.3975354
1702 -0.16067187 0.3924357 0.42310342 -0.4143836 -0.3057815 0.8501415 0.36136743 -0.1655976 -0.11695453 0.09383169 0.25530446 1.0109816 0.063784145 -0.35511768 -0.13361464 -0.6523029 -0.07306097 0.28996137 -0.18614934 -0.62863797 -0.015459878 -0.024261916 -0.8775897 0.19465765 -0.43606153 0.29929304 -0.34582442 -0.27664173 -0.12864727 0.9718814 0.32555696 -0.5863254
240 -0.6384577 0.11227646 -0.1951184 0.16716233 -0.5292721 0.21354774 -0.06532648 0.25647756 0.15833202 0.42480728 0.004165183 0.27530023 -0.51039845 -0.3190065 -0.3086801 0.12067489 -0.73606235 -0.8480232 -0.5127009 -0.34865576 -0.17641938 -0.4977331 0.47640312 0.82167447 -1.0574155 0.7138389 -0.44585535 0.25690967 0.17018962 0.31949326 0.35007057 -0.013740782
380 -0.22579333 0.57992554 0.6679427 -0.24342959 -0.14715795 0.63118887 -0.26833403 -0.42656243 0.084434524 -0.11756316 0.33568466 0.5919257 0.13746604 -0.19558534 -0.6103114 -0.43177316 0.5261028 -0.10660723 0.033251572 0.16265424 -0.37512705 0.2974847 0.56192684 -0.07678853 -0.049413756 0.85653794 -0.4297562 0.05345996 -0.097209744 0.7797289 0.42607453 0.48214903
170 -0.22715242 0.12819599 -0.26911226 -0.1386159 0.43659496 0.24138622 0.21689436 -0.46268457 -0.383714 -0.22703762 0.2394261 0.023764072 -0.0063351374 -0.049917594 0.035163466 0.32363456 0.07097083 -0.24275248 0.019376164 0.16892672 -0.20987257 -0.62929165 0.5446975 0.047783516 -0.5883617 0.58149725 -0.072645605 0.40714365 -0.4296849 -0.41464248 -0.0830938 -0.13236584
303 -0.008204519 0.3158509 0.010972728 -0.17729399 0.103261754 0.52186537 0.06116102 -0.45472145 -0.09016026 -0.15781964 0.9366509 0.23628624 -0.29429227 -0.2283295 0.56917304 0.19718355 -0.5811644 -0.10808889 -0.0458688 -0.14402375 -0.09170264 -0.4569978 0.6929469 -0.32028225 -0.47473526 -0.3222256 -0.40519547 -0.16134508 0.3342355 -0.060902145 0.23108946 0.91946733
134 0.027248647 0.115981996 -0.19521958 -0.9505484 0.6079136 0.8617037 -0.056050032 -0.78323096 1.1532152 0.3426306 -0.5082976 -0.542924 -0.48529196 -0.79974735 0.38011292 -0.0048030196 -0.01930982 -0.43031067 -0.3163226 -0.6842488 0.5754703 0.39755005 0.59853613 -0.64169294 -0.78308636 0.53777456 0.028503617 0.65602154 -0.2851969 -0.00083179853 -0.7071893 -0.1573911
315 0.06858146 -0.48806146 0.13943584 0.7221092 -0.36100197 0.8982775 -0.0880482 -0.21442159 -0.994821 -0.25941926 0.870681 -0.22853081 -0.19781058 -0.11584661 0.34309644 0.50991684 0.3573275 0.008538758 -0.47672895 0.19189133 0.19149715 -0.1454875 0.10531015 -0.3314401 -0.96282405 0.56135505 -0.051834278 0.9634416 0.17169935 0.48250756 -0.23793328 -0.30385476
58 -0.05884091 -0.17719166 0.57680386 -0.29045758 -0.063541226 0.3301142 -0.23280987 0.035952836 -0.14209534 0.44470137 0.25264663 0.520172 0.022356367 0.08741853 0.1466538 0.41416365 -0.46565944 -0.16101159 0.049681965 0.45827672 -0.05167081 -0.24511315 0.7089268 0.32701883 -0.25438687 0.09083347 -0.6809386 -0.63760126 -0.13457002 0.49968815 -0.24889542 0.4021231
1154 -0.10648735 -0.12353146 -0.6917834 -0.40821698 -0.10666816 0.8959893 -0.10242684 -0.09681607 -0.33359987 0.23809576 0.77064496 -0.4757002 -0.30757272 0.05732934 -0.45688957 0.5465796 0.114512965 0.39849642 -0.020613216 -0.044705626 -0.036293887 -0.8167086 0.17731291 0.041337762 -0.16724078 0.26625603 -0.21110164 0.036649518 -0.26028037 0.45824695 -0.36353973 -0.636055
818 0.055026706 -0.33763433 -0.28811774 -0.079182975 -0.3929329 0.06609283 0.6498771 -0.68676203 0.020070672 -0.26323983 -0.118348025 0.45273325 0.47118196 -0.49393812 -0.28848156 0.13655372 0.1159822 0.18168809 -0.42393982 -0.4781224 0.026078455 -0.84455264 0.15491971 -0.26290506 -0.9010791 0.23702359 0.0018405588 -0.17140454 -0.74559844 0.4086534 -1.339491 -0.14649634
160 0.14666271 0.009351416 -0.18854636 -1.0588205 0.2784884 0.52381915 -0.07979277 -0.19113141 -0.5578747 -0.41607746 -0.17480846 0.028421 0.18821114 0.00069970585 0.31435928 0.044517558 -0.043584056 0.40142265 0.44141838 0.019837372 0.16356725 -0.0811988 0.20810181 0.43144926 -0.45927414 0.666527 -0.13623394 0.41796172 -0.25930783 0.1646035 0.053572647 -0.2753505
122 -0.102321945 0.20309691 -0.39857215 -0.72879314 0.9707079 0.6381834 -0.27157283 -0.53266585 0.776007 0.16976632 0.18905184 0.21405679 0.2624367 0.48016977 -0.15577118 -0.39203972 -0.17864741 -0.17256796 -0.5124622 -0.5684177 0.43071082 0.5728529 0.6136648 0.22923529 -0.070373155 0.5895769 -0.18492407 -0.2981186 -0.17753507 -0.41358995 -0.12913172 0.30684736
74 -0.18721686 -0.15336663 -0.27301225 -1.0190077 0.0690053 0.4969654 -0.36848012 -0.10719225 0.045160342 0.19391295 -0.3528222 0.5824221 0.10391074 0.50324076 -0.110937744 0.014799489 -0.37894717 -0.104422286 0.0036472837 -0.04349574 -0.57408285 -0.8280921 -0.4857732 -0.76051235 -0.16821717 0.66986424 0.13117124 -0.19246127 -0.81510824 0.10689439 -0.46397433 0.0046722414
80 0.1377281 -0.28375238 -0.29178262 -0.9178847 -0.25221288 0.14519411 0.51388687 -0.87634575 -0.5035925 0.32218727 -0.056502055 0.45448452 -0.16191527 0.00034093345 0.200372 -0.123926505 -0.057846323 0.113061406 -0.29300618 0.06747326 -0.17771524 0.5270687 0.7864639 0.084487006 -0.29056862 0.10698099 0.06977777 -0.54534113 -0.5357521 -0.0734062 0.118076265 -0.8614966
824 0.1475346 -0.26331323 0.49662232 -0.6911492 0.41364452 0.10168738 0.6132845 -0.45456263 0.29653284 -0.3568528 0.4183402 0.29635587 -0.2883469 0.3082299 0.5319754 0.020611415 -0.48690608 0.28278556 0.41917703 0.19535647 -0.005643058 -0.18966733 -0.26510155 0.388092 -0.75790006 0.38471904 -0.62500805 -0.033358406 -0.61656654 -0.68804 -0.99378514 -0.5102272
181 -0.021219851 -0.37318808 0.083347596 -2.0032065 0.875101 0.6872069 0.39319915 -1.057009 0.5239648 0.11297051 -0.3303563 -0.19816557 -0.06581671 -0.28007558 0.43644595 0.13665631 -0.03145759 -0.9413568 -0.61435026 -1.3617401 0.56865084 0.4009966 0.3811642 -1.1519974 -0.6523072 0.079390116 -0.043819137 0.8692598 -0.69835263 0.34758118 -0.2980412 -0.050393574
247 -0.67958087 -0.22584602 -0.35210332 0.14929104 0.23103374 0.6490875 0.013767647 -0.2958499 0.2514646 -0.13746881 0.1372392 0.39767578 0.15676686 0.2619925 0.7117204 0.6364918 -0.26910216 0.017462533 -0.15820746 0.45119277 0.06044746 -0.07657731 -0.1688568 -0.02456562 -0.3249207 0.6400583 0.34685013 0.085589595 -0.3387849 0.11779656 0.16582198 -0.31717426
155 -0.3131495 -0.076661125 0.38233045 -0.46615082 0.7632023 -0.25437543 0.52762043 -0.28269252 0.063598976 -0.22350189 0.09645214 0.60327464 -0.15313275 0.50133395 -0.17699961 -0.3282052 -0.20231222 0.52602416 -0.39500803 -0.18527661 -0.53893554 -0.4191737 1.2225097 -0.5418753 -0.3070426 0.5418605 0.3476349 -0.110259384 -0.428918 0.5803437 -0.008424194 0.13271137
223 0.29314598 -0.22088563 0.6431858 0.18206532 -0.20226786 0.9096329 -0.26254657 0.074713856 0.11302609 0.33792487 -0.39772737 0.2264413 -0.56704015 0.19464336 0.7458824 0.5350629 -0.7324072 -0.24506208 -0.2809639 -0.17343524 0.2795788 -0.30529183 0.44213402 -0.1633988 -0.0128541095 0.3603362 -1.1026746 -0.71167606 -0.24700557 0.28165013 0.6035367 -0.23485988
238 -0.5799032 -0.1941851 0.08910601 -1.3516504 0.86463493 0.6839031 0.023902386 -0.7740428 0.8520779 -0.15015675 0.121328026 0.018242372 -0.6450909 -0.49733034 0.89800096 -0.14303285 -0.16121517 -0.89116997 -0.35207254 -0.9309604 0.75775534 0.5970291 0.62236816 -0.77196765 -0.5262632 0.32548308 0.10422324 0.9771651 -0.42218998 0.11916352 -0.03224535 0.35712612
503 -0.08190097 0.17623109 -0.99704975 -0.37782267 0.29299325 0.78808033 0.0591979 0.29586616 -0.3727137 0.18923067 0.47013015 0.41892892 -0.46957555 -0.05982571 0.3810945 0.49623984 0.2914255 0.20871319 -0.32547057 0.05193974 -0.06525105 -0.086068705 0.32482433 0.11354387 -0.34177878 0.71020645 -0.3098474 -0.21449 0.6406936 0.20567408 -0.113234445 -0.22602937
364 0.28080297 -0.3016997 0.018513706 0.13002731 -0.32599345 0.4925024 0.12585342 -0.9208037 -0.097045116 -0.2853503 0.14295541 -0.6786821 0.31530192 0.45059767 0.52566165 0.15655658 -0.37163544 0.109655336 -0.10689833 0.26387712 -0.35969365 0.3398561 0.6596442 -0.02551212 -0.9390235 0.42432696 0.51842725 0.15364328 -0.12672219 0.17092533 0.05398606 0.422168
207 -0.22584392 -0.32963032 0.18916719 0.5626793 -0.2083132 0.6217302 0.0937292 -0.08288317 -0.2967206 0.19852526 0.15260184 0.011800623 0.45588154 -0.10662569 0.599344 0.4944121 -0.024601255 -0.6620264 0.11595438 0.0039004548 -0.08772771 -0.41099823 -0.15807185 0.3848927 -0.7891654 0.56223845 -0.6533217 0.1907281 -0.19070545 0.34743497 -0.7116289 0.057491228
594 -0.90264744 0.4573295 0.4161514 -0.38301888 0.1495915 0.34651965 0.41178897 -0.20748267 -0.8116748 0.03733259 0.2581558 -0.13200814 -0.019561661 0.41612747 0.06801432 -0.108382374 0.029330146 -0.14095554 -0.09175602 0.16550228 0.2612587 0.5152671 0.0062359376 0.41896436 0.008405472 0.7197185 -0.6482098 -0.10658489 -0.4765396 0.6856061 0.19874585 0.18262815
1255 -0.5330032 -0.5758186 -0.19565576 -0.10332568 0.12688479 0.68083054 -0.43321842 -0.020989845 -0.11005323 0.6204755 0.14201161 0.3355604 -0.003299011 0.02458404 0.34250748 0.36968398 -0.61091924 -0.42570555 0.12312149 0.24961162 -0.25195858 -0.5528095 -0.52405417 -0.78058034 -0.8676649 0.332971 0.31992677 0.3852978 -0.5110271 0.20035587 0.29660493 -0.8662419
733 0.29975808 0.21479516 0.44588456 0.13872018 -0.012157606 0.049801126 -0.0922531 -0.22599821 -0.15459268 0.30802706 0.014547703 0.5066068 -0.42174357 -0.0009493223 0.41223747 -0.46676984 0.17375633 0.2591048 -0.49712947 0.4550604 0.4353876 -0.16489252 -0.17773612 -0.31433323 -1.0548693 1.0574287 -0.039695725 0.21743235 -0.32953376 -0.3323141 -0.42886958 -0.054642104
98 -0.19342978 -0.039109625 -0.554981 -0.6677939 -0.4753395 1.321297 -0.26977694 -0.23267661 -0.21870852 -0.087590516 0.085522786 -0.3556364 0.084865086 -0.029278474 -0.11571752 0.898756 -0.1400288 -0.048130244 -0.08028362 -0.020496864 -0.3212663 -0.37537363 -0.12541938 0.8003402 -0.64059305 -0.47662753 -0.6845411 0.18822205 -0.21915893 0.31035438 -0.022952827 -0.19579087
140 0.026905473 -0.42000958 0.118495144 0.26434484 0.08769059 0.57421714 -0.02200642 -0.68291837 -0.4887374 -0.04200818 -0.35085595 0.09640518 -0.77597415 -0.5023291 0.6869827 0.2564405 -0.17308722 -0.19837822 -0.48109013 -0.26262167 -0.252785 0.82199484 0.32702854 0.08311792 -0.5154498 0.83358204 0.25326443 0.682504 -0.04871783 0.17132583 0.15312104 -0.15360089
1524 0.43770763 -0.33133525 0.26109946 -0.51695406 -0.35296562 0.53217673 -0.10465599 -1.0209839 0.6023434 0.105899744 0.35308862 0.15595424 0.37734887 0.053682454 -0.7216528 0.58331025 -0.38992834 0.30001673 -0.58532935 0.6689634 -0.5438182 0.30142713 -0.11081958 0.27717307 -0.37288427 0.45898163 -0.17764062 0.24531655 0.20545234 -0.40850732 0.31501278 -0.27355605
2163 0.7769579 -0.016111292 -0.2483693 -0.59516305 -0.1864301 0.93372685 0.16566494 0.09371991 -0.326831 -0.25538102 0.2129184 0.36022934 0.011431532 -0.16003323 0.6687353 -0.0042007333 -0.91159654 -0.25546446 0.051022645 -0.0982516 0.08299905 0.08914621 -0.47367698 0.14418447 -1.1676521 -0.5688104 -0.5713497 -0.28222495 -0.657766 0.2207743 0.7031509 0.6029686
186 -0.2764927 -0.56220084 -0.4513017 -0.5385645 0.16013643 0.41093758 0.23801321 -0.6474702 -0.1318171 -0.06365781 0.2536077 0.32531825 -0.14109501 -0.9801798 0.5875197 0.3235668 -0.08816077 -0.75650084 -0.01652791 -0.43941286 0.32337573 0.42191783 -0.116976656 -0.1072542 -0.6907888 0.15520225 0.047988996 0.6854165 -0.012376658 0.35536608 -0.90746284 0.19247274
262 -0.3393223 0.3446822 0.46785024 -0.61783445 0.21852717 0.56727153 0.16920964 -0.5976163 -0.84621406 0.06352117 -0.5326487 0.018873282 -0.224914 0.40404227 -0.05205814 -0.33625126 -0.2532111 0.052783772 -0.30891553 0.07195769 -0.18072096 -0.3370464 -0.20989695 -0.12398226 -0.07787945 0.16513439 -0.44904172 0.21281897 -0.31843418 0.1273622 -0.1253704 0.72122234
165 -0.10150759 -0.064688265 0.06101261 -0.0047364198 -0.52916765 -0.1530953 0.07179639 0.26889247 -0.07828143 0.21844314 0.46716407 1.0860019 -0.22866054 0.030534552 0.47037712 0.2123707 -0.8162106 -0.7542266 -0.21369196 -0.31115025 0.098428324 -0.9527703 0.08290378 0.34423947 -0.785015 0.62541026 -0.37011227 0.22162853 -0.07273691 0.5907002 0.31108594 -0.31841603
1677 -0.07807755 -0.07787718 0.117323615 -0.33568215 0.4974883 0.32056484 -0.25717878 -0.73590726 -0.23737568 -0.0073745633 -0.10503229 -0.3249309 -0.07621016 0.19219509 -0.38095576 -0.42398456 -0.50713795 0.10729152 -0.5677328 0.6485083 0.09860502 -0.715642 0.34483787 -0.27443674 -0.21791135 0.31449926 -0.19571352 -0.18311624 0.055656254 0.21586922 0.15738562 -0.73830193
