4575 32
83 -0.27484837 0.13027419 -0.046760976 0.1255557 0.2586361 -0.5395845 -0.2882657 0.2384606 -0.18761618 -0.16984193 -0.19732797 0.16145106 -0.46134427 -0.24343926 -0.24369706 0.44827577 -0.3325132 0.2776573 0.34640333 -0.39903647 0.17797874 0.19033353 -0.10563996 0.04690471 0.026858719 -0.024896776 -0.35188168 0.076071225 0.42460942 0.38976455 -0.21935084 0.21197234
263 -0.18005961 0.24562466 0.077823594 -0.24709874 0.073648036 -0.39797556 -0.16939306 0.25653642 -0.13461278 -0.17830005 0.16122837 0.248838 -0.043991026 -0.39053127 -0.11734852 0.13103157 0.056117482 -0.0876862 0.6223426 -0.28230745 -0.2614389 0.16914965 -0.6849319 -0.11266066 -0.37596354 0.17021504 -0.40339655 0.17958856 0.11746414 0.23561667 -0.18836159 0.19261965
29 0.058111347 0.13746597 0.20841342 -0.0855398 0.2832957 -0.56778795 -0.20681411 -0.12394784 0.051075567 -0.1642376 -0.23133504 0.041321475 -0.4885092 -0.26851922 -0.16638778 0.3119669 -0.12758857 0.23927681 0.41790843 -0.33212855 -0.24338324 0.30607212 -0.25437877 0.04856504 -0.17421143 -0.16557674 -0.27274916 0.16576037 0.023604967 0.5317977 0.09265092 0.170699
27 0.11195346 -0.11049466 0.15823513 0.0855617 0.3759512 -0.34310538 -0.4628183 0.15548933 -0.25540707 -0.33672065 -0.32141745 -0.16858302 -0.08624657 -0.050963484 0.46060574 0.4320599 -0.08004508 0.34851268 0.25381285 -0.09247471 -0.47710073 -0.0055423877 -0.26195794 -0.04961703 -0.36844155 0.30187768 -0.390176 0.37175965 -0.014325757 -0.1491364 -0.16482294 0.2601076
2 -0.45502168 0.37094375 -0.10201761 -0.121161826 -0.04001905 -0.28061578 -0.4252691 0.42494088 -0.18677545 -0.38993508 -0.11795438 -0.0042935424 -0.29004318 -0.27993813 0.13315082 0.2580428 -0.01273578 -0.11434906 0.17855462 -0.14950903 -0.18175876 0.09968921 -0.73287255 -0.1139837 -0.32561442 0.22599578 -0.17173399 0.21451281 0.17931515 0.42094183 0.17420365 0.52000874
32 0.45382473 0.21654275 0.58723444 -0.20561776 0.21944349 -0.010455731 -0.066136196 0.20739585 -0.24213059 0.055703435 -0.14433184 0.20785347 -0.35965827 0.047494277 0.2911041 0.5571587 -0.2626198 -0.059501715 0.40519062 -0.6686098 0.1509171 -0.47785273 -0.09417113 -0.104274854 -0.006735934 -0.05204105 0.33678606 0.018698683 0.14212973 0.6260022 -0.15330334 -0.27265185
307 -0.016740821 -0.13025935 0.27591053 -0.0767677 0.46196076 -0.5090669 -0.51736367 0.28618705 -0.18991677 -0.2638206 -0.11797914 0.08536696 -0.27906573 -0.09496117 0.25851437 0.3925252 -0.23338537 0.03175551 0.23521405 0.075631075 -0.2826363 -0.070213154 -0.17691411 0.04163364 -0.3053847 0.39554095 -0.1976323 0.17204477 0.082088865 -0.011778888 -0.23347543 0.30866686
9 -0.29430765 -0.018262904 0.22642776 0.17562686 0.39810666 -0.23812443 -0.5194678 0.2552638 -0.054541193 -0.19612727 -0.30492792 0.15213662 -0.48105806 -0.27643478 -0.35823733 0.24084273 -0.115273945 -0.19405113 0.2377209 -0.2356713 -0.26172653 -0.08539526 -0.15283248 0.09246556 0.021358464 -0.24771608 -0.35536948 0.1690926 0.3146146 0.34006244 -0.04825242 0.43527448
42 0.24213313 0.21467884 0.13028698 -0.39425546 0.2617396 0.08974414 -0.2612099 0.30222872 -0.47777498 -0.5085842 0.051590413 -0.0933322 -0.14764716 -0.35870758 -0.010272676 0.31265953 0.08951283 0.3730046 0.39383763 -0.48975366 0.01408258 -0.56421006 -0.21101199 0.20749792 -0.061720535 -0.33173263 0.53620744 -0.14282748 0.36515006 0.26546955 -0.36909786 0.3700031
281 -0.042045373 0.40223196 0.059135463 -0.039791886 0.27420363 -0.46389258 -0.384 0.12515903 0.062259827 -0.092413895 -0.38597497 0.25329566 -0.48775423 -0.4879632 -0.19691142 0.14308673 -0.021844152 0.48415127 0.5589421 -0.23560838 -0.25590274 0.29250175 0.18367213 -0.08636193 -0.25870356 -0.24610555 -0.14126465 0.22691084 0.11598019 0.49845064 0.24354939 0.05409708
269 0.096283115 0.78502595 -0.06737982 -0.04753429 0.07538438 -0.7181917 -0.12375884 0.21054839 0.047827322 -0.58025014 -0.030777585 0.43986917 -0.5994096 0.12592524 -0.03394595 -0.13677572 0.24654812 0.19340299 -0.18344642 -0.75461876 -0.015603752 -0.26045546 0.29473773 0.24618272 0.16989276 0.04516856 -0.1673855 0.10570235 0.30078608 0.5091816 -0.24369814 0.34490395
8 -0.18579349 0.04532752 -0.054491155 0.25782394 0.38074052 -0.6443425 -0.3276417 0.32573882 -0.036251035 -0.12686782 -0.45445263 -0.005246801 -0.39720598 -0.16541447 -0.28542614 0.30494398 -0.58239704 0.41973522 0.42283747 -0.30350816 -0.17279625 0.046843376 -0.38789532 0.15808862 0.25751036 -0.33844858 -0.42206275 0.15312162 0.1330194 0.34505475 0.1327952 0.11746829
4 -0.4022521 0.3240352 0.5085294 0.4763266 0.09031556 -0.21187551 -0.032213964 0.23643027 -0.023085639 -0.56111145 0.019815674 -0.025650973 -0.04159722 0.087352835 0.3166578 0.19813181 0.27351466 -0.006756938 0.13575593 -0.1144592 -0.56502974 0.14416379 -0.72925335 -0.08487539 -0.41131118 0.047744457 -0.0822178 0.31294367 0.46206182 0.37336218 -0.14130445 0.32451642
56 -0.024349047 -0.019355735 -0.04318271 0.1905389 0.5928177 -0.3564226 -0.53739727 0.041876983 -0.34208694 0.50892055 -0.20450716 0.35389626 -0.5985301 -0.3650811 0.021862894 0.29220596 0.12666167 -0.23327625 -0.07354392 -0.15999971 -0.42243946 -0.007663146 -0.22835958 0.10433295 0.35608113 0.23469082 -0.26962322 0.21591634 0.39570853 0.31447303 -0.1596493 0.40548924
675 -0.050577253 0.08335169 -0.0370615 0.13764718 0.513622 -0.26030335 -0.31870857 0.5106224 0.32789057 0.13232929 0.03933107 -0.29086936 -0.17676474 0.14642149 0.31950197 0.19268532 0.53320646 0.017141636 0.09234562 -0.5477044 0.029039536 -0.118088074 -0.31417722 0.39616433 0.08975852 0.24159658 0.1326565 0.28267902 -0.38569257 0.117187925 -0.37154526 0.50026345
1 -0.3561692 0.18487546 0.29935572 -0.09518801 -0.05043078 -0.42115116 -0.42685187 0.3632228 0.04892074 -0.6071636 -0.18553862 -0.09823624 -0.078233846 -0.17286561 0.3026355 0.18304105 0.2773471 -0.07813799 0.09101913 -0.27731952 -0.28644994 -0.37556195 -0.34430167 -0.040725145 0.018575365 0.40388238 -0.09410857 0.2333774 -0.33452788 -0.19528341 -0.42161593 0.58524144
7 -0.07064424 0.09628823 -0.29240814 -0.093091704 0.30980492 -0.4191867 -0.5508719 -0.119069554 -0.12234196 -0.12652959 0.04309033 -0.27592564 -0.3554309 -0.7309527 -0.1592368 0.09088532 0.117393225 0.1509855 0.6335903 -0.34684086 0.09041577 0.09422459 -0.07914479 -0.011394675 0.003239892 0.3523074 0.24314319 0.37851977 0.09759037 0.54834557 -0.14196898 0.18124436
264 -0.35220802 0.20266506 0.61502516 0.24454889 -0.07983115 -0.34825873 -0.10424321 0.19845213 0.09434672 -0.6415494 0.27904472 0.22598176 -0.24692409 -0.28458756 0.20918931 0.12633383 0.014295811 -0.14848617 0.194096 -0.27069244 -0.3376179 0.18770932 -1.0010986 0.23008344 -0.29157478 -0.12001839 -0.060776994 0.15932451 0.065121375 -0.09439144 -0.10065625 0.33719194
266 -0.115520686 0.1536829 0.022585658 -0.0027578196 0.50771356 -0.5855351 -0.59377563 0.3850489 0.25811318 -0.30504614 -0.518706 0.03668351 -0.21526271 -0.22351557 -0.45447987 0.4345921 -0.5626029 0.43018556 0.22786948 -0.391483 -0.03397226 0.42821446 -0.2762122 -0.03807323 0.14458787 -0.3195597 -0.3295018 0.110766076 0.14615622 0.2927247 -0.19229369 -0.06914511
28 0.035512034 0.14345141 -0.023387933 0.23086356 0.26311374 -0.575712 -0.11996483 -0.0414693 0.34301466 0.06832301 0.41384587 -0.34172946 -0.524038 -0.42803764 0.15917698 0.35400024 0.18158759 -0.05798927 0.7990178 -0.22589125 -0.64645565 -0.23648258 0.06866424 -0.3558643 0.08648144 0.0043229433 0.11007294 0.15210187 -0.13826923 0.7509427 0.11312929 -0.04363057
199 -0.28232658 0.28727716 0.087990455 0.17362331 0.36442307 -0.6794856 -0.4332983 0.5187741 -0.059466865 0.04137238 -0.29602182 0.024021048 -0.08151976 -0.26112446 -0.53724945 0.3985385 -0.4678276 0.56156456 0.4170382 -0.48503593 -0.2647227 0.5532888 -0.30262282 -0.017595822 0.2359522 -0.21910484 -0.3094787 0.02012507 0.3143595 0.49529228 0.07115726 -0.24122295
204 -0.095740326 0.2858733 0.3748375 0.3490864 0.098885976 -0.59982836 -0.37306806 0.17352352 -0.093033254 0.105619945 0.4034272 0.3360714 0.38684577 -0.45928714 -0.14334634 0.15213273 -0.012029369 -0.16261557 0.6704408 -0.21169195 -0.16541469 -0.059858352 -0.8953989 0.12448123 -0.547296 -0.24726756 -0.40359837 0.14296868 -0.102181636 0.02468534 0.15989469 0.421753
76 0.30053404 0.56382227 0.2344013 0.15222976 0.26760098 0.14917904 -0.62608725 0.17521518 -0.26305798 -0.26455593 -0.5978001 -0.112970404 -0.05018403 -0.3853908 -0.00064119283 0.09644589 0.46805075 -0.047668442 0.7459482 -0.5049401 -0.26620483 -0.6948604 0.012486969 0.2325372 -0.3485877 -0.5456624 0.11252715 0.14844689 0.10305786 0.059785347 -0.37544438 -0.07692404
137 0.08892749 -0.432753 0.5211957 0.10409304 0.32869843 -0.20219356 -0.6285207 0.35134178 0.8066195 -0.02298739 -0.22008333 0.626781 -0.36951923 -0.38304242 -0.03390092 0.41941985 -0.31804535 -0.1436222 0.20783195 -0.33181888 0.18055962 0.12945966 0.010262718 0.038793672 0.36420116 0.257223 0.2683917 0.1678435 0.31776488 0.062778614 -0.23138355 0.19608644
107 0.17751497 -0.059803884 0.46388355 0.43140945 0.30516654 -0.15256463 -0.270298 0.48102456 0.23289552 0.05748366 0.2651433 0.033262994 -0.45913032 0.47887295 0.01905926 0.19934216 0.34138715 0.4071917 0.4404241 -0.290276 0.15701546 0.14338703 0.03563844 0.23225316 -0.36590102 0.4159458 0.08169163 0.3316936 -0.17209491 0.34189487 -0.34215513 0.18357539
136 0.23961627 -0.46272364 0.14119579 0.286793 -0.039694343 -0.24660614 -0.46716547 -0.020898756 -0.25918028 0.09630747 -0.18136074 0.032432806 -0.35483828 -0.08250309 0.058834966 0.34808254 0.19613902 -0.20735627 0.2398825 -0.639694 0.102403 -0.24662425 -0.233451 0.110796824 -0.29518095 0.20069835 0.6248184 0.6094583 -0.4394216 0.38614297 -0.08285605 0.23948309
47 0.13697366 0.038098335 -0.2322544 0.0982685 -0.23942997 -0.08881984 -0.70319384 0.6914402 0.17493774 0.11576317 -0.17035472 -0.108171724 -0.32952398 -0.2737442 0.3091009 0.6149727 0.19052437 -0.041921053 0.3724579 -0.3495477 0.37105894 -0.13217072 -0.20434736 0.24700002 0.115657836 0.34852102 0.2927055 0.37826875 -0.43815097 0.21136007 -0.11613526 0.2796093
36 -0.29106352 -0.005149331 -0.26753214 -0.34816825 0.60503304 0.24835643 -0.32848686 0.18076284 0.53724366 0.17746593 0.23811354 0.05931032 0.24407469 0.08120916 -0.13732971 0.00070955977 -0.13970044 0.3079313 0.27588087 -0.65522003 -0.5456947 -0.45690158 -0.25642928 0.101863325 -0.09498563 0.9147857 -0.09405574 0.3298364 0.1359405 0.91148204 0.22320333 0.12696525
66 -0.0015707654 0.46753445 0.057532478 -0.072850995 0.1737076 0.159852 -0.28973535 0.37753445 -0.07754392 -0.2539655 0.37339166 0.0108401645 0.2508589 -0.0755626 -0.23122989 0.4048433 0.32766554 0.44327793 0.26689997 -0.7791543 -0.336511 -0.54304713 -0.67421246 -0.09062149 0.3312456 -0.42555553 0.5003119 -0.33057815 0.21903677 0.5647372 -0.19837743 0.11518904
128 0.41236582 0.46354768 -0.0019274079 -0.26625845 0.3678713 -0.09050198 0.1511449 -0.022331882 0.55652755 -0.110499 0.2275448 -0.1798363 -0.016479291 -0.4125329 0.25761083 -0.010437443 0.14995748 0.2272213 0.52488667 -0.63763493 0.15840007 0.2223279 0.06113127 0.22214288 -0.0027425834 0.32919887 -0.14067097 0.57208186 -0.34345537 0.4656463 -0.34209245 0.62793326
304 0.44544518 0.2636188 0.38899243 -0.34496266 0.61946553 0.35548082 -0.14569208 0.7501725 -0.19536725 -0.10048157 0.33555362 0.47644913 -0.3331875 0.002389091 0.29306582 0.1856924 -0.009900497 0.024723189 0.05433069 -0.407088 -0.20967005 -0.15150912 -0.31236184 0.49845254 0.18533458 -0.08939 0.085530065 -0.12846147 0.3436697 0.27793834 -0.613731 -0.31395966
618 0.016081503 0.3873411 -0.2805626 0.44173294 0.6781558 -0.15019852 -0.41264918 0.85571826 -0.2323596 0.08263862 0.1343776 0.5141349 -0.75794464 -0.14016356 0.014725648 0.2519424 -0.10340753 -0.017924704 -0.40460196 0.18302886 -0.6232832 -0.20197134 -0.026126586 -0.36810735 -0.3100178 -0.47868568 0.29888025 0.34410393 0.29901418 -0.07899995 -0.35981596 0.29585359
15 0.14432019 0.14673994 0.35499066 0.36115912 0.03445313 -0.5169877 -0.609108 0.07109605 -0.1504041 -0.5334782 -0.11636512 -0.15379223 0.064010516 -0.43236232 0.6532287 0.5759002 0.01192798 0.33754286 0.13457169 -0.0714521 -0.19567205 0.124751076 -0.051421437 0.37902945 -0.33856824 -0.023157075 -0.47322884 0.18766074 -0.07361073 -0.3026877 -0.2567664 0.43565014
6 -0.45823172 0.10917098 0.18384297 0.009736401 -0.15246825 -0.49453938 -0.26296708 0.22666204 0.07930925 -0.37689638 -0.29338315 0.14164843 -0.3084208 -0.23176412 0.12670559 0.19832064 0.3666699 0.10863003 0.263629 -0.37556058 -0.39595717 0.15211411 -0.8505725 -0.037163462 -0.3494742 0.17321602 0.0116051575 0.26133668 0.21775664 -0.3074838 -0.04753944 0.6267149
21 -0.23830092 0.34342748 0.33721918 -0.12504278 0.056225732 -0.6385241 -0.19015625 0.2877423 0.108840525 -0.32977185 -0.22909464 0.14336756 -0.3124185 -0.12630637 0.4805433 0.41398692 0.2722996 -0.142821 -0.053018827 -0.23544914 -0.19098908 -0.35747042 -0.5059453 0.049947016 -0.0052053933 0.44074196 0.084081 0.05274832 -0.48612463 -0.18497802 -0.42329586 0.09842626
153 -0.11252878 -0.032182068 -0.21154352 0.37462106 0.09551813 -0.39703658 -0.59206545 -0.010805135 0.09222262 -0.23010103 -0.1425139 0.71265215 -0.8904982 0.17162669 0.24543156 0.3074814 -0.18641622 -0.37057176 0.027208257 -0.642178 -0.10996266 -0.69134665 0.036086306 -0.32851383 -0.28468633 -0.29345945 -0.07336019 0.2993702 0.392644 0.41280785 -0.05127046 0.21310824
60 0.4640381 0.11848706 -0.3175518 0.24558373 -0.119420536 -0.2657871 -0.39225444 0.030429436 -0.5753666 -0.19686107 0.2168787 0.014675221 -0.41017854 0.021193586 -0.040692322 0.58181864 0.3873344 0.622241 -0.009722505 -0.56691295 0.2301665 -0.07052641 -0.06759931 -0.35441548 -0.26753676 0.4719823 0.25410217 0.3783876 0.09624811 0.1300417 -0.32166612 0.57993203
149 0.60868174 0.40245512 0.51136035 -0.3528915 0.024905324 0.16288978 0.13494593 0.29641 -0.036611367 -0.13665621 -0.09169146 -0.022272272 0.0038781588 -0.07445014 -0.24310176 0.5804897 0.09654235 0.086049855 0.4457265 -0.4867591 -0.83805937 -0.5402886 -0.041352898 0.24381617 -0.26674742 -0.16859497 0.21938807 0.09018033 0.38527316 0.6466995 0.124969065 0.040879827
44 0.3325848 0.0020032902 0.0074383924 -0.419276 0.018951925 -0.69355434 -0.28950438 -0.04181491 -0.290156 -0.24791832 0.018818995 0.22161643 0.010282981 -0.55442226 -0.15221404 -0.022974234 -0.058146227 0.28022274 -0.03657775 -0.23759384 -0.33604044 0.198476 -0.20746866 0.58894646 -0.4886144 0.20299679 -0.38564453 0.5565897 0.2614257 0.44021246 0.19882335 0.21434377
205 0.08418446 0.22371359 -0.31773278 -0.3364796 0.5057976 0.17516865 0.047232967 0.3776703 -0.179997 -0.2985499 0.012748097 0.13458061 -0.38267225 0.2303792 -0.0519962 0.44667628 0.37077186 0.35474777 0.4100659 -0.66774416 -0.70265573 -0.36027703 -0.47243828 -0.3646226 -0.20154022 0.1042729 0.13565183 -0.20750278 0.33262768 0.3431924 -0.40497088 -0.08193015
50 0.33462733 0.13257627 0.58401096 -0.22920278 -0.008575894 -0.0029136166 -0.0018948246 0.10733106 -0.34666997 -0.105454154 -0.5136633 -0.44838974 -0.102103576 -0.29174978 0.11827642 0.58821046 -0.13352343 0.13543153 0.29566315 -0.5661054 -0.0747623 -0.38686544 -0.41419873 -0.18931656 -0.28547832 -0.49701464 0.39799517 0.2250659 0.5986123 0.69272375 0.355561 0.2776401
662 -0.53001225 0.058046047 0.39115372 0.34562433 0.21013042 -0.2121463 0.27533776 -0.06476573 0.37052962 -0.02470886 0.01824321 0.3746017 0.24181838 -0.15545823 -0.0834179 -0.15112922 0.19435266 0.4347473 0.19451323 -0.6766545 0.18887463 -0.39058313 0.48164377 0.050085045 -0.31804976 0.23259234 -0.15243465 0.6980944 0.031406175 0.4635349 -0.7672632 0.28568158
361 0.12200991 0.43572125 -0.19086626 0.22149687 0.70301956 -0.3924722 0.25608402 -0.05758212 0.6384587 0.04719988 0.38327983 -0.40309444 0.1704812 -0.12896046 0.25925976 0.02496486 -0.020421172 0.083488025 0.7525776 -0.45843074 -0.32642072 -0.14629017 -0.32307196 0.20485571 0.055694688 0.28960103 0.044198707 0.4947719 -0.41535488 0.6248569 -0.5279532 0.20990406
213 0.016157476 -0.1868385 0.7444549 0.45374578 0.30018225 -0.53428245 -0.34806538 -0.44561678 0.13703619 -0.57032657 0.35751653 0.5680038 -0.6711126 -0.3813218 0.14553897 -0.17793222 -0.18043838 -0.008059606 0.36565366 -0.09849188 0.438505 -0.27374998 -0.2601904 -0.17137454 -0.119981475 0.47390872 -0.018044539 0.061860695 0.62867945 0.28081778 -0.1343738 0.34413984
131 -0.0699625 0.32190555 0.029840847 -0.041669507 0.3032501 -0.74318177 -0.16271079 0.12972687 -0.5259222 -0.21091151 0.14216211 0.54266214 0.79453915 -0.45164636 -0.019809043 0.32308346 -0.11019013 0.22745544 -0.34845275 -0.5201829 -0.10606816 0.015160303 -0.108316824 0.5407939 0.00608978 0.3126872 -0.31972942 0.11448961 -0.5653746 0.45327592 -0.47372314 -0.0134113375
389 0.3533705 0.04930077 -0.27543843 0.45879364 -0.17016445 0.3489047 0.023502985 0.9967178 -0.3663012 0.23061895 -0.07680184 0.37454125 -0.4007641 0.15915896 0.20968169 0.46246174 0.5303541 0.1855658 0.14700353 -0.52378875 0.19145836 0.14600186 -0.3177364 0.33860868 0.21090344 0.29321113 0.17777914 0.29641324 0.19956657 0.550127 -0.42230538 0.21763259
62 0.48403046 -0.03348816 -0.013287978 -0.14366587 0.32210004 -0.06730603 0.04689806 0.33198023 -0.50133646 0.025660956 -0.11515216 0.014084468 -0.3194071 0.26389873 0.10628569 0.106024936 -0.07809143 0.26867366 0.13507901 -1.4259169 -0.11939571 -0.79260397 -0.4727959 -0.14244536 -0.2191779 -0.1498832 0.7273954 0.18794146 0.26505366 0.2548995 0.53939015 0.035128057
230 0.24705893 0.3914018 -0.18231812 0.4714339 -0.057165265 -0.36554128 -0.23479035 0.09698559 0.50952315 -0.2074332 0.1629644 0.19232166 -0.028303552 -0.14149562 0.029937886 0.44185394 0.11961114 0.70164514 0.19909175 0.1333778 -0.42803717 -0.60577077 -0.38906968 0.24639824 0.16274713 0.6446194 0.67952174 0.18555449 0.0063955234 0.40906623 -0.16825283 -0.26345044
3 0.58419216 0.009772408 0.35142675 0.059760053 0.19067004 -0.33554766 -0.30961868 0.038245905 -0.2725089 -0.07584734 -0.41302806 -0.020646466 -0.086645946 0.014555808 0.6318236 0.66578585 0.010298912 0.5904457 0.15198633 0.026183333 -0.68262255 0.15943418 -0.66875076 -0.13821648 0.17113899 0.33717588 -0.58815145 0.11819079 -0.067714036 -0.17235112 -0.37601426 0.15690759
482 -0.1650119 0.05365951 0.36023644 0.06858336 0.5099027 -0.31262258 -0.51563644 0.6000188 -0.037226416 -0.078362994 -0.4284075 -0.30534345 0.0050608325 -0.42564103 -0.051575877 -0.24852741 0.08926209 0.6718049 0.53272146 -0.18389581 -0.43782344 0.17189088 0.2927711 0.15553568 -0.021915771 0.087512314 -0.48451078 0.35929757 0.45163327 0.21792856 0.3411877 0.049297992
746 -0.45912886 -0.12777115 0.33688435 0.4202091 0.32425585 0.08513281 -0.20310487 0.5076285 -0.098898314 0.20697673 0.12947696 0.011497834 -0.42928684 0.09769605 0.23058076 0.34129012 0.1891842 0.22023864 0.15722337 -0.641358 0.4034662 0.23687677 -0.051250704 0.052836448 -0.87421703 0.249982 0.5876371 0.46315628 -0.5217896 0.43809143 0.060014375 0.08875649
314 -0.29319572 0.4291324 0.17547646 0.6394936 -0.03676559 -0.21332718 -0.19117126 -0.108194016 0.08848194 -0.52424073 -0.11494423 0.3036365 -0.08236889 -1.0659273 -0.3542067 0.032675266 -0.11182848 -0.21596757 0.27748454 0.15470326 -0.45821255 -0.47228825 -0.32867613 0.40288514 -0.267608 -0.088321306 -0.11064737 0.54981846 -0.099415414 0.10830257 -0.08227838 0.015243789
560 -0.21577875 0.016529303 0.51874524 0.1352404 0.030293027 -0.13181476 -0.76127815 -0.19703892 0.1415712 -0.17711677 -0.55113566 0.46082783 -0.46625417 -0.5528691 -0.45323044 0.34587964 0.0612963 0.07225308 -0.011748496 -0.5206664 0.13624805 -0.39996427 -0.15191987 0.28627443 -0.28147236 -0.20221645 -0.2671319 0.20048438 -0.32134166 -0.006243098 0.37637952 0.3151556
0 -0.071863204 0.21057445 0.30339387 0.19994976 -0.18300788 -0.39744416 -0.37125778 0.43181786 -0.03903577 -0.050299793 -0.21776426 0.31771502 0.27727363 -0.33710113 -0.0014590112 0.104015194 0.22661549 -0.13952616 0.26583293 -0.087878965 -0.42525873 -0.287142 -1.0909265 0.020161835 -0.2372206 -0.027276041 -0.18732332 0.38695446 -0.39516172 -0.085766986 0.32883006 0.4281473
39 0.25966325 0.077338316 1.0426624 -0.56604236 -0.08287936 0.052374944 -0.2876512 0.08915031 0.21698773 -0.35795665 0.030774662 0.20269865 -0.23440497 -0.5027201 0.029870693 0.230489 -0.7032812 0.538141 -0.025202129 -0.39490756 -0.113760345 0.3997754 -0.15619685 -0.34855866 -0.1267633 -0.5904229 0.5440035 0.22126661 0.36206368 0.7508068 -0.08293342 -0.07987056
217 0.07118417 -0.037043393 0.04473913 -0.19066492 0.054960042 -0.09651716 -0.42907676 -0.4801279 -0.4836341 0.11694335 -0.1730767 0.4366668 -0.38142973 -0.5849847 -0.28619328 0.19079809 0.3468485 0.041369032 -0.04882388 -0.3501121 -0.33262157 -0.018240053 -0.19498745 0.6320079 -0.3198079 0.6234143 -0.20763898 0.3916727 0.087794244 0.58238053 0.052237205 0.35275915
101 -0.17509824 0.05783595 -0.25381905 0.1020333 0.3097757 -0.105714746 -0.44936162 0.3522079 0.02816324 0.10091115 0.46391788 -0.052683774 -0.28639698 -0.5801438 -0.024774745 0.07099288 0.1373953 0.23500794 0.5329502 -0.19684242 -0.29664886 0.09086936 0.17861852 0.51589805 0.13358581 0.39141408 0.15375522 0.3919422 0.15867981 0.42617992 -0.24822654 0.21284242
303 0.11520277 0.56926966 -0.35799575 0.26921126 0.0010330906 -0.2949485 -0.0038225115 -0.2215343 0.71909016 -0.07208759 -0.089094274 0.3667031 -0.003540018 -0.57027394 0.14810343 0.8376227 0.15212263 0.28165355 0.2560516 -0.010311359 -0.5303179 -0.65054077 -0.4665441 0.1639525 0.078513324 0.70223373 0.7425885 -0.12336358 -0.09124453 0.65510756 -0.17662276 -0.4615047
270 -0.3039715 -0.033200607 0.5471626 -0.13922487 -0.26807156 -0.52002925 -0.007871597 0.41792834 -0.054795776 -0.45789945 0.05528837 0.2811682 -0.0151478285 2.8992661e-05 0.18254818 0.37166864 -0.36579466 0.4853242 -0.06817448 -0.27622148 0.019199325 -0.05646424 -0.26518816 0.6363718 -0.24697535 0.43184584 0.21411315 0.3244852 -0.0034354392 0.028218362 -0.36336777 0.3162954
706 0.333787 0.6221894 0.059897844 0.47840863 0.64325655 -0.84286875 -0.10336459 0.8287435 0.15898378 0.25602844 -0.31938908 -0.22794883 -0.16316517 0.049725946 0.8249236 0.05853881 0.10581515 0.06351023 -0.5424337 0.032903295 0.3464905 -0.14159943 0.031863865 0.071524255 0.5229524 0.00761106 -0.1374226 0.14564726 0.022422377 0.679969 -0.065594606 0.45392135
305 0.1922507 0.53358626 -0.23178665 0.49281144 0.41862535 0.004965089 0.4142838 -0.04630984 0.51225156 -0.022684611 -0.2628329 1.0646139 -0.6748678 0.092397064 -0.0067674886 0.06668884 0.14932936 0.014812086 0.12350557 -0.559459 -0.5075331 -0.023763653 -0.43614945 -0.32947135 0.45684135 0.25680327 -0.7698886 0.07640387 0.0809739 0.7248192 -0.17368765 -0.06340469
193 0.47452387 0.52486646 0.21548712 -0.2640383 0.4460613 0.12268584 -0.19977978 0.45139763 -0.5511518 -0.14482175 0.010147307 0.039223257 -0.2234569 -0.18377496 -0.089025036 -0.026658237 -0.26623642 0.86051774 0.5624654 -0.6981046 0.37287235 -0.2919308 -0.36223212 0.2309364 0.018799204 0.037845865 0.48812497 -0.13916455 0.59751 0.27955437 -0.039030805 -0.3277901
3125 0.5502235 0.30949107 0.09429792 -0.209808 0.67661947 -0.08357491 0.034808442 0.45984933 -0.14286631 0.2621142 0.21361387 0.42313373 0.113757335 -0.068645254 0.102536514 0.4227242 -0.41324615 -0.111708604 0.31370842 -0.5989237 -0.04982499 -0.7031551 -0.108655594 0.21887276 0.12879199 0.028836492 0.34336108 0.12000449 0.29811904 0.17428985 -0.49157625 0.17527686
33 -0.13640715 -0.020075873 -0.031764537 0.23943578 -0.033169366 -0.15228808 -0.38668698 -0.07931029 0.560143 0.15418811 -0.72162354 0.4480464 -0.40970287 -0.2841438 0.3809679 0.5869891 0.31802195 0.40367025 0.4043166 -0.25240126 0.25354594 -0.39951277 -0.3629726 0.22658795 -0.082317166 -0.24602124 -0.68425924 0.10940803 -0.3589364 0.023495894 -0.19254506 0.42361823
406 -0.73982793 0.49242818 0.47826308 -0.32393596 0.34437674 -0.63556445 -0.19491465 0.5490578 0.049233492 -0.36283073 0.26793525 0.21314421 0.015099975 -0.47747925 -0.032363523 -0.21282746 0.24329038 0.053926066 0.043305486 -0.12885939 -0.34409818 0.0898909 -0.5624394 -0.28988928 -0.19099134 0.34144565 -0.10287107 0.04538807 0.0953627 0.1683401 -0.048728682 0.1548742
78 0.5265325 0.5521126 0.42844534 -0.08634769 0.10906289 0.14360417 0.4081196 0.5945357 0.0116902115 -0.05338271 0.09655465 0.19655967 0.18914486 0.106421985 0.13682298 0.5210777 -0.2939507 0.16649131 0.41762382 -0.5740054 -0.07977809 -0.91789293 -0.072622746 -0.020476028 0.32748407 -0.027728667 0.28380266 0.12731467 0.04466519 0.4448748 -0.25339732 0.50185716
348 0.46122107 0.28719383 -0.15154983 0.49429417 0.29207528 -0.34484047 0.65764606 0.1660112 0.01867423 -0.21018076 0.35474947 -0.17424037 -0.4892853 -0.25605533 0.28518817 0.30066153 -0.33817855 -0.026384449 0.41642842 -0.18354861 -0.26174858 -0.110261485 -0.18552154 -0.09923489 0.38698944 0.63207006 0.41923988 0.45112884 -0.7615452 0.6924395 -0.46543443 -0.029387299
238 -0.032776754 0.30984908 -0.07421004 0.60783565 0.76204675 -0.18976913 0.21452625 0.22099389 0.08078729 -0.13917974 0.14112829 0.23047625 0.103658475 -0.35437834 -0.30361646 0.17182755 -0.7975715 0.10379881 0.12705073 -0.23327434 -0.34776548 -0.43604982 -0.22886758 -0.2490649 0.1632898 0.6253921 -0.1331872 0.53829867 -0.78887343 0.13920599 0.13841507 0.15367472
418 0.38949594 0.049448974 -0.11229702 0.11592033 -0.040560503 0.04054292 -0.0763334 0.5888557 -0.18726897 0.19365764 0.36199504 0.22687273 -0.593844 0.13 0.2807574 -0.0027230184 0.18069461 0.78076476 -0.34227765 -0.52419126 -0.19160065 0.16300876 -0.0023428828 0.40382054 -0.3905495 0.21274523 0.38445 0.74086154 -0.11561831 0.32622036 0.20220178 0.10024815
400 -0.48169535 0.12153605 0.113989316 -0.22557487 0.4301627 -0.06544147 -0.88648075 -0.15190233 -0.4478726 -0.30441433 0.16136484 0.10043199 -0.116411306 -0.29961172 0.21478005 0.080391526 -0.015429003 -0.3233093 0.04856325 -0.55545634 -0.3226519 0.0021148664 -1.065386 0.17498076 -0.2557512 0.34260193 -0.25724143 -7.417839e-08 -0.2915619 0.12961824 -0.21849291 0.5760804
169 0.4133618 -0.2956876 -0.15565233 0.5865337 -0.12516142 0.105394 -0.2272655 0.5816135 0.16625728 -0.14705372 0.35324252 -0.1365766 -0.554323 0.06580754 0.42681974 0.1652704 0.30475459 0.31704724 0.14734608 -0.43332943 0.15087183 0.048582822 -0.20025155 0.20517088 0.05196791 0.37638056 0.25525874 0.6619704 -0.2293506 0.3152616 -0.20976795 0.1501529
81 -0.40114972 0.34398675 0.2091789 0.08575955 0.33305353 -0.112712406 -0.77899796 -0.11311193 0.023687197 -0.1796759 -0.15569691 0.06781664 -0.26863348 -0.14667882 -0.13588694 -0.32220635 0.024201084 0.44361153 0.02635443 0.057773236 -0.034309268 -0.23810187 -0.44980815 0.29113322 -0.71710706 -0.12736528 -0.2093765 0.5455581 0.18735656 0.5126187 -0.12342067 0.18731765
198 -0.105507545 0.7066487 0.2336921 0.18757313 0.4211385 0.33219367 -0.0015707251 0.1848919 0.95230657 0.18290454 -0.34456974 0.2787254 0.39140743 0.086777315 -0.07170463 0.49690175 -0.048494425 0.45575446 -0.15880084 -0.15993832 -0.051136196 -0.14619194 -0.09235912 0.36704463 -0.4391924 0.28810725 0.21048628 0.4710964 -0.1595978 0.7300971 -0.55112517 0.2784211
668 0.520257 0.5458802 0.31772375 -0.27286154 0.27397346 0.26901984 0.06247692 0.5144802 -0.21992269 -0.12907916 -0.060885847 0.14297237 -0.12367288 0.25890255 0.35519823 0.55091125 0.03944224 0.47847286 0.37861428 -0.7026714 0.10505664 -0.47946703 -0.43603423 -0.17756213 -0.058197528 -0.059209533 0.34790817 -0.09004191 0.23072295 0.21527015 -0.5742701 -0.14101759
395 -0.25934878 -0.1643457 0.21900028 -0.13203391 0.07410777 0.19328047 0.04457132 0.3613599 0.07850661 0.5644659 0.3402714 0.016476074 -0.64108133 -0.7865673 0.2843302 0.23933592 0.15498145 0.26469326 0.6661804 0.105224945 -0.555574 0.23170781 0.15829994 0.22930157 0.36403385 0.35917118 -0.102752216 0.24462746 -0.26546064 0.88044924 -0.07202291 0.39782557
226 0.45498356 -0.034527715 -0.4827586 0.31965676 0.28196856 0.109083034 -0.7808084 0.0031473613 0.42679223 0.09877941 0.24744155 -0.06904918 -0.2385427 -0.06483047 -0.1377546 0.44787166 0.23203646 0.19337894 -0.030817013 -0.30736193 -0.13042569 -0.5152209 -0.09406142 0.28615326 0.16581087 0.5748466 0.5468921 0.38747942 -0.08064955 0.76844347 -0.58583826 -0.15955152
284 -0.26649758 0.017829912 0.4266972 0.24306422 0.061544538 -0.28179374 -0.15664007 0.27220047 0.445934 0.028302925 -0.120820664 -0.042094693 -0.36984682 0.25213486 -0.5763704 0.71390396 -0.30013478 0.30641586 0.11311859 -0.91055125 0.040474378 0.12454602 -0.18198068 -0.38453087 -0.104887456 -0.28104758 -0.43198493 0.371796 0.13514028 0.36474413 -0.11874478 0.037688803
180 -0.23412114 0.52341086 0.7914604 -0.11405116 -0.3862291 0.2399256 -0.18369372 0.5186951 0.2440059 -0.15092048 0.01926209 0.29460192 -0.2610941 -0.6591959 -0.18391912 0.8208231 -0.11106033 0.38703942 -0.1546043 -0.8335612 -0.03204409 0.60476404 0.3716197 -0.45495203 0.18351154 0.25324592 -0.09440208 0.05423748 0.35976276 0.105485804 0.11283021 0.5414001
118 0.34918132 -0.14381891 0.49602827 -0.14704326 0.8819286 -0.6083751 -0.6776672 0.13571614 0.016258603 -0.14875345 0.06588113 0.306904 -0.5221398 -0.34329355 0.5563222 0.19224317 0.1674646 -0.26635438 -0.14017998 0.19870232 -0.3855777 -0.20662814 -0.15744063 0.33969343 -0.8725122 0.23498435 -0.06358933 -0.15151107 -0.21164683 -0.5212224 -0.09521654 0.545301
154 0.5418372 0.7187579 0.04939871 -0.49571875 0.3461507 0.092666 0.036492374 0.30571768 -0.44830868 -0.7383241 0.16171056 -0.03204233 -0.7610194 -0.074802585 -0.058971252 0.31622514 -0.0035153865 0.19368611 0.19885665 -0.7694703 -0.41543552 -0.32139558 -0.23089139 0.26695547 -0.17905281 0.1784455 0.3997046 -0.25077784 0.19958484 0.24545656 -0.05830983 -0.17268164
345 0.49976867 0.45453665 -0.25279525 0.69362277 0.61309123 -0.14560126 0.19289431 0.2944785 0.18171276 0.53370655 0.33618593 -0.110886104 0.18863878 -0.35552335 0.5001163 0.26122272 0.45586807 0.025646508 0.33223888 -0.6141335 0.28077278 -0.19872482 0.10791349 0.18969022 -0.14948687 0.16931362 -0.32410085 0.48794997 0.44437248 -0.029878942 -0.59798396 0.40645462
17 -0.27120942 0.13319097 -0.17846374 0.3641995 0.44570437 -0.75722665 -0.5718205 0.5381984 -0.08634208 -0.083336495 -0.09075868 -0.16836971 0.10372 0.030085988 -0.2761936 0.62650734 -0.23193774 0.13303293 0.056099117 -0.98743325 -0.27248526 0.14041843 -0.18351024 0.27957383 -0.23549695 -0.15044557 -0.39436817 -0.010771535 0.11244884 0.19156562 0.26405334 -0.47603306
978 -0.3717204 -0.035651147 0.33628207 0.6482563 0.28546244 -0.56600195 -0.3541219 0.09395336 -0.25494367 -0.18551485 0.117231384 0.4350863 -0.050410647 0.093096964 0.17794722 0.25970316 0.11979849 0.57400185 0.1076594 -0.2509751 0.123332 -0.38485834 0.19093399 0.013993324 -0.17006326 0.44046 0.045158137 0.23860681 -0.19126143 -0.023661807 -0.5727462 0.20956624
425 -0.31156743 -0.18248235 -0.22270602 0.48195413 0.15133521 0.24620202 -0.08033385 0.77480805 -0.41166496 0.008026007 -0.1176391 0.42039764 0.07695326 -0.44210112 1.004555 0.10126595 -0.31541088 0.26018348 0.09812305 -0.31353176 0.3693979 -0.25336522 -0.1194261 0.16882877 0.27812204 0.3294121 0.120853424 0.4805823 -0.3534306 0.52063113 -0.123252526 0.07994211
73 0.39071465 -0.38403708 -0.5153356 0.054091915 0.03867312 -0.27875444 -0.2590438 0.6930173 0.37804478 -0.091774404 0.22229303 0.14632452 -0.27882752 -0.28428894 0.56576693 -0.28699142 0.12534507 0.31918153 0.16967447 -0.2288778 -0.23979023 -0.6751794 0.0034163645 -0.28557104 -0.23453751 -0.09903945 0.39809605 0.6026749 -0.640056 0.17736948 0.44696078 0.78089446
612 0.052915234 -0.10841829 0.189105 0.38248926 0.0859521 0.2972195 -0.7905909 -0.0210502 0.6150482 0.028966295 -0.34361616 -0.03520685 0.29655614 -0.13780351 0.2804245 0.646231 0.31028807 0.5875558 -0.29458386 -0.16381338 -0.2574659 -0.62490726 0.08707992 -0.035097934 -0.13698868 0.6378468 0.4828181 0.6015951 -0.32994395 0.52109516 -0.18588047 0.055607177
144 0.18501289 0.35333782 0.73075324 -0.092593156 0.48470086 -0.19299853 0.29237255 0.5685481 -0.20181847 0.09640321 0.07475854 -0.24081828 0.2521996 -0.6135541 0.15789133 0.51393205 -0.07542261 0.49002373 0.6102404 -0.21963508 -0.2542454 -0.20281081 0.21874271 0.25155967 0.23374002 -0.20307986 0.05476831 -0.1726351 -0.17201208 0.29704574 0.17379047 0.27238598
797 0.23093514 0.12766664 0.52149874 -0.1291778 0.60779846 0.28972673 -0.0015791756 0.77905124 -0.7099938 -0.19056444 -0.30340302 -0.08057668 -0.12270472 -0.4712884 -0.085378125 0.53231436 -0.3045863 -0.050621185 0.49399823 -0.32052532 -0.26965937 -0.28306654 0.2299478 0.44194075 0.1314625 -0.18539216 0.18311495 -0.16007833 0.32432964 0.4670609 -0.38778108 -0.21818224
113 -0.12689684 0.12278781 0.080794536 0.13617276 0.7893121 -0.65131974 0.19366421 0.07545517 0.3932646 -0.024896698 -0.029294156 -0.22623593 -0.22433463 -0.8426182 0.128562 0.3643399 -0.6734678 0.3360365 0.50862473 -0.59723437 -0.56109214 0.20022027 0.27647766 0.14338465 0.3099939 -0.33535463 -0.30638427 0.0832579 0.27111763 0.24065037 0.311769 0.07361553
1040 -0.19331317 -0.035079475 0.060225114 0.9357421 0.013033352 -0.24429384 -0.18002443 0.5732278 -0.19685033 -0.328771 0.24178573 0.2046328 0.19591258 -0.57628304 0.11662333 0.32108924 -0.39466596 0.055853225 -0.40206796 -0.4098849 -0.21863446 -0.2599746 0.044282477 0.65752274 -0.06028362 0.6411771 0.31583187 0.5637318 0.796668 -0.21836323 0.24194668 0.12686375
385 0.15495807 0.42267802 0.58937174 -0.10641987 0.67982775 0.5624377 0.053849284 0.49289438 -0.10962715 0.20001781 -0.08069941 0.26054013 -0.7290702 0.029941816 0.3667677 0.68638474 0.10753687 -0.10481174 -0.09393515 -0.5174926 0.05264998 -0.12281445 -0.123714074 0.44729653 0.27135327 0.20193917 0.094862 -0.28891522 0.3281638 0.54823315 -0.50542706 -0.18818745
412 0.14159207 -0.10082099 -0.2820812 0.5395687 -0.056366593 0.11415094 0.11449222 0.85023654 0.10092072 -0.18526202 0.167637 -0.04304937 -0.3839039 -0.11619898 0.3165227 0.30291986 0.25080335 0.38069597 0.014780511 -0.62163913 -0.08490316 0.37270856 -0.017336687 0.5069941 -0.23122928 0.33729148 0.65146816 0.7363477 -0.19255906 0.028176213 -0.5281246 -0.07960824
94 0.099350296 -0.18727025 -0.32180896 0.64659846 -0.16669452 0.14586726 -0.38326365 0.62750345 0.40753314 -0.33736444 0.5715532 -0.18397063 -0.5933798 -0.18569003 0.22561009 0.2176461 0.55639344 0.22523353 0.13191569 -0.33469424 -0.24751917 0.06037843 -0.28795242 0.14587198 -0.0750519 0.3775624 0.74685323 0.48883396 0.21617642 0.06820111 -0.372476 0.1673263
209 0.26839918 0.20990354 0.12013319 0.0505084 0.66120255 -0.014606223 -0.2432375 -0.031941414 0.3926622 0.21682785 -0.23292571 0.12143984 0.04820388 -0.08070952 0.022440724 0.39646685 -0.009467106 0.5254792 -0.27212918 -0.27033448 0.005048647 -0.11909433 0.21601774 0.59586537 -0.27025896 0.6793769 0.5590464 0.57280153 -0.15702763 0.5375695 -0.23555063 0.23524816
275 -0.21470058 0.6289664 0.07026646 -0.43539944 0.15208633 -0.14486614 -0.979192 0.08693899 0.03364541 -0.38998303 0.46379298 -0.11054793 -0.3183345 -0.3919312 -0.4474502 0.039925598 -0.26289257 0.1636223 -0.2044636 -0.8343475 0.18913361 -0.13615105 0.108610205 0.38088688 -0.1930103 0.02261229 0.09748772 0.27034828 0.47659397 0.23675339 -0.41743127 0.31661737
937 0.9418508 -0.43836835 -0.3275008 0.67482996 0.84498894 -0.5132616 0.33120596 0.39747325 -0.027683228 -0.5052779 -0.24179307 0.29941347 0.013228102 -0.2393386 -0.37890017 0.13896058 0.4417469 -0.24209373 0.07791535 -0.56688505 0.19974664 0.115113564 0.09830463 0.16860095 -0.88158256 0.31242466 0.05039671 -0.45494968 0.22772 1.440407 0.039601605 0.99860114
145 -0.460032 -0.07726485 -0.07542355 0.3732503 0.24978442 -0.13605691 0.18675129 -0.07864849 -0.44967625 0.06957358 -0.32258123 0.18224889 -0.11141599 -0.7606677 0.09954741 0.18305752 -0.41046244 0.21993192 0.46027035 -0.5392718 0.018071558 0.029009946 -0.18774728 -0.10890835 0.112750016 0.16475417 0.7516545 0.61342335 -0.44160172 0.7754689 0.11364335 0.15761031
350 0.14283192 0.12519073 0.21253832 -0.2943015 -0.28568426 -0.03576122 -0.19986364 0.40738356 -0.24930137 -0.06403197 -0.1546737 0.6681516 -0.58929646 -0.35766906 -0.12603977 0.6314472 0.44614142 -0.32963878 -0.08381777 -0.29661787 -0.43536952 -0.035441153 -0.18966596 0.43796468 0.13485333 0.56112915 -0.077036396 0.008357495 -0.4617136 0.34417948 -0.17936136 0.13583846
86 -0.3427328 0.37454367 -0.16037297 -0.116627045 0.23323184 0.3906573 -0.48499683 0.066059574 -0.007787766 -0.082052834 -0.10936841 -0.21176805 -0.4501632 -0.20392698 -0.35393834 0.094360426 0.20442307 0.5562052 0.53874 -1.0071594 -0.49361244 -0.1914741 -0.37669465 -0.38553378 0.082055695 0.13969477 -0.30843103 0.37098527 0.015986355 -0.03775986 0.12735645 0.3848521
608 -0.24738675 0.1094426 0.321165 0.2753474 0.098048896 -0.2570015 -0.07575384 0.5372338 0.28791946 -0.22468886 -0.3779013 -0.008013307 -0.47565126 0.065397255 -0.38008574 0.8918532 -0.5149118 0.42386094 -0.10948894 -0.83378726 0.24686897 0.33476907 -0.045755148 0.08009503 0.08603322 -0.05916115 -0.52529687 0.13518436 0.1882825 0.30157742 -0.14546779 -0.34779376
127 0.7910297 0.86514074 0.6511419 -0.3482684 0.06141473 0.26340804 0.12624352 0.5448445 -0.26299804 -0.21510014 -0.58194643 0.38945073 -0.18627076 -0.16667767 -0.22327739 0.5421692 -0.38978234 -0.16171874 -0.0057592895 -0.8547248 -0.15839973 -0.36840582 -0.24032353 0.00799952 0.21097662 0.14065711 0.3620817 0.07849228 -0.5547121 0.13118362 0.11461987 0.13700293
38 -0.34503278 0.6679581 -0.010090039 0.32834676 0.48062772 0.14681423 -0.2040406 0.12511894 0.1822576 0.27971333 0.026749512 0.11288685 -0.033038333 -0.83347064 -0.03584599 0.3379315 0.46297076 1.0481386 -0.046879377 -0.2317464 0.07250346 -0.21474448 0.09659873 -0.014891654 -0.03866551 0.63595915 0.3941886 0.07977062 -0.17168647 0.036226343 0.50343376 0.52041775
151 0.5259926 0.15390743 0.39780545 0.5876437 -0.43954372 -0.11193452 -0.13088846 0.5801586 -0.16325936 -0.031913206 0.17564322 0.34871018 -0.037840456 0.20484586 -0.4543741 0.19500019 -0.21007872 0.15808469 0.24659209 -0.1011719 -0.13180156 0.07643976 0.42445135 -0.44784507 -0.08333336 0.3251808 0.11355126 0.9510173 -0.108184725 0.90411276 -0.8339112 0.17507233
239 -0.18633014 -0.26368847 0.073236644 0.70187765 -0.07860237 0.019182257 0.043278582 0.8221991 0.20122616 -0.012199146 0.69173753 -0.15203519 -0.3830087 -0.43782926 0.4222433 0.3811112 0.30977634 0.31727734 0.022323381 -0.13837464 -0.4559266 0.017825617 0.2957961 0.40358517 -0.1956144 0.34769735 0.69339615 0.58553725 0.42172006 0.0994561 -0.11087415 0.2273442
52 0.06962289 -0.57194716 0.14912918 0.4741426 -0.19213416 0.19980007 0.14153865 0.4602275 -0.1790333 0.32315832 -0.1308975 0.3360771 0.5857752 0.21594076 0.5339389 0.22584541 0.69978553 0.7208198 0.56965506 -1.218085 -0.022466904 -0.24993931 -0.105838515 -0.036710292 -0.54045224 0.22854948 -0.4418049 0.42270032 0.14273325 0.14737977 0.107656814 0.22432198
100 0.6403449 -0.3114436 -0.04737021 -0.0484527 -0.0288439 -0.05885998 -0.024000643 0.2696986 -0.199515 0.05224859 0.379559 0.0019628315 -0.20700614 -0.15022139 0.3075674 0.05092676 -0.41051412 0.4146139 0.4847313 -0.49648553 0.51128906 -0.11006434 -0.13814111 0.21342045 -0.024041738 0.14506537 -0.06566964 0.829444 -0.1339193 0.23643468 -0.3603271 0.7655603
194 0.49115315 0.1134447 0.36637717 -0.11049002 0.55743444 -0.22538008 0.16443358 0.8467161 -0.042073946 0.13923359 0.028775884 0.7406871 -0.023823688 -0.24227698 0.3338029 0.3658971 -0.28841448 -0.27012882 0.42557108 -0.30022058 -0.349779 -0.72233045 0.7489611 0.15672079 -0.69590575 -0.6418954 -0.13990603 0.05260607 0.109707266 0.053024825 -0.24748172 0.34975198
346 -0.32840994 0.4182411 0.39583248 -0.094203584 0.45616692 0.068206415 -0.49282086 0.80344504 -0.20234928 0.4498294 0.33414719 0.021654839 -0.37301028 -0.44125238 -0.25488314 0.01051764 0.19180648 -0.05376311 -0.36160657 0.012178613 -0.37340486 -0.0034732055 0.48821974 -0.42247456 0.058428306 0.30760124 0.21591948 0.5076686 0.015649782 0.5315992 -0.24318387 0.65464234
738 -0.04808854 0.3628546 0.75073886 -0.10339746 0.026924256 0.16388266 -0.006353658 0.15964988 -0.37146878 -0.017674558 -0.3625961 -0.061022993 0.08975947 -0.83071643 0.21945938 0.11549465 -0.008521142 0.66050947 0.4021348 -0.065383 -0.32794175 -0.5979454 -0.37201983 0.10195705 0.078894384 -0.70166427 -0.016791876 0.14493664 0.5445332 0.29930198 -0.08205459 -0.15427701
82 -0.18425 -0.24921438 0.23355688 -0.18436237 0.26262265 0.09513514 -0.37112123 0.12740156 0.9573412 0.3210405 0.061945215 0.11692119 0.30168107 0.0743245 -0.015904492 0.27068275 -0.41056043 0.34011456 0.14506112 -0.5088925 -0.27621856 -0.6904212 -0.4093518 0.2590788 0.043021552 0.8826489 -0.11119462 0.3821189 0.0028391555 0.608297 0.16731788 -0.1278219
237 -0.17047091 0.5585445 0.20235327 0.24468136 0.31515437 -0.0324221 -0.34172672 -0.1843382 0.19332811 0.30772445 0.0773522 0.3742247 -0.43516305 -0.45249435 0.2585978 0.83351856 0.0061537856 1.0094311 -0.22247703 -0.05023448 -0.54303867 -0.041007865 0.017888803 -0.5437208 0.017830992 0.068341345 0.3420553 0.017643174 -0.30086824 0.32380503 0.36582515 0.34688333
177 -0.19148427 -0.5159462 -0.4287663 0.30525142 0.042811494 0.30485833 0.00076662534 0.6359784 -0.4423591 -0.28649607 -0.37915334 0.6521985 -0.11842545 -0.6832962 0.8763156 0.49329877 0.011468146 0.263985 0.0670004 -0.26645404 0.17990527 -0.037154004 -0.35969588 0.29425278 0.35768658 0.2727708 0.22940889 0.17016813 -0.31938103 0.41898137 -0.32806414 -0.00037478143
555 0.0392185 0.104425445 -0.5679932 0.10694558 0.32761946 0.02497065 -0.24660105 0.68782103 0.54378647 -0.63769525 -0.3786364 -0.005696678 0.15306313 -0.07612212 0.15882081 0.26117757 -0.42005727 0.27308297 -0.2254136 -0.5340581 0.14065015 -0.37225527 0.041432865 -0.41950035 -0.28768572 -0.48039776 -0.56456196 0.54985195 0.75576884 0.049527485 -0.8854457 0.30171663
45 0.080096774 0.35146874 0.08623359 0.4266646 0.055534128 -0.11833366 -0.20835344 0.9638472 -0.19070897 0.19480322 -0.26772803 0.2638206 -0.15049003 -0.116169706 0.5307921 0.23586358 0.15319908 0.2912959 0.6335789 0.18325745 -0.11992386 -0.40716785 -0.20899528 -0.07119108 -0.44081143 0.4806772 -0.74279654 0.32118782 -0.3758708 -0.042914044 0.33173922 -0.20072377
195 0.31382385 0.12553734 0.46746185 0.00904231 0.46115124 -0.5971386 -0.74568594 0.20457308 0.028893173 -0.038654856 0.2688193 0.33747005 -0.18453485 -0.5416343 0.49119118 0.1901977 -0.120992415 0.018715221 -0.121663764 0.32079902 -0.572776 0.28026903 -0.53484654 0.16147831 -0.27355173 -0.050663836 -0.15228318 0.13293637 -0.5316428 -0.17547275 -0.22996405 -0.17699634
85 -0.38564944 -0.25300157 0.35082746 -0.24860412 -0.075559795 -0.07836547 0.3310081 -0.49565703 0.042943202 0.23969977 -0.04022666 0.34111702 0.021453114 -0.24779192 -0.1310274 0.12749432 -0.22040582 1.2077663 -0.23408006 -0.3634496 -0.443259 -0.38807353 -0.20337898 -0.03744211 -0.5466242 0.4168659 -0.65861076 0.75596017 -0.13675436 0.19054914 -0.33822608 0.51464
30 -0.042566672 -0.045631733 0.21106605 -0.30773166 0.22895283 -0.29015625 -0.119953185 0.30993834 0.50787497 -0.03645928 0.38503233 -0.18735595 0.2144286 -0.5274341 0.677209 0.5453821 -0.30695683 0.050799765 0.43376744 -0.63614315 -0.7188832 0.2914281 -0.081573725 -0.021042062 0.22998166 -0.10082351 -0.64445347 0.14732891 0.40645614 0.29053554 0.034024388 0.26778477
96 -0.042720597 0.5784922 0.12716092 0.31331366 0.045084666 -0.36962697 -0.1528196 0.93809915 -0.06973275 0.15713578 -0.16777672 0.3374449 -0.07910808 -0.14292242 0.53949976 0.3684919 0.20225196 0.06795222 0.5239626 0.045627713 0.0405008 -0.5406361 -0.017644959 0.00088370667 -0.5879777 0.2903734 -0.6853569 0.12495542 -0.68840754 -0.018920226 0.24547046 -0.08420677
599 0.15966405 0.0569392 -0.31249174 0.35439533 0.28864184 0.008653814 -0.46951967 0.18562508 0.75705564 -0.11399063 -0.21563633 0.08904879 0.28135645 -0.031713277 0.65666795 0.6644625 0.30586505 0.49673733 -0.14737433 -0.21742591 0.121613555 -0.48975512 0.17553161 0.34421828 -0.33003774 0.3864834 0.5707736 0.37596098 0.30448815 0.6480874 -0.6205146 -0.14697798
112 0.535497 -0.4616768 -0.3475932 -0.12889796 -0.29019147 -0.3054831 -0.014634326 0.7027675 0.15820704 0.1957558 -0.0136052845 -0.28421643 -0.38560084 -0.10540702 0.5555772 -0.07420178 -0.31235868 0.12173258 0.35664493 -0.42291942 -0.25260103 -0.4127285 0.06720127 0.13653836 -0.20167789 0.056828063 0.06182945 1.2271028 0.05275569 0.14877436 -0.14817677 0.30332303
115 0.34310767 0.03833466 0.02589274 0.49301136 0.5987716 0.057178427 0.086698 0.18156233 -0.41148087 0.16377077 0.041872036 -0.52965826 -0.39192092 -0.17256024 0.33476594 0.42947668 0.61417186 0.025937308 -0.3985054 -0.8554553 -0.1215098 -0.19920379 -0.10599142 -0.22804458 0.26199502 0.14216432 0.016756892 0.5089596 0.15823683 -0.28088707 -0.7333121 0.46735385
31 -0.08808021 0.13480787 0.78661346 0.8665311 0.46865952 -0.069788896 -0.5180313 -0.39521435 -0.35650826 -0.70910877 0.10649457 0.3442442 -0.37044653 -0.23894092 0.1519466 -0.19024909 -0.1385033 0.3383382 0.43772826 -0.34746134 0.2978915 -0.47147277 -0.029234333 -0.10724822 0.048960198 0.6403443 -0.27498937 0.07447337 -0.10426846 0.08180816 -0.015225564 0.1173108
1198 -0.37632492 -0.13306688 0.32354107 0.022981599 0.33953395 -0.014384915 -0.23299359 0.012251207 0.91085964 -0.24305275 -0.6916415 0.52034366 -0.34212032 -0.22645639 0.30897817 0.4871341 -0.359896 0.057617247 -0.037317038 -0.8131625 0.3529121 0.1394929 0.17067781 0.29047832 -0.11688899 0.19797106 0.065563746 0.35890254 0.37814528 0.38725358 -0.3377542 -0.078234136
1025 -0.021258427 0.6577903 -0.12609428 0.27806434 0.3107254 0.007559083 -0.3019051 0.33986843 -0.1295592 -0.45846117 -0.196131 -0.017389894 -0.47646582 -0.6253951 -0.48709548 0.12345291 -0.060485724 0.2036072 0.35044533 -0.43224344 0.25366223 0.16439188 -0.060432516 0.19277011 0.10931345 0.61897755 -0.42787787 0.24736544 0.8202122 0.32139125 0.09490758 -0.14171451
294 0.14073466 0.6806266 0.2533681 0.3499191 0.093469076 0.09789266 -0.02000249 0.3985614 0.16624969 -0.59148484 -0.10311796 0.22987522 -0.43647024 -0.3718211 0.07752945 -0.43998381 0.0014892024 0.25222382 0.18151568 -0.12237172 -0.42324135 -0.115412585 -0.049500376 0.6264198 -0.13800113 -0.9320059 -0.2904203 0.49944353 0.41554344 0.24687707 -0.5309606 0.089743525
394 0.021160355 0.07575642 0.62658626 0.1518509 0.6295703 0.62742686 -0.54267025 0.30721834 -0.8345534 -0.039884582 -0.4274106 0.031080836 -0.09671086 -0.44626933 0.045574885 -0.24107246 0.37480026 0.0151250595 0.60213345 -0.6744079 -0.43176278 -0.7299491 -0.5703738 0.392806 0.42809188 -0.22998124 0.32580265 -0.20718661 0.10064483 0.010368683 -0.21159956 0.086245745
40 0.017392302 0.34036925 -0.07784306 -0.112840295 0.41567707 -0.20325239 -0.09452224 0.11961334 0.6531893 0.32557458 0.65891904 0.033713967 -0.014919045 -0.20627908 0.40841967 0.14828478 0.02011764 -0.05453302 0.36231872 -0.3763713 -0.40148047 -0.24202004 -0.40244332 0.12076874 0.73536414 0.24952516 0.14957355 0.043243952 -0.47015235 1.0553135 -0.4758802 0.22403274
382 -0.24534516 -0.3385862 -0.101866506 -0.019922711 -0.099484935 -0.11904672 0.15058486 -0.16661632 -0.40711164 0.23358034 -0.009937599 0.6646836 -0.73675853 -0.46965566 -0.13673034 0.7797465 0.29749373 -0.04380935 -0.15961757 -0.2176639 -0.5514115 -0.7011908 0.12080992 0.32982066 0.49235103 0.3727003 -0.37386218 -0.18110593 -0.21509705 0.7675196 -0.6342118 0.7088049
968 0.079996474 -0.056201674 0.6288761 -0.5676761 0.091302246 0.038828492 -0.24802257 0.86083084 -0.1546338 0.084615566 0.06998899 -0.12939064 -0.08487344 0.44822022 -0.057776686 0.659954 -0.077946976 0.6212418 0.03226938 -0.6817697 -0.41896486 -0.6486267 0.23690261 0.21848057 0.059231296 0.19114909 0.23563643 -0.08373927 0.69086874 0.15027313 -0.4948101 0.3026842
34 0.67585653 0.37129068 0.034234487 -0.09715141 0.18027318 0.48628363 -0.5554437 0.708017 0.17018802 -0.35581663 -0.21642691 0.32980618 0.009073886 -0.4163363 0.5110917 0.53487587 0.52140576 0.32279894 0.36661452 -0.74252874 -0.03055602 -0.24579667 -0.14726806 -0.2914452 0.03585134 -0.3386698 0.4182839 -0.26539186 0.17929609 0.011816439 0.05086619 -0.24910736
24 -0.46889144 0.15124655 -0.00023212147 0.36146823 -0.264991 -0.34258056 0.21308523 0.25456092 -0.21657528 0.22312725 -0.11832879 0.32987618 0.4338096 -0.6949603 -0.24985787 -0.08380067 0.07449386 -0.13443008 0.28711027 -0.1456125 -0.58816135 -0.99434054 -0.3740997 0.055162434 -0.34265307 0.60121703 -0.070746265 0.8130322 0.20352274 0.06752004 -0.120363556 0.06400645
197 -0.38279206 0.55674946 0.28240973 -0.10206364 0.36535683 -0.02325517 -0.61432207 -0.015087656 0.07745778 -0.33975327 0.12921974 0.5000302 -0.32208413 -0.3429809 -0.03011923 -0.2913704 -0.07531617 0.39525133 -0.26743266 0.25851053 -0.4378232 0.07676214 -0.3475864 0.0130730765 -0.6304274 -0.04421843 -0.30241138 0.45570675 0.023269612 0.8163947 0.01456152 -0.035039473
718 -0.47896087 -0.32133007 -0.17949024 0.25966892 -0.2255625 0.18487288 0.12597477 0.49080327 -0.460124 -0.45876238 -0.51509184 0.53041565 0.25386813 -0.66472423 0.9984849 -0.26375735 0.14145507 0.41902992 0.16662359 -0.3839361 -0.3375903 -0.15760516 0.029791022 -0.05604329 0.19400258 0.22031187 0.26016912 0.6522307 -0.4325152 0.74075794 -0.45033014 -0.11852539
390 -0.0656098 0.23010693 0.11500521 0.41686 -0.114429995 -0.45557278 0.49923828 0.0052158013 -0.018290991 -0.124220155 -0.22583745 0.024420733 -0.38753486 -0.7332337 0.0312536 0.58949876 -0.036567904 -0.31015503 0.12912583 0.2936628 -0.29429582 -0.3863465 -0.7151327 0.2678473 -0.44751075 0.73333627 -0.20947613 0.4736247 0.2985407 0.057020865 0.00815778 0.13518336
444 0.18256888 0.032044046 -0.21624991 0.30854958 -0.123752624 -0.429269 -0.0036532723 -0.031298768 -0.060905717 0.7461537 0.34007046 -0.33709303 -0.5798873 -0.0968333 0.042948477 0.32548636 -0.0044588028 0.6387716 -0.13934703 -0.14691105 -0.054924093 -0.29439312 -0.47380054 -0.056741484 -0.29743382 -0.0972092 0.16874248 0.9952998 -0.28409785 0.2924029 -0.28195485 0.50911355
18 -0.14457773 -0.11696604 0.8328049 0.029722784 0.007894399 -0.56691957 -0.379293 0.13994832 -0.10156194 -0.2715094 0.31373826 -0.10188337 -0.41777334 0.10437263 0.16133644 0.204318 -0.08270937 0.7275422 0.11661838 0.2357418 0.17117678 -0.31644154 -0.47608927 0.46717075 -0.40549546 0.30917394 -0.31944728 -0.07992917 0.20954391 0.29162017 -0.022847136 0.18751758
4174 -0.07920558 -0.2641961 0.19498661 0.30554432 0.3168725 0.031883363 0.3913377 0.43863338 0.2060543 -0.049913835 0.33364305 -0.00891813 -0.17252804 -0.6851652 -0.359136 -0.55989116 0.34744298 0.41182443 0.1742348 0.056530483 -0.0038030792 -0.33680844 -1.0449663 0.099403605 -0.39514378 0.019443119 0.20403343 -0.10755231 -0.18763028 0.14414576 -0.1690172 -0.07659314
108 0.044789847 0.3506847 0.1815721 0.049351696 0.10927089 -0.030797161 -0.37259686 -0.009513569 -0.36890113 0.05812022 0.06385602 0.8171597 0.08071995 -0.39235446 -0.02310154 0.07728048 0.006056711 0.26070586 -0.57645285 0.06108328 -0.0380839 0.20997277 -0.6391065 0.61317104 -0.23405133 0.035893105 -0.33389586 0.4323955 -0.000550821 0.628458 -0.31934264 0.38111037
26 -0.16811436 0.32333493 0.39300904 -0.40047777 -0.09334901 0.031545695 -0.31249082 -0.32907125 -0.1308365 0.03337689 -0.43630353 0.27458152 0.052272934 -0.95166814 -0.003839148 0.0625432 0.089709334 0.29524016 0.12680414 -0.11603216 0.2629423 -0.124511935 -0.36675096 0.01438743 -0.6029638 -0.1155817 -0.36239767 0.34373727 0.7627711 1.0141793 0.1941044 0.22919022
347 0.43452802 0.26780242 -0.036816347 -0.2080315 0.12727001 -0.105916195 -0.64634734 0.069786236 0.5179087 -0.5593366 0.6854348 0.38632363 -0.43163198 0.003018075 -0.15238117 0.20689644 -0.57207763 -0.058803033 -0.28469044 -0.96687084 0.080423325 -0.13366948 -0.04830219 -0.28312513 0.037375744 0.107534304 -0.23244324 0.22695921 0.760472 0.45541775 -0.328949 -0.120874636
533 0.07565934 -0.78678095 0.23141165 0.26322773 -0.12634313 -0.8911734 -0.19075538 0.4104101 0.91570324 -0.37884864 -0.49285176 0.8615345 -0.21066718 -0.4566288 -0.014466153 0.21982831 -0.3406974 0.47408462 0.15198055 0.042127907 0.015828794 -0.2386181 -0.024202382 0.1666238 0.19803146 -0.09091378 0.21683128 0.2027372 -0.25021714 -0.049586218 -0.03690179 0.41664076
68 -0.047774725 0.029233476 0.068671264 -0.7490778 -0.57292527 -0.34826496 0.08041253 0.20114891 -0.000425475 -0.3157703 -0.06835845 0.18672721 -0.30510893 -0.3141748 -0.38045573 0.37667492 0.5415692 0.36236206 -0.08140568 -0.3313338 -0.71652895 -0.1935498 -0.1077894 -0.10584928 0.010376238 0.43023255 -0.39587718 0.16332276 0.095492795 0.71351606 -0.3377817 0.04536865
325 -0.01147064 -0.24731636 0.07780713 0.40087596 -0.07055045 0.19633418 0.13040341 0.39744103 0.70545036 -0.4665101 0.29694262 0.1971861 -0.20901695 -0.23031303 0.5405541 0.2072504 0.6724723 0.26788503 0.2222223 -0.6335282 -0.060396638 0.201014 0.26619983 0.31797192 -0.52372247 -0.13657816 0.26386604 0.5413812 -0.3247446 0.3393673 -0.39129794 0.2310759
704 0.45550293 -0.06756938 0.63296324 -0.41048205 0.4351766 0.0003171347 0.067416884 0.5652331 -0.700004 0.319485 -0.24288046 0.36134434 -0.26179883 -0.12200169 0.46719432 0.56374466 0.0316156 -0.11564661 -0.09541004 -1.0655385 -0.062138937 -0.58467185 -0.39577875 -0.8095329 -0.032333978 0.5370737 0.42046395 -0.19547765 0.22705477 -0.46336102 -0.18367766 -0.053299908
1219 0.14843084 0.22086076 0.30675453 0.5646778 0.68441373 -0.58423716 0.023977093 0.094176084 0.10235516 0.3709027 -0.21458669 0.0755243 -0.18183665 -0.2743517 0.48550603 0.331878 0.65082115 0.064445384 -0.18876821 -0.68335384 -0.32962584 -0.23428527 -0.037867453 0.02002547 0.20932972 -0.06973577 0.5928689 0.2959754 -0.216205 -0.38693053 -0.38441867 0.122257836
236 0.20000581 -0.22785725 -0.4368062 0.5219589 0.6852039 -0.4230179 -0.025225842 0.278422 -0.10259679 0.22013988 -0.22611855 0.13650082 -0.11998612 -0.0023719359 0.42893434 0.2117188 0.11952045 -0.20431909 -0.117792845 -1.0093476 0.03483044 -0.17107601 -0.0518687 0.12644948 -0.17754708 0.12743022 0.80139977 0.5727214 -0.2627677 0.67285454 0.1605073 -0.111783266
220 -0.024893524 -0.21195176 -0.003240307 0.5319725 0.3317733 0.22426774 -0.7827059 -0.0786991 0.50537413 -0.06264245 -0.18227562 -0.002960324 0.05118679 0.0190277 0.26674223 0.4264067 0.1202493 0.67838496 -0.2824298 -0.06629981 -0.15865448 -0.69993734 -0.19833542 0.0910213 -0.1740212 0.6390144 0.25857505 0.5618852 -0.11907621 0.5560515 -0.16388226 -0.3653572
719 0.5990037 0.0787453 0.4268021 0.51754904 0.42450425 -0.32129768 0.12261664 -0.20931439 0.08610222 0.5937229 0.2207112 0.19067316 -0.6872277 -0.6425371 0.31844583 -0.26664108 0.24194475 -0.25092918 0.14494239 -0.5881775 -0.39060012 0.010098944 0.098724075 -0.63035125 0.45972928 0.08028732 0.3516123 0.792103 0.006698374 0.35844418 -0.20902945 -0.2133845
265 -0.42846268 0.43331495 0.7808213 0.13045743 -0.25246653 -0.55110174 -0.023256855 0.22076716 0.043415584 -0.4088001 0.30833608 -0.1098253 -0.3082956 -0.51901704 0.105481476 -0.10884991 0.012472694 0.10152779 0.22010234 -0.0176948 -0.008322953 0.30681512 -1.1000164 0.2547613 0.027294997 0.27961126 -0.334516 0.20648247 0.20175652 0.1971738 -0.29705837 -0.0113430675
569 0.40694094 0.76711744 0.4260196 0.6330829 0.44477543 0.24937324 -0.18769957 0.5913888 0.20358779 -0.23538144 -0.39573023 0.11256743 -0.28625715 -0.12796527 -0.07745786 -0.24717405 -0.71319604 -0.4338926 -0.28706205 -0.46921238 -0.024589436 -0.25165007 -0.23995134 -0.96128803 0.26610434 0.014489056 -0.23023526 0.9613357 0.2944893 0.030832862 -0.35256413 0.033664692
51 0.16639115 -0.28041416 0.49400875 -0.02972055 0.07457058 -0.31027293 -0.5655859 0.020870907 0.2924293 0.039215017 0.71084267 0.13683423 -0.3144941 -0.011701165 0.19583529 0.24402414 -0.5265037 0.24667381 0.23492765 -0.001670606 -0.7044292 0.2010535 -0.12861328 0.075855 0.04754254 -0.28332934 0.18225527 0.46195787 -0.00012190755 0.74238133 -0.53513163 0.19336092
37 -0.2882527 0.30287355 0.62991184 0.41841757 0.27757174 0.37243587 -0.6060928 -0.14992973 0.0672992 0.2447648 -0.0750997 -0.115106516 0.13708214 -0.6893108 0.04242759 0.71244055 0.27691087 1.1028954 -0.11940381 -0.1518656 -0.22654678 -0.00861591 0.22438188 -0.56437546 -0.1436532 0.5079177 0.12986924 0.18404354 -0.032961696 0.3926345 0.4034796 0.17625627
11 -0.16266683 0.06926907 0.09533588 -0.1809641 -0.025542075 0.08532562 -0.60281545 0.29145923 0.40326867 0.38864022 0.24699958 0.3520328 0.5436576 -0.23761904 0.7850001 0.7162514 -0.19728683 0.41175845 -0.1725432 -0.24978144 0.100115344 -0.42168993 -0.07370465 -0.55074334 -0.93290746 0.48833746 -0.0974931 0.24592455 0.13732788 0.9367376 0.6932808 0.24150161
351 0.29985842 -0.27462205 0.14551689 -0.34818643 0.33375478 0.28873408 -0.06416457 0.7863544 -0.17435074 -0.08199376 0.16922964 -0.05448531 -0.45439348 -0.32937253 0.0006053246 0.47237495 -0.34929165 0.24243434 0.6022479 -0.46891537 -0.19305378 -0.58421195 -0.093278825 0.22505222 -0.019175086 -0.25432342 0.12239042 -0.016731234 0.58977246 -0.032482237 -0.52127564 -0.36698192
354 -0.057645 0.06569821 0.19522333 -0.5226851 -0.34385058 -0.3300734 -0.22556992 0.54637647 0.52787644 -0.33699554 -0.25201347 0.32494566 -0.5816919 -0.049948175 -0.034816623 0.23667392 -0.5919501 0.39314592 0.11282646 -0.7234776 0.44724923 -0.456106 0.036062352 -0.109307885 -0.5553735 0.18953978 0.7881443 0.3953632 0.23584978 -0.19160601 -0.1886388 0.589122
214 0.020009603 -0.02967828 1.0539417 0.49729735 0.39901415 -0.03464025 -0.49365485 -0.32681274 0.115369305 -0.5922085 0.2602903 0.21425006 -0.43805778 -0.15570402 -0.18239236 -0.15436478 -0.038169004 0.30866617 -0.05161755 -0.18256134 0.42183602 -0.4546802 -0.35036394 0.1173839 -0.13471359 0.40315545 -0.36708665 0.09740083 0.13248152 0.32478213 0.102578565 0.036317844
13 -0.5641999 0.3667478 0.16824399 -0.15027092 0.025622316 -0.2532184 -0.12616973 0.24326164 -0.4682599 -0.53023267 0.51135474 0.24871892 -0.41629857 0.0030164751 0.09361171 -0.21658292 -0.097326934 0.27134895 -0.13290457 -0.36250365 -0.3632585 -0.025683 -1.1180775 -0.2311451 -0.42140245 0.20905517 -0.44636092 0.2770617 0.26127625 0.052939296 -0.31016585 0.2335434
99 0.66385907 0.44668385 0.071335346 -0.2658435 0.07091194 0.16510616 -0.017013254 1.1356378 -0.23084915 -0.29453427 0.4581902 0.20535421 -0.13914141 -0.35779917 0.1361387 0.72668886 0.31818402 -0.041902 0.27207345 -0.80775595 -0.19080198 -0.36892533 0.28845873 0.07642656 -0.31440777 0.030179312 0.53077483 -0.39898497 0.3352878 0.08961133 -0.12097805 -0.25802314
357 0.47725067 0.5008375 1.1805514 0.1508333 0.040072378 0.3354495 -0.08501553 0.6410627 -0.626991 -0.18843298 -0.13227925 -0.17109764 0.13330129 -0.1669402 -0.10841177 -0.016410964 -0.572244 0.3317379 0.1500815 -0.49546245 -0.31852695 -0.4348269 0.2183067 0.17731637 -0.0114191845 -0.28144965 0.29906243 0.583387 0.2959453 0.21734749 -0.09296083 0.025108596
93 0.2558876 0.46380374 0.4746021 0.12844087 0.36382386 -0.81578434 0.30908602 -0.011715789 -0.045694407 0.45861393 0.054908596 0.046703644 -0.59683746 -0.39231795 0.29992005 0.44733968 0.09687133 0.6134534 -0.34696934 -0.16964062 -0.43723467 0.12080692 -0.12536517 0.29824486 0.18935837 0.49799028 -0.15158242 0.16286324 -0.15609986 -0.08080041 0.43015572 0.2453343
158 0.03652787 -0.2675628 0.31380466 -0.16054487 0.5091223 -0.15599662 -0.7509907 0.62989897 0.6054139 -0.38097146 -0.55438805 0.12102909 -0.2737803 -0.41906643 0.106868684 0.034278795 -0.43797493 -0.14191946 -0.71316844 -0.104701854 -0.29005286 -0.4293494 0.35281363 -0.22892363 0.4465964 0.04219259 -0.27736822 0.40448803 0.33698347 0.33239892 0.13246854 0.291356
58 -0.08146193 0.42826924 -0.013574991 0.41892388 0.012525335 -0.4857958 0.23153841 -0.08874417 -0.11735621 -0.16485062 0.22311792 0.3651389 -0.29725668 -0.7561269 -0.14359792 0.21641786 -0.15540124 0.004605328 -0.03217608 0.1391451 -0.42979747 -0.6195957 -0.6919123 0.5306236 -0.3904376 0.63847065 -0.083109066 0.34539136 0.27970758 0.037439227 0.37608722 0.0020791758
415 0.0986388 0.63240564 -0.03783349 0.7619058 0.07446182 -0.4462737 0.16671866 1.1055266 -0.09384048 -0.022279847 -0.012953699 0.33524406 0.10673307 0.021189136 0.78980476 0.26776907 0.16720185 0.2976105 0.4883067 0.09769876 0.10759764 -0.61799175 -0.108511366 -0.3199021 -0.36874196 0.21444336 -0.86362046 0.055371307 -0.53055495 0.040275168 0.15312184 -0.059981965
416 0.65668666 0.4000364 0.52860993 0.066360086 0.19060327 -0.2430361 -0.10054229 1.0552027 -0.23393959 0.027850375 0.58154035 -0.0725456 -0.26682603 -0.15632382 0.22277048 0.6129507 -0.48989323 0.036499374 0.47196248 -0.3967208 0.005825919 -0.40592185 0.18701224 -0.15778038 -0.04813067 -0.22464393 0.13240224 -0.12602127 0.52486336 0.14684248 0.19617942 -0.14755428
89 -0.0914082 -0.5787213 0.2618927 0.2234377 0.54378545 0.072476834 -0.19808023 -0.22639547 0.98473996 0.29026344 0.09888833 -0.15890443 0.39598054 0.041014247 0.22627142 0.55897105 0.0935908 0.29445264 0.14206855 -0.69773376 -0.013938581 -0.6838395 -0.21245383 0.314483 -0.12000573 0.5750451 -0.36958173 0.30977964 -0.23829086 0.6002575 -0.27710664 -0.1409923
152 0.35599977 -0.07499704 0.14369553 -0.19100429 0.3400987 -0.6893871 -0.09290144 -0.19612043 -0.32365856 0.24026904 0.46073917 0.18509382 -0.5007035 -0.69917697 0.17608237 0.061627068 -0.43253356 0.29499242 0.37455374 -0.41362166 -0.5275173 0.35843444 0.022100968 0.2160515 -0.31886166 -0.07557577 -0.66297567 0.29028597 0.76755667 0.31621993 0.35385644 0.25934863
593 -0.31364155 -0.15083894 0.3303982 -0.49922723 0.2897788 -0.41199696 -0.5859936 0.32302085 0.6793375 -0.06952078 -0.5007363 0.23291568 -0.3926332 -0.9622906 -0.42546624 0.4102058 -0.68170875 -0.07776046 -0.05206283 -0.54402786 0.2623434 0.10939235 0.4896485 -0.087406375 0.25566944 0.15214092 -0.039685152 0.29158077 0.5163455 0.2623554 -0.19905433 0.321119
776 0.4069917 -0.11614286 -0.14012656 0.2767498 -0.04284143 0.5877133 0.42350203 0.13799925 0.30497125 0.0706586 0.19572592 -0.18899599 -0.55179125 -0.19375001 0.6559696 0.34583327 0.4016095 0.46795696 0.19901307 -0.81272703 0.3144362 0.090987414 -0.041445263 -0.12903938 -0.35681537 0.010503583 -0.43819526 0.7631451 0.4386936 0.38480622 -0.26411623 0.487429
585 0.50823957 -0.23764965 0.32733533 0.49871588 0.5759934 0.31407005 -0.49737686 -0.20726766 0.066124 0.092231944 -0.6332882 -0.009898621 0.21371548 0.21562374 0.2994811 0.26166442 0.00933827 0.7397256 -0.2485458 -0.011395759 -0.5219475 -0.6779119 -0.19350797 -0.06207102 -0.11035567 0.5961855 0.25637442 0.7400618 -0.09991304 0.4875049 -0.4300135 -0.2563292
10 0.14672656 -0.0806791 0.46639678 -0.2680036 -0.021402607 0.37420306 -0.5091356 0.1400721 0.10286115 0.48482734 -0.156077 0.44457665 0.3299748 -0.5158665 0.6684069 0.18027768 -0.14723793 -0.46827403 0.21950932 -0.43496093 -0.23613788 -0.31544623 -0.55586964 -0.088140525 -0.06256248 0.61907536 -0.81336796 0.4285603 0.3899112 0.59871113 0.45308286 0.15961501
12 -0.18117504 0.412328 0.7158232 0.5507565 0.24658145 -0.6408511 -0.33514845 0.18826818 0.5836262 -0.078546405 0.12172246 0.22491795 0.1491532 -0.7193335 0.3021105 -0.49099368 0.35871652 -0.2584152 0.018731022 -0.0014778367 -0.20664762 -0.03346599 -0.70885724 0.5220974 -0.3025915 -0.25589642 -0.29962963 0.29890966 0.41144326 0.09928567 0.20188114 0.010751812
583 0.91082907 0.20501815 0.18237837 0.32369846 0.21240556 0.30018163 -0.04339592 -0.1521394 0.076018274 -0.068636686 0.05457392 0.21522115 -0.32699436 -0.2655861 0.594514 0.22492889 0.346333 1.0376865 0.0984591 -0.31944275 0.31009477 0.39612344 -0.4338915 -0.32709086 -0.004831752 0.06481868 0.24714658 0.36667806 -0.21768866 0.062273446 -0.23149903 0.54866207
72 0.54244244 0.2582805 0.4121707 -0.0675283 -0.13538368 0.0013822436 -0.35324582 0.9958933 -0.12733334 -0.2907391 0.27903482 -0.20322011 0.4160408 -0.40774634 0.06343502 0.40710476 -0.4488055 -0.5917071 -0.33861685 -0.6050641 -0.05962401 -1.4422227 0.43002227 -0.14990193 0.01450038 -0.29489177 0.18019515 0.10925203 0.32973936 0.5875275 0.105976254 0.18005893
764 1.1116005 0.06518083 0.3589513 -0.4283371 0.6700681 0.59766066 -0.26742166 0.5371101 -0.1334253 -0.367918 -0.106624246 0.93306726 0.20753527 0.0486196 0.24279991 -0.1258263 0.26205477 0.39145884 0.14249726 -0.5400802 0.021516137 -0.33866173 -0.38565305 0.08125721 -0.11403509 -0.24413607 0.14410323 -0.33562067 0.33796796 0.2787905 -0.38422748 0.53852034
103 0.31958953 0.7141571 -0.21126252 0.5531972 -0.2293569 0.16309829 -0.29322654 0.3752008 0.3874315 -0.11572882 -0.39195046 0.087545335 0.060735047 -0.07580652 -0.045988493 0.48943856 0.46237105 -0.111812815 -0.55628395 -1.1909523 0.054119714 0.05193274 -0.4045614 0.071533374 0.0017002978 -0.43125328 -0.39077836 0.29252052 0.3347014 0.61387986 0.5350463 0.5448047
387 0.9074103 -0.11316508 0.53596663 -0.43403935 -0.13206172 0.61644506 0.075584404 0.34715948 -0.18840317 -0.52880156 0.0037478143 0.8265921 -0.23578787 -0.30574003 0.3515724 0.3032803 0.111525685 0.35050434 0.17019525 -0.3612085 -0.21470706 -0.47445405 -0.3317181 0.8214069 0.035333477 -0.29952717 -0.09209091 -0.39129314 0.28870472 0.33277005 0.029550802 0.6841237
59 -0.2370048 0.00536878 0.20074372 0.51752007 0.32469165 0.35028774 -0.8218001 -0.14796881 0.16128452 0.26207396 0.27231964 -0.38492996 -0.038713694 -0.37406948 -0.12624636 0.27532196 0.20445448 0.34070736 -0.3244278 -0.3430485 0.053476095 -0.5616024 0.14799435 -0.4588126 -0.308533 0.46930954 0.24832793 0.70851225 -0.44277525 0.7502731 0.19401376 0.28320158
87 -0.17280452 0.17190498 0.4411103 -0.14611341 -0.085484475 -0.29540518 -0.17331317 0.05110881 -0.01966243 -0.35419118 -0.24448244 0.23901974 0.031377967 -0.4688021 0.19504263 -0.62519205 0.13299826 -0.08429528 0.022342347 -0.34636265 0.118925005 -0.063890606 -0.67766017 0.2629495 -0.38270563 -0.030117193 -0.36327842 0.5919743 0.64414144 0.8256934 0.03677086 -0.18295223
90 0.15030824 0.3982765 -0.0037763643 0.17326406 0.17277855 0.069218665 0.32314453 0.25955355 0.76419926 0.04408 -0.57382846 0.3626818 -0.43171927 -0.16434142 0.036148764 0.22130679 0.111119546 0.11345997 -0.064169906 -1.0322487 -0.044283018 -0.53076404 -0.23758224 -0.13760059 -0.16136788 -0.31721506 -0.75195926 0.55225986 -0.19173518 -0.19404301 0.61140645 0.6335855
784 0.6343782 -0.11137581 -0.20785294 0.45885336 -0.270572 -0.42198282 0.030841295 1.0846549 -0.28968102 0.15163344 -0.06734507 0.49820146 -0.679768 0.4421958 0.049892817 0.26917183 0.023207655 0.10917406 0.30730745 -0.15643303 0.08676777 -0.014772981 -0.101655506 0.3621324 -0.27646065 0.03284393 0.5667185 0.41375002 0.06984354 0.58129597 -0.20392354 0.40292507
308 0.35054588 0.038867895 -0.21695739 -0.10971197 0.6541235 0.20392703 -0.1185231 0.10060989 -0.73036975 -0.3027944 -0.17584492 0.22574341 0.72692883 -0.12716748 0.4265784 0.15523888 0.030910745 0.63623625 -0.16804361 -0.92869645 -0.52016723 0.08898436 -0.12512016 -0.1927432 -0.4863824 0.46195677 -0.83335596 0.4548587 -0.045706302 0.010693609 -0.7035003 -0.32932788
827 -0.47106585 0.31954303 0.585558 -0.15841512 -0.3548193 -0.49369186 -0.24696802 0.3179295 -0.08005664 -0.5790282 0.044355754 0.31919533 -0.052541923 -0.2963209 0.28139743 -0.5207509 -0.16272521 0.26107746 -0.0038558764 -0.28894943 0.0069931806 -0.048553478 -1.2342051 -0.10006058 -0.25517797 -0.15855956 0.09974979 0.4152171 0.009426991 0.057725493 -0.3662613 -0.094741255
207 0.30563873 0.06297179 0.3859391 0.67651695 0.68681884 -0.22014053 -0.6935237 0.6200427 0.38933778 0.26767224 0.21982375 0.172668 0.17849492 0.11187722 0.1698578 0.018534288 0.39386612 0.2600276 0.32263416 0.12137541 -0.4064878 -0.17519362 0.22936901 -0.08719108 0.26882702 0.5672965 0.46479684 0.25662512 0.27200076 0.42891255 -0.65320563 -0.24377026
679 0.14884602 -0.5801142 -0.14840081 0.27719384 -0.27282655 0.31273 -0.01576417 0.8403303 -0.31731784 -0.22486396 -0.16932473 0.039118756 -1.0355731 -0.5601258 0.9831985 -0.5138856 0.21008751 0.29332113 0.14155883 -0.55734026 -0.08530888 -0.22581883 0.034545626 0.060028218 0.35246292 -0.04298337 0.12486123 0.5265157 -0.24262339 0.33106154 0.5961318 0.3561006
19 -0.50127584 0.19986571 -0.098447435 -0.27636263 0.025360458 -0.17151327 0.1417644 0.55860096 -0.12861755 -0.5839103 0.08682215 -0.016779482 -0.30086026 -0.27923563 0.25057596 -0.009593224 -0.09004625 -0.112224646 0.22029558 -0.111972906 -0.5376524 -0.094085425 -0.88825905 -0.26753807 -0.39007694 0.4113987 -0.08334346 0.4692096 0.3464568 0.15120485 -0.18874505 0.24510743
233 0.22229393 -0.10380499 0.34640694 0.19255461 0.2950171 0.17252192 0.2985624 0.54665667 0.09652484 -0.040505525 -0.044095613 -0.442263 -0.75188863 -0.016564682 0.30865645 0.16663954 0.20176882 0.41825917 -0.16830353 -0.2799866 0.41516298 -0.17310037 -0.20388435 -0.44067296 0.16352469 0.64136755 0.41726118 0.66197896 0.32882825 0.14876805 -0.20750628 0.70962876
95 0.042608097 0.18465911 0.44570884 0.11079517 0.24350218 -0.3523473 -0.21900167 0.7462264 0.33220604 -0.29726744 -0.2581367 -0.04591954 -0.03560736 0.15503083 -0.434429 0.37185043 -0.8577519 0.01668607 -0.25010708 -0.9079902 0.40816787 -0.09536781 0.055427805 -0.450118 0.028395459 0.16499552 -0.30005014 0.5537296 0.16012643 0.17135705 -0.32193416 -0.40030313
336 0.5682374 -0.11621359 0.40723714 0.50343657 0.42554453 -0.20327884 -0.22878008 -0.20377108 0.30048162 0.90289235 0.5843276 0.23619401 0.17375542 -0.52444726 0.3113711 0.08861402 0.17028405 0.25539488 0.26361278 -0.02299014 -0.10159999 -0.35590872 -0.031245494 -0.40796486 -0.037364904 0.0414342 -0.19824077 0.5144389 -0.871423 0.6757631 -0.09567999 0.13497524
71 -0.102937184 0.39161986 0.011363524 0.7266867 -0.09974035 0.16691515 -1.1292272 0.3884715 -0.33781424 -0.33428097 -0.21517092 0.030971443 -0.34127927 -0.72275835 -0.05273891 0.30261737 0.061535027 0.16123766 0.20241828 -0.3215122 0.061092205 -0.28275484 0.41506812 0.06585184 0.21578406 0.19676176 -0.5126119 0.33145425 -0.108001456 -0.22031897 -0.04090883 0.26999936
181 -0.16536108 -0.74736744 -0.016073447 0.48849574 0.16658603 0.038402047 -0.14481369 0.8599217 -0.23965757 -0.7179772 0.025881821 0.24816367 0.059517223 -0.5691521 0.96688205 -0.20725052 -0.066692084 0.14618085 0.013647935 -0.19017704 -0.034399163 0.12372201 -0.1208667 0.2072768 0.18006311 0.2985471 0.41556484 0.4407593 -0.39308423 0.46261346 -0.06124867 -0.08749838
384 -0.10449817 -0.03619663 0.18562378 -0.34132686 0.44800243 0.51277614 -0.4719987 0.06902811 -0.07395258 0.6195599 0.12859789 0.35549593 -0.39026964 -0.41401216 0.09113296 0.30929354 -0.24856183 -0.11260867 0.31426048 -0.49860686 -0.41434258 0.12264854 -0.43056887 0.31176913 0.38618943 0.5199411 -0.9859205 0.25482634 -0.16462 0.36757344 -0.2352055 0.5105363
1675 -0.08298388 0.43289384 0.1504873 0.41275483 -0.18590553 -0.18496764 -0.114609525 1.2347264 -0.45234224 0.48436713 -0.17886408 0.6120026 0.11654382 -0.127816 0.6294368 0.4349706 -0.24103105 0.25287604 0.46971637 -0.0583768 0.6793943 -0.4776757 0.03726469 -0.21987271 -0.35863742 0.3442149 -0.89703363 0.09717419 -0.20428874 0.36528212 0.07010102 -0.1215615
290 -0.16470556 0.09146867 0.23125114 0.5320582 -0.2755197 -0.48037848 -0.2599326 0.14143796 0.030552214 0.0036606444 -0.29419702 -0.047452398 -0.13838601 -0.79035705 0.016638426 -0.81816155 0.65743953 0.2536893 0.72399664 0.021323849 -0.4183935 -0.01849456 -0.41861057 0.4021191 -0.33389378 -0.6310869 0.10415582 0.82030237 0.11817444 0.4237888 -0.4449233 -0.11075547
3682 -0.06200548 -0.33291444 0.37301037 0.17101814 0.3044194 -0.23902631 -0.17912073 0.7068815 0.13811651 0.28802946 0.24043036 -0.49587014 -0.123793975 -1.0226793 -0.6908341 -0.1098675 0.3660296 0.5106807 -0.72560143 0.043454822 0.011916038 -0.26580864 -0.7658656 -0.34971723 0.07276525 -0.48332798 -0.40862453 0.31356823 -0.3410069 0.30550972 -0.50038916 -0.39015508
623 0.051464003 0.19723105 0.14567688 0.03052386 0.45282724 -0.119471855 -0.09383346 -0.066173285 -0.35392314 0.401597 -0.4466959 -0.40183538 -0.7614267 -0.65524673 -0.25045362 0.30050522 -0.22857238 -0.1455235 -0.032183345 -0.5668122 0.138915 -0.17140488 -0.063235216 0.27094206 -0.061039016 0.09821705 0.022174872 0.4264871 0.85170877 0.9055012 0.7552832 0.43085247
268 -0.3705382 -0.06977832 -0.03913642 0.4397351 -0.50476956 -0.35339063 -0.46339417 0.18237671 0.056351647 -0.21078685 0.015114113 0.3504308 -0.17284063 -1.2786902 -0.3318665 -0.16913012 0.05378226 0.13225684 0.2736062 0.16666551 -0.14915255 -0.53215283 -0.46366066 0.85396296 -0.17482536 0.21422662 0.018309336 0.48588622 0.31365037 -0.1676492 -0.09907552 -0.04049665
580 0.34080267 0.46054152 0.32552734 0.2811198 0.10104636 -0.70657575 0.16801375 0.39433187 0.206215 0.87306565 0.49370086 0.59336436 -0.0106081385 -0.4416302 -0.2689084 -0.06266225 0.44512343 0.23012953 0.48583734 -0.7835978 0.8265406 -0.12245481 0.32632035 -0.31898114 -0.14720543 0.3260211 0.30210224 0.27446502 0.4291341 -0.12896013 -0.7697212 0.7576932
228 0.10666706 -0.17013879 -0.3231961 0.13236608 -0.15870085 -0.07781557 -0.17547426 0.3862784 -0.10681597 -0.007655074 0.258486 -0.53357506 -0.4844946 -0.24674214 0.1419365 0.47553453 0.27694687 1.053393 -0.4048925 -0.08625985 -0.7674497 -0.19445366 0.55379045 0.22938235 0.40796468 0.22029759 0.25350353 0.45179757 -0.117123105 0.87166464 -0.4467004 0.063819565
43 -0.29360262 -0.49032667 -0.2573169 0.40109766 0.1220746 0.27284098 -0.08650602 0.38400868 -0.46457955 -0.09402742 -0.035654753 0.7237165 0.5224986 -0.88875616 0.6524905 0.50933117 -0.2626033 0.37054822 -0.052806497 -0.37341866 0.072969384 0.15402338 -0.32923424 -0.119905524 0.32025892 0.24499513 0.2974226 0.1955186 -0.5168694 0.9268759 -0.2282382 -0.31405482
949 0.20712785 0.12696138 0.36513034 0.5930211 0.31037155 0.09908392 0.12421486 0.35411906 0.01866885 0.011705294 -0.031762477 0.3775669 -0.33645296 0.55036294 0.16897629 0.17483716 0.22125165 0.27221575 0.15687127 -0.59404516 -0.01890804 0.37462607 0.079560496 -0.14251913 -0.61976707 0.054903947 0.35455352 0.68066734 -0.40716213 0.7314014 -0.7670804 -0.2622506
852 0.4503893 -0.22653495 0.5922409 0.3822959 -0.1729328 0.017873028 0.022723854 0.36054134 0.11093699 0.34161422 0.25804868 0.5813999 0.24178421 -0.6226293 -0.061100587 0.880555 -0.90004313 -0.1511119 0.17401548 -0.03768 -0.0038637528 0.16374378 -0.28384674 -0.43168515 -0.08912994 -0.18485749 0.6208814 0.5944437 -0.39618024 0.42257908 -0.9149809 -0.1737689
372 0.61790705 -0.17853323 -0.5179858 -0.056655288 0.62258327 -0.2733982 -0.41459268 0.354095 0.41069987 -0.013533864 0.028359741 0.41588914 -0.16017914 -0.15112135 0.89170235 -0.34866968 -0.3166893 0.56630695 0.35375786 -0.6652996 -0.6703335 -0.9000735 -0.37840986 -0.42142156 0.45151415 -0.6809829 0.0032822576 0.047781684 0.36613876 0.07112219 0.4604416 0.36984417
851 0.7220646 -0.3674306 -0.38812461 0.4941177 -0.14430928 0.055041187 0.26007158 0.7339349 -0.28113323 0.3980613 -0.098877855 -0.13262913 0.0038155594 0.21847694 0.19206317 0.3290542 -0.022692708 0.5750256 0.1130099 -0.6752774 -0.0135220345 0.024807142 -0.47400838 -0.505364 -0.014840717 0.47063184 -0.06315104 0.93440247 0.4540128 0.31746027 -0.17448577 0.13983484
211 -0.026006809 -0.123031594 0.50842965 0.7284186 0.3237283 -0.17219956 -0.89030993 -0.1521126 -0.026536169 -0.7634318 0.36040178 0.24685892 -0.21271127 -0.40499803 -0.06306988 -0.13549215 -0.124929965 0.5615395 0.104179926 -0.4189643 0.5797724 -0.34689605 -0.23295903 -0.17176822 -0.04535979 0.80056447 -0.36860934 0.0371995 -0.09050949 -0.13080822 0.3319357 0.063456096
342 0.79279524 0.3575559 0.4145185 0.38138908 0.25630414 -0.17219023 -0.03431264 0.20208627 0.25350875 0.3983998 -0.074005656 0.8501585 -0.40331748 -0.47188473 0.107158035 0.12767674 0.16915591 0.46126738 -0.39593366 -0.18310298 -0.19917743 0.26567748 -0.20870467 0.270819 0.35070115 -0.36008075 -0.27188593 0.30986944 0.3349467 0.07246523 0.4867539 0.78668493
288 0.18588674 0.17068973 0.23529318 -0.62611866 0.10789921 -0.30527088 -0.15632847 -0.011871942 0.26121178 0.0890523 -0.6759356 0.1066563 -0.38545227 -0.945929 -0.23616607 0.69114655 -0.43750384 0.73704195 0.37151736 -0.43200758 -0.25138053 0.5605556 0.24012683 -0.20116986 -0.3713221 0.08487682 -0.31480148 0.27105397 0.47930393 0.29498392 0.06332866 -0.36863956
606 -0.28720897 -0.2323242 0.026046615 -0.69709635 0.069514856 -0.4409182 -0.7832614 0.059778858 -0.24188188 0.32145333 0.26956022 -0.3726401 -0.16340366 -0.93975896 -0.101099275 0.3154819 -0.46143115 0.85506237 -0.11635894 -0.5721466 -0.5281182 0.20621097 0.6476 -0.46357417 -0.5462092 0.033763416 0.093858615 0.42992982 0.53322583 0.34067142 0.19417018 0.43541017
208 -0.0924108 0.22733234 0.073570624 0.23895113 0.3767231 -0.60906124 -0.6303107 0.7269575 -0.10003883 -0.034551784 -0.10581342 0.29511002 -0.11946536 0.21042967 -0.43446746 0.30585545 -0.71377426 0.75557005 0.26631692 -0.76949483 0.06425867 0.5116299 -0.3255873 -0.15030305 0.096464984 -0.10457571 -0.52695954 -0.06547115 -0.046875577 0.50725937 0.27396607 -0.52684855
291 0.033273738 0.020970963 -0.10051244 -0.15342045 -0.36594632 -0.38162294 -0.5353618 0.08292874 -0.28000063 -0.2916617 0.6040833 0.56678677 -0.38103747 -0.46821266 -0.0618127 0.4394942 0.48743892 0.052200764 0.15457125 -0.80511755 -0.25184408 -0.09157382 -0.061041027 0.041633315 -0.020486947 0.7187639 -0.1223445 -0.12420434 -0.28284365 0.2883158 -0.10118948 -0.58927554
1350 0.15861969 0.24445419 0.16898918 0.45710027 0.09361669 -0.24493383 -0.013872403 0.43075737 -0.044075668 -0.3174276 -0.05130837 0.1886105 -0.41327614 0.33759898 0.10224354 0.33833963 0.42564523 0.13889843 -0.1502039 -0.6620515 0.37088558 0.33917633 0.065670475 -0.16216949 -0.45945773 0.32342815 0.26816878 0.52644455 -0.8518461 0.65132713 -0.5356305 -0.21587117
188 0.29304948 0.37511897 0.3771 -0.42403397 0.3251103 0.12427296 -0.8854148 0.4938801 0.6531075 -0.1630237 -0.25102964 0.16173162 -0.3892198 -0.4726458 0.45136693 0.32177058 0.3057916 -0.2206048 -0.14456503 -0.47010174 0.110333554 0.089660354 0.044009767 -0.48706263 0.22705491 0.014054442 -0.06710256 0.1886318 0.00958103 -0.02175675 -0.36328804 -0.011167822
196 -0.22503456 0.2216748 0.21463534 -0.19141388 0.3552052 -0.30258223 -0.88009757 0.21393286 0.3345177 -0.4275829 0.3588805 -0.07235105 -0.17413932 -0.24382485 -0.58906674 -0.04943854 -0.3476912 -0.09402989 -0.41870728 -0.8367806 -0.3764268 -0.20735848 -0.17279524 0.17740123 0.29815406 -0.2434792 0.10633189 0.18868732 0.20366126 0.31340855 0.2653732 0.86469513
442 0.110161126 -0.43092328 -0.09398911 0.68598 -0.071326934 -0.31815872 -0.6407966 0.45179918 -0.14743842 -0.28678635 0.40493354 0.03605344 -0.19306898 -0.15364456 -0.30883244 -0.14230983 0.38596752 0.7812337 0.25589538 -0.21800442 -0.062311854 -0.19260593 -0.14206387 0.18034934 0.063584335 0.1007719 0.58535796 0.34395978 -0.32008195 0.15686235 0.14489117 0.6501851
134 0.42820892 -0.39664587 0.53529984 -0.21399818 0.43052268 -0.16742074 -0.72976744 0.53866124 0.77969664 -0.124866135 -0.4280098 0.6361554 0.20856293 -0.24335545 0.37686634 0.17454383 -0.17795724 0.07557528 -0.047549225 -0.4992482 0.10689867 -0.2854735 -0.007569611 -0.027341546 0.38090998 0.87196296 0.18327019 0.14293708 -0.035193626 -0.39644614 -0.12300868 0.07309454
324 -0.23292132 0.056165297 -0.36130354 -0.37556222 0.38130313 -0.36888188 -0.088243194 0.92519903 0.7051114 0.98062813 -0.36429936 0.7308238 -0.56932634 0.14974187 0.25434044 0.027484918 -0.2261537 0.6401395 -0.0067672725 0.09274773 -0.6651965 -0.8487151 -0.25258365 -0.15294766 -0.41642892 -0.22578834 -0.5748842 0.38671157 -0.10070893 -0.15048185 -0.5351529 -0.1859055
721 0.1586134 -0.06376553 0.13376017 0.15702094 0.5176741 -0.37694126 -0.4635376 0.74591243 0.15992749 -0.12438123 0.2117666 -0.06637675 -0.571038 0.32243145 -0.49547955 0.74232113 -0.10580959 0.09121707 0.07022961 -1.0597385 -0.46820885 0.29233694 0.031794563 0.4230464 -0.20002005 0.11605595 -0.28723142 -0.105806306 -0.25518253 -0.24765737 0.04846458 -0.3500798
77 0.5250346 0.4861345 -0.1134065 0.16194332 -0.105801135 0.3318554 -0.16126685 -0.2806667 -0.47109932 0.4629429 -0.524452 -0.16145964 -0.36259165 -0.7085551 -0.16950807 0.36863238 0.49260777 0.0858981 0.0053818757 -1.0379721 0.28656572 0.010533358 -0.48096567 0.09597207 0.21577694 0.07875301 -0.08581179 0.5504966 0.1510861 0.09906511 0.0010710313 0.954857
157 0.29996523 -0.43442702 0.25541878 0.6179444 -0.17437662 0.048571058 0.059143927 0.55931085 0.09756438 -0.07851541 0.059659522 -0.10199852 -0.696388 0.34655964 0.51347196 0.39842975 0.47140107 0.3246818 0.5578255 -0.6318563 0.1238198 -0.78146845 0.18338771 -0.13567743 -0.48478484 0.09934986 -0.058151573 0.43941528 -0.07468866 -0.07576631 -0.1452428 0.014435116
609 0.18106268 -0.3991942 0.60160947 0.8963072 0.009703657 0.14169012 -0.21216565 0.11947352 -0.34091908 -0.30103892 -0.03922548 0.18329895 -0.4464759 -0.20949663 0.07751651 0.46299893 -0.3018109 -0.13946186 0.17233804 -0.4575546 -0.47811845 -0.07695425 0.52363276 0.06871145 0.58628064 -4.087563e-05 -0.54941064 0.45561624 0.096383385 0.6743676 -0.18816815 0.11855275
164 0.60401225 -0.3326709 -0.10893276 0.35404003 -0.46570614 0.53874373 -0.3804317 0.2336842 -0.23516928 0.19167826 -0.11601131 0.14681664 -0.77575743 -0.49474522 -0.053159002 0.77007335 0.2607251 -0.3507183 0.07537446 -0.31177565 0.23016733 0.25717372 -0.46506807 0.6359896 0.1106966 0.24175285 -0.04854838 0.5093093 -0.40688828 0.2808666 -0.90912354 0.5180025
111 -0.08248214 0.388077 0.32309303 0.016769443 0.14426158 0.14130054 -0.42773712 0.2422982 -0.4941383 0.48358613 0.3594409 0.111021504 -0.5991207 -0.8636518 0.028916685 0.22186767 0.33559984 0.4425819 -0.24139687 -0.115743876 -0.5994469 0.19449985 0.060059916 0.45832786 0.35269263 0.38910824 -0.43052873 0.095796034 0.29936275 0.3973108 0.55676425 0.38125792
375 -0.04544585 -0.03360625 0.14165744 0.066973366 0.2531978 -0.033755053 0.0829632 -0.22394042 0.29583538 0.1338306 -0.3042155 -0.37465367 -0.70055485 -0.0655491 0.37434593 0.9092365 -0.9045046 0.70051664 -0.1807501 -0.18407625 -0.24154866 -0.48646826 -0.6143496 -0.06719585 -0.19810458 -0.5952887 -0.75340134 0.41444767 -0.006258478 -0.2505572 -0.7993252 0.5223566
481 0.1531489 -0.077333085 -0.019286413 -0.5327624 0.7861091 -0.016355697 -0.31517032 0.57756793 0.2689304 0.43825966 -0.3415823 0.8050538 0.3413359 -0.26180157 0.5486188 0.12842785 -0.33841756 0.58711463 -0.34994727 -0.76763296 -0.6304794 0.55245906 0.12828359 -0.23070166 -0.25942108 0.48683205 -0.10938472 0.57984453 -0.2005815 -0.19839862 -0.10102251 -0.08880621
124 0.55054045 0.021495134 0.36348018 -0.021904925 0.65596724 0.54899824 -0.58142936 0.5337755 0.22509836 -0.1153443 0.032393504 0.5233655 0.106129326 0.0101936525 0.46250808 0.110676505 0.045852292 0.20928727 -9.6780575e-05 -0.2444194 0.17327303 -0.7270325 -0.6297861 0.06455602 0.083308086 -0.5116047 0.6694015 -0.20898998 0.028019877 0.29381588 -0.2334156 0.4854311
104 -0.27639586 -0.85364485 0.09113756 0.46372262 0.21507026 -0.3749529 -0.11586821 0.33623973 -0.6479426 0.053841714 -0.5071578 0.14571758 0.42358404 -0.24416189 0.49205676 -0.012608009 -0.06641057 0.8259403 0.08741423 -0.11772019 0.1464234 -0.3199347 -0.40348855 -0.5465085 0.20127995 0.157128 0.6803006 0.4554326 -0.1896559 0.5184632 -0.66521955 0.23989666
225 0.32137296 -0.24555637 0.06372017 0.6876075 0.24324755 0.21708906 -0.71351516 -0.2343526 0.5003997 -0.17420141 -0.13801557 -0.09077273 -0.17135513 -0.11888212 -0.013744901 0.59723115 0.1413118 0.7272851 -0.13524054 -0.07765716 0.095278315 -0.66667396 -0.17466731 -0.11091447 -0.285957 0.89217234 0.23111582 0.47835952 -0.1216822 0.34731716 0.0829775 -0.3401584
634 0.24396183 -0.043712728 0.44910443 -0.17040698 -0.0013603803 -0.4867745 -0.72953135 -0.0015189245 -0.24194671 -0.5135115 -0.1021508 0.030035088 -0.1892839 -0.6964697 0.80295247 0.111161485 -0.04511764 0.42054245 -0.19424792 0.44297665 -0.1846476 -0.059958417 -0.5449703 0.38858438 -0.27844384 0.33494845 -0.31425953 0.20625916 0.059093226 0.11081273 -0.2616077 -0.4402366
3772 0.1581947 -0.53247666 -0.29413903 -0.12769173 0.5744472 0.05612198 -0.56703776 0.59455657 0.35552326 0.40559298 0.9929673 0.18543275 -0.4188205 -0.64644367 0.061269768 0.092965215 -0.37045732 -0.19864094 -0.56121945 0.17250037 0.054241702 -0.5228344 -0.26080802 0.11120132 -0.0015130481 -0.28745604 0.06769531 -0.106908016 -0.29652512 0.6451703 -1.1486944 -0.018833643
3693 -0.13868713 -0.24345742 0.00136014 -0.20791084 0.024614828 -0.7000725 -0.087274075 0.56109107 0.3767782 -0.21603778 0.4559598 -0.2517351 0.122774094 -0.66195333 0.24807854 -0.2493837 0.122289866 0.20487483 -0.70892966 -0.13168682 -0.04458119 -0.0030842756 -1.1273158 -0.40560356 -0.12434711 0.11881995 -0.44775134 -0.1032119 0.23550048 0.07518572 -0.77491605 -0.1657498
438 -0.004078958 0.2672001 0.6755894 0.23006581 -0.21876419 -0.6054835 -0.091102175 0.587879 -0.108640656 -0.49103585 -0.45504123 -0.37438148 -0.14979522 -0.18639381 0.22902137 -0.2936015 0.26434222 0.23448241 0.1403229 -0.1852752 -0.15717259 -0.20884599 -0.79340976 0.32486632 -0.06209364 0.32063672 0.16681956 0.54552203 -0.43510762 -0.24313332 0.28730285 0.078053914
3875 -0.008882332 -0.8408345 0.5202682 -0.12532568 -0.00821502 -0.6183118 -0.26407978 0.8846716 0.5934012 -0.29751197 0.5733431 -0.10537677 0.08727231 -0.2928205 -0.06950893 0.03541002 0.35269287 0.21454842 -1.1705494 -0.42488956 -0.0064315475 -0.009613277 -0.43532443 -0.15036014 0.06576795 -0.21215327 -0.9634779 0.052175175 -0.3896399 0.64536697 -0.56380194 -0.0938461
3762 -0.87975097 -0.46607506 -0.28914815 0.40733042 -0.48548597 -0.54123014 0.32967958 0.80579144 0.6508017 0.14765276 0.24173698 0.32237673 -0.35947374 -1.0548704 0.04335572 -0.44051313 0.5414994 0.5663506 -0.37162825 -0.46223876 0.25508973 -0.4211041 -0.4550573 0.10970831 -0.33913463 0.11178209 -0.25591257 0.15700768 -0.017501708 -0.23128346 0.2222979 0.462448
4121 0.35407153 0.027540572 0.43930143 -0.34308186 -0.015687713 -0.15829925 0.28078398 0.51262563 0.19450223 0.57377356 0.23967265 -0.1207771 -0.5689938 -0.81425196 -0.32932398 -0.24504109 0.056315243 0.31323886 -0.61393285 -0.13597721 0.17742047 -0.3925117 -0.3577631 0.061385535 -0.34736 -0.10741605 -0.21487148 -0.060163494 -0.26788265 0.30671135 -0.19708489 -0.41456527
510 0.3556821 0.43744028 0.13763128 0.4883376 -0.13198993 -0.6319813 -0.08011944 0.5780761 -0.09478346 0.60746 -0.3036719 -0.31485775 -0.3124425 -0.095914155 0.6864984 0.13251872 0.27326208 0.22462198 -0.05187395 -0.2111404 0.47034642 -0.28805616 0.13476814 0.121896274 0.6008462 0.0779378 -0.09941995 0.5567283 -0.052929208 0.6492165 -0.37380695 0.22751069
3770 1.0065699 0.04876232 0.28009233 0.56283027 1.0110372 -0.70223266 0.4259936 0.21712168 -0.09237717 -1.2078538 -0.55014694 0.187702 -0.012719453 -0.6902115 -0.41692412 0.6675156 0.2512811 -0.294984 0.32130513 -0.48793337 0.8630612 -0.29554018 -0.010021325 -0.17489938 -0.8716422 0.23050357 -0.024435593 -0.5439215 0.40322223 1.1012217 -0.35806793 0.85563004
653 0.7103972 0.27227256 -0.5054159 -0.23170869 0.39478377 -0.12797202 0.1731459 0.4457191 0.124968275 0.31804246 0.51584274 0.23139966 -0.22412293 -0.46264768 0.18553393 -0.017251244 0.07297447 0.39745352 0.4390385 -0.15204433 -0.09348544 0.29243487 -0.16812685 0.28560942 -0.15073498 0.26434287 0.05780127 0.68516874 -0.11757646 0.08254459 -0.65544885 0.51209897
3623 0.26444912 -0.13722242 -0.09969272 -0.38192257 -0.014261162 -0.552827 -0.041955344 0.8485262 -0.054296635 0.52437896 0.637146 -0.06768602 -0.23863034 -0.62102693 -0.011905641 -0.26370436 -0.1256988 0.9072706 -0.8888761 -0.35683876 -0.23430127 -0.1055954 -0.67427933 -0.21363999 0.3472954 0.24325413 0.06214848 0.09363628 -0.2910891 -0.13208197 -0.58361346 -0.5705873
1120 0.4334617 -0.121949315 0.92498726 -0.0744301 -0.8120383 -0.23317224 -0.80540985 0.39618072 0.1699626 -0.0893646 0.06129832 0.17824598 0.15542911 -0.4152209 0.35947272 0.62870634 -0.07886965 -0.012490157 -0.13155136 -0.5686973 -0.22204463 -0.46043408 0.50311273 -0.537993 -0.02435901 -0.9053817 0.5446246 0.2159882 -0.1503181 0.74519825 -0.34417588 0.020218939
312 -0.37107226 0.27638546 0.6186444 -0.22755483 -0.13994499 -0.7723331 0.29416192 0.26620734 0.018628266 -0.46792597 0.09446609 0.60521126 -0.21947505 -0.12397972 0.48660174 -0.076698326 -0.07967186 0.6693034 0.003520501 -0.47778428 -0.33369285 0.25539577 -0.3244968 0.66645837 -0.037827168 0.22014005 0.13256125 0.13600452 -0.11441146 -0.03660425 -0.349258 0.050462693
840 -0.37143168 0.47966847 0.37450686 -0.016616153 -0.30663842 -1.1736542 -0.19313268 0.21189733 -0.097353175 -0.41961634 -0.19878666 -0.076649986 -0.07555814 -0.42463353 0.47054276 0.42436722 -0.028485322 0.10955835 0.15566269 -0.20120226 0.06557757 -0.1976627 -0.6628537 0.22716059 -0.057540674 0.29359558 0.094384454 0.020148885 -0.25138262 -0.13816237 -0.1626835 0.20315216
212 0.9961933 -0.049421687 0.59024286 0.884984 0.31009755 0.25769684 -0.50915724 0.24077646 0.53955764 -0.18000162 0.7389724 0.45414406 -0.4739085 -0.19208978 0.55644 0.24484551 0.29918465 0.49097088 -0.34594586 -0.027823918 0.24019118 0.4892451 -0.5041204 -0.10036022 0.11937976 -0.23568384 -0.0041929013 -0.09451539 -0.029278804 0.47246203 0.3871601 0.36345676
3689 1.1293232 -0.2094516 -0.010508717 0.09040467 0.665013 -0.6418612 0.3567021 0.37904215 0.016828742 -1.2953204 -0.7658678 0.12833662 0.25542825 -0.5403301 -0.49097583 0.3885385 0.034719083 -0.5107318 0.2259135 -0.6811286 0.46137568 -0.19219403 -0.44970015 -0.046744827 -1.0192465 0.868181 -0.43498152 -0.24471107 0.2501352 1.0605757 0.16847986 1.0292774
3877 -0.70483315 0.014951118 1.6703479 -0.018836897 -0.19553635 -0.3757847 -0.10150207 0.8993067 0.118253596 -0.2070804 -0.5303628 -0.1532255 0.15742594 -0.881309 0.07813736 -0.93309903 1.0849923 0.03935291 -0.5161451 -0.7304477 -0.089783765 0.18464771 -0.6571489 -0.26362592 0.06566583 0.8807468 -0.3715825 0.4235154 -0.12792331 0.36402598 -0.03165559 -0.49157503
3663 0.13871197 -0.027817039 -0.025805544 -0.2954044 -0.04690817 -0.116004735 -0.0190903 0.16990039 0.254301 -0.01587608 -0.24965742 -0.4475095 -0.72782606 -0.7647315 -0.06798361 -0.7041653 0.122317605 0.46275878 -0.36041087 -0.20614746 -0.09895075 -0.4321691 -0.29082504 0.13074458 -0.312103 -0.008881213 -0.31660646 0.25347313 -0.17375278 0.3675002 -0.5008873 -0.7569526
659 0.32871637 -0.08959752 0.335382 0.61984426 0.20975973 -0.4709987 0.12463091 -0.2269088 0.44607475 0.58963996 0.61508095 0.93460596 -0.17811169 -0.17087252 0.12144922 0.18294317 0.231566 0.07689616 0.30065116 -0.24401253 -0.2897103 -1.1266773 0.35528392 -0.2843057 -0.30254626 -0.14058223 -0.7335943 0.23065215 -0.20485733 0.31575307 -0.21874867 0.2306814
3697 0.22208714 -0.49859875 0.21266985 0.06798481 -0.06527297 -0.2456535 0.0037567234 0.40347597 0.24828362 0.7170385 1.2195584 0.34837934 -0.40831512 -0.3409898 0.14274509 -0.14989361 0.20134826 0.5015794 -0.5854208 -0.30517617 0.059325613 -0.47089726 -0.60496926 -0.12880407 0.43120465 -0.49178278 0.14404085 -0.25980723 0.09527796 0.60509646 -0.73048705 0.24888037
3713 0.708514 -0.16237254 0.5069251 0.642733 1.1745622 -0.54333824 0.3447459 0.42193946 -0.14196195 -1.3881985 -0.6397491 0.08589502 0.064364 -0.7874839 -0.24622875 0.14081112 0.60163933 -0.077385925 0.09832533 -0.40144274 0.60160446 -0.19188686 -0.09331497 -0.53642523 -0.71391034 0.52646005 -0.51651573 -0.5925749 0.5081562 1.356507 0.19620244 1.490981
4350 -0.13220187 0.11626176 0.10192965 0.5953299 0.44345143 0.14888698 -0.031871308 -0.049448013 0.515325 0.25528774 0.20042846 -0.8727135 -0.40393108 -0.589672 -0.24606179 -0.19832565 -0.036488034 -0.021108856 -0.54914814 -0.34185058 -0.40318295 0.39620072 -0.61643785 0.09052035 -0.6153446 0.21440244 0.6130388 0.8466169 0.81504965 0.38504523 -0.56555235 0.24640149
3643 0.2835097 -0.06633969 -0.120467424 0.021328054 -0.19167489 -0.2244042 -0.011766063 0.60383475 0.12916279 0.06274538 0.57420516 0.15130539 -0.5786837 -1.0205643 -0.15109138 -0.5263009 0.005038341 0.32201526 -0.5401191 -0.112016715 0.17563735 -0.51250416 -0.22424784 0.2163286 0.031947453 -0.007642772 -0.54356265 -0.23059995 -0.09478557 0.007234645 -0.49688512 -0.35113105
3943 1.0350469 -0.090783626 -0.23452678 0.19373067 0.9532 -0.96611375 -0.044816475 0.5310726 -0.01873401 -1.1555629 -0.79364765 -0.17063245 0.24962753 -0.68876076 -0.5310522 0.7194199 0.61634207 -0.37631822 0.0054417527 -0.73309237 0.20109285 -0.02300642 0.23731029 0.08964116 -0.9497391 0.5215787 -0.40914756 -0.3167569 0.021388315 1.401965 0.17466758 1.1759372
3700 -0.16764945 0.03260076 0.34579915 -0.33269846 -0.10576749 -0.09277814 0.079625934 0.41503713 0.1775521 -0.04926283 0.08682944 -0.042990196 -0.6481369 -0.8244373 -0.26139963 -0.44154474 0.06476017 0.3638275 -0.5851655 -0.5361001 0.20794526 -0.5796517 0.05154308 -0.048573993 -0.6048969 -0.07785427 -0.397648 0.15202032 -0.7593836 0.11762158 -0.3839641 -0.65542257
3666 1.0175695 0.15165766 -0.12845463 0.12139402 1.0000743 -0.548137 -0.099182546 -0.1277381 -0.15233806 -0.71379673 -0.48928484 -0.012292328 -0.19328195 -0.57774264 -0.65180224 0.31723756 0.36414117 -0.2847665 -0.015013735 -0.4869487 0.13474348 0.07017039 0.46663284 0.3742531 -0.7030498 0.64402586 -0.22470696 -0.26553312 -0.009846169 1.2185228 -0.28738898 1.0559989
3720 0.9978337 -0.085194886 0.36093146 0.78456044 1.4352431 -0.87363297 0.18809532 0.5115143 -0.3745024 -1.0047758 -0.16464987 0.050950777 0.6633118 -0.6812457 -1.0863595 0.4981925 0.52504295 -0.48321986 0.12685591 -0.6888318 0.0035962425 0.48572484 -0.30443004 -0.224405 -0.7758416 0.59267193 -0.05888779 -0.26792064 0.1997283 1.6769135 -0.3024897 1.3187041
3937 1.0656922 -0.4713182 0.08384757 0.37642625 0.9341787 -0.33275136 0.14914024 0.40983194 -0.080851085 -1.3196285 -0.4641382 0.084584124 0.010719838 -0.7002597 -0.6666502 0.17728043 0.558443 -0.2731063 0.7235817 -0.7130466 -0.20200297 0.04735303 0.27526915 0.15666011 -1.1301427 0.40062445 -0.22904287 -0.5604305 0.10635702 1.7496817 0.36082774 0.51619226
3929 -0.3005422 0.12066114 0.41777617 -0.25937784 -0.04463225 -0.55460316 -0.082101606 0.3064491 0.051543497 0.039361686 -0.03284812 -0.12642445 -0.25075904 -0.78002644 -0.21142885 -0.5649834 -0.0770973 0.32843226 -0.24638304 -0.08106402 0.055713225 -0.2358105 -0.5793219 0.124480635 -0.4052499 -0.053589035 -0.371515 -0.29782778 -0.06401391 0.2952906 -0.34424782 -0.38932687
344 0.31200895 0.0179279 0.54762036 0.011939238 0.2833823 -0.41265762 0.35680592 0.36467 0.33119857 -0.24343169 -0.32317486 -0.23974687 -0.4064262 0.13446276 -0.10436528 0.7518701 -0.5369288 0.031143235 -0.13350247 -1.0260712 0.38654688 -0.054783776 0.13873105 -0.029635089 -0.2555175 0.4480112 -0.36616957 0.4427074 0.21569009 0.082451835 -0.03637241 -0.34225616
3717 0.22703755 0.19436005 -0.20641088 0.6749395 0.2660205 -0.6266562 -0.06493457 0.09431822 -0.1616123 -1.0524834 -0.10900167 0.4013681 -0.24046835 -0.65606767 -0.262317 0.43727818 0.05020828 -0.14779022 0.016145302 0.17730583 0.27929175 0.11271699 -0.27242726 0.266701 -1.0505104 -0.017277276 -0.10974801 -0.5415342 0.34878865 1.1374999 0.08431351 1.1047013
3694 0.015585672 -0.00080321927 -0.013094865 0.10084479 0.08390864 -0.42258173 -0.37440574 0.47677636 0.1575661 0.0206686 0.20086043 0.13356987 -0.11336163 -0.80694723 -0.31838655 -0.5787836 -0.16851522 0.40927073 -0.35396564 -0.015961947 -0.03692989 -0.052891452 -0.46042237 -0.053697467 -0.027159728 -0.10440024 -0.25963813 -0.2942102 -0.11761408 0.25588712 -0.3961417 -0.3989108
3680 1.0691699 -0.20720646 -0.18182948 0.023874125 0.4013371 -0.9242919 0.23910503 0.25464717 -0.5741018 -0.7314992 -0.01624777 -0.036319725 0.44384235 -0.8390757 0.03155008 0.5279757 0.22348914 -0.15530778 0.018393036 -0.51680505 0.39952552 0.04789995 0.12539822 0.30426034 -0.38390717 0.6844297 -0.13797761 -0.65774596 0.05271718 1.0433067 -0.16094998 0.7519648
69 -0.5153677 -0.19739625 0.4225914 0.054711387 -0.077597335 -0.013511429 0.010344695 0.078567326 -0.121838875 -0.37061265 0.4165464 -0.05695733 -0.12550543 -0.5195333 -0.03528416 0.5621912 0.14774251 0.11935272 -0.12668315 -0.57790434 -0.73749024 -0.10177743 0.5053667 0.027561752 -0.2855783 0.2091182 -0.4956053 0.38668588 -0.21921234 0.46119398 -0.1070057 0.016358368
3675 0.38970345 -0.24485852 0.56406444 -0.0639155 0.0254094 -0.075793065 -0.08433872 0.4766034 -0.09562507 0.29263556 0.17318013 -0.14599915 -0.19924837 -0.5985199 -0.38433474 -0.31564695 -0.19651562 0.23467238 -0.47934362 -0.18188569 -0.56968844 -0.2894402 -0.3056418 -0.18580331 -0.04101206 -0.14788736 -0.52074444 -0.11998151 -0.1036796 0.31876218 0.25701153 -0.23446734
445 0.23718551 0.67908347 0.31388623 0.03413953 0.29762596 -0.5267068 -0.119607255 0.71887916 -0.22112875 -0.2473254 -0.33227375 0.6451145 -0.4349944 0.23164226 0.11571979 -0.55030024 0.21757099 0.30153656 -0.36520532 -0.5057622 -0.38609457 -0.44116056 0.28841186 -0.018750034 -0.011697286 -0.19709107 -0.099127926 0.33692452 -0.65968275 0.21439795 0.3969332 0.34222522
3634 -0.06255446 -0.11392505 0.17281148 -0.291138 0.036349155 -0.343045 0.35942945 0.2765441 -0.21974652 0.22689417 0.21181346 -0.07885147 -0.6162413 -1.1670414 0.10983177 -0.22270149 -0.446239 0.48641682 -0.5736099 -0.4811409 0.4891575 -0.25833791 0.010597284 -0.1570658 -0.44127467 -0.24975085 -0.20455278 0.052895017 -0.34562242 0.35220855 -0.2690583 -0.67697215
3865 0.5554421 -0.026116597 0.1427157 -0.6077571 -0.39066008 -0.59381896 0.04313206 0.0836954 0.32414126 0.29189828 0.31160918 -0.14321263 -0.047314905 -0.98528004 -0.055698704 -0.3345771 -0.06492625 0.5947232 -0.79712355 -0.28184563 -0.32983354 -0.16797632 -0.6750925 0.07483714 0.30990607 0.16460149 -0.43607652 0.16452359 0.38252124 0.31393418 -0.44681996 -0.30614334
3714 0.011740662 -0.32649374 0.32480514 -0.61456877 -0.19535646 -0.38868722 0.1943582 0.21408851 0.021384878 -0.23335384 -0.19807477 -0.36759645 -0.65504926 -0.943099 0.41013673 -0.22036377 0.42219502 0.43789896 -0.48426607 -0.97297955 0.42708468 -0.42208704 -0.1285441 0.20271423 -0.43108186 0.02258786 -0.5556198 0.046860658 -0.97836685 0.38759896 -0.04202229 -0.8804383
3744 -0.07786078 -0.8634815 0.39967132 0.1898639 0.5233142 0.7132784 0.5058525 0.61750686 0.09082421 -0.25320294 -0.41082662 -0.04721548 -0.69578743 -0.4101173 0.6121054 -0.20391545 0.037813652 -0.09726094 -0.62055004 -0.3531869 0.044416234 -0.60522395 -0.4237703 -0.9667429 0.4161538 0.45373395 -0.2689617 0.5988059 0.35468292 0.41034132 -0.3613807 0.5146751
3686 0.7121433 -0.14194186 -0.27949893 0.40539303 0.86590993 -0.52899146 0.64800805 0.19907199 0.23929213 -0.89618796 -0.23093194 -0.37794453 0.31906745 -0.47248396 0.07604073 0.076092474 0.054671783 -0.3897701 0.2802753 -0.60805887 0.122033104 0.21448229 -0.24626832 0.122012876 -0.4832892 0.4226054 -0.28017944 -0.05951256 -0.77385044 1.1741505 -0.08968245 1.169417
3917 1.0255708 -0.7727388 -0.084005035 0.14122422 1.1700393 -0.5100582 0.3730269 0.055141356 0.13269366 -0.9151348 -0.4719282 -0.011306414 -0.060534194 -0.5597378 -0.19085704 0.45871845 0.45527828 -0.33511013 0.5126726 -0.5365019 0.09230077 -0.17341487 -0.28837785 -0.16725107 -0.87297785 0.2405997 -0.24818033 -0.55333555 0.09974138 1.9250333 -0.086403534 1.0584652
4106 0.78947383 -0.77318627 0.051156938 -0.36945727 -0.7304959 0.109593846 -0.3089762 0.860235 0.27172202 -0.07275307 -0.56180614 -0.58486766 -0.9367225 -0.6357593 -0.08876282 0.2518946 0.047586218 -0.603749 0.5510107 -0.34161747 0.3303594 -0.56534094 -0.67127264 0.38897386 0.15338051 0.31476343 -0.4152366 0.57414734 -0.32281494 -0.004352025 -1.0666533 -0.26239726
92 -0.5019243 0.79803586 0.33469945 -0.0062776636 0.62280774 0.061984066 -0.07514383 -0.23546086 -0.10459076 -0.21978666 0.739498 -0.15691161 -0.18422502 -0.5694296 0.21113947 0.024013609 -0.472007 0.08459887 -0.66000146 -0.24116135 0.064855285 -0.55435336 -0.77320725 -0.04212215 -0.5621368 -0.12711746 -0.6811538 0.039569754 -0.4543419 0.681265 0.2413259 0.18415459
3985 0.0710387 -0.052045997 0.026807055 -0.07929706 -0.46107665 -0.07126826 -0.14297064 0.17943971 -0.1456637 0.094078444 0.46538064 0.10594502 -0.1475629 -1.0265511 0.8191339 0.34317514 0.012748059 -0.2099092 -0.52593374 -0.47859445 -0.53580594 -0.3635489 0.07431698 -1.0876353 -0.6278022 0.08924306 -0.4167207 0.4073374 0.13160571 0.6618909 0.28578302 -0.7695723
544 0.038431637 0.27433726 0.56992936 0.021705218 -0.10225463 -0.5963406 0.16696747 0.31785178 -0.34172082 -0.697117 -0.09311129 0.4840707 -0.08997496 -0.3665581 0.06463561 -0.1871462 -0.30848265 0.30786058 -0.34732792 0.4574711 -0.42515406 -0.5135376 0.26449773 0.07136568 -0.20915142 0.37501475 -0.5069996 0.52106315 -0.55859476 0.53117466 -0.37179273 0.115205735
